~o
<STREAMINFO> 1 39
<VECSIZE> 39<NULLD><MFCC_D_A_0><DIAGC>
~v "varFloor1"
<VARIANCE> 39
 7.914982e-001 5.629525e-001 6.504016e-001 6.690341e-001 6.673487e-001 8.030654e-001 4.972198e-001 4.154061e-001 4.091316e-001 4.123420e-001 4.358953e-001 3.052994e-001 1.836966e+000 1.616252e-002 1.680612e-002 1.592145e-002 2.221946e-002 1.945003e-002 1.951501e-002 2.082671e-002 1.891161e-002 1.704559e-002 1.847978e-002 1.737418e-002 1.253533e-002 2.115463e-002 2.147347e-003 2.380595e-003 2.371068e-003 3.417991e-003 3.368902e-003 3.400898e-003 3.500464e-003 3.550174e-003 3.242797e-003 3.389731e-003 3.182189e-003 2.439308e-003 2.344984e-003
~h "ZERO"
<BEGINHMM>
<NUMSTATES> 12
<STATE> 2
<MEAN> 39
 -2.395306e+001 9.311701e-001 -1.108408e+001 3.416376e+000 -6.758465e+000 5.838837e+000 -3.968868e+000 1.880727e+000 1.138046e+000 -1.709847e+000 1.550866e+000 5.055370e-001 2.811917e+001 -7.584872e-001 4.213910e-001 -1.821821e-001 -4.595285e-002 -6.343668e-001 -2.828349e-001 -2.261592e-002 -3.459978e-002 6.017592e-003 -1.502692e-001 -8.683772e-002 -1.600284e-001 -9.174224e-001 4.839324e-002 -6.600988e-003 1.418768e-002 2.922182e-002 2.131267e-003 -2.950088e-002 -4.731173e-002 -2.691992e-002 -1.866603e-004 7.851213e-003 -3.415440e-003 -2.425614e-002 3.824921e-002
<VARIANCE> 39
 2.319775e+001 9.405622e+000 3.844069e+000 2.892157e+000 1.692182e+001 6.255330e+000 4.659102e+000 7.527779e+000 6.065962e+000 5.451486e+000 8.010105e+000 7.868082e+000 3.269469e+001 1.476769e+000 9.104729e-001 3.630735e-001 2.810938e-001 1.189684e+000 4.718322e-001 4.773638e-001 9.617578e-001 8.973851e-001 7.275159e-001 1.053512e+000 8.456792e-001 2.309170e+000 3.190111e-001 1.717502e-001 6.529366e-002 5.064223e-002 2.442053e-001 1.211387e-001 8.026953e-002 1.818157e-001 2.124557e-001 1.089009e-001 1.966755e-001 1.566724e-001 4.636180e-001
<GCONST> 7.139426e+001
<STATE> 3
<MEAN> 39
 -2.115090e+001 2.163131e+000 -1.259109e+001 2.409549e+000 -1.207150e+001 -1.002935e+000 -8.666268e+000 -2.099451e+000 -2.453411e+000 -4.430208e+000 -7.382698e-001 -3.106297e+000 2.901151e+001 4.894496e-001 7.110897e-003 -9.662233e-002 -1.106230e-001 -3.848629e-001 -5.589183e-001 -4.819416e-001 -3.251213e-001 -3.488716e-001 -3.366518e-001 -2.529351e-001 -2.694752e-001 3.540769e-001 1.655524e-001 1.219185e-002 2.866874e-002 -3.346452e-002 2.740243e-002 -8.487406e-002 -2.359698e-002 -2.342703e-003 -1.148854e-001 -6.048598e-002 -2.740815e-002 -2.470369e-002 1.926340e-001
<VARIANCE> 39
 2.032417e+001 2.698495e+000 4.102842e+000 6.290935e+000 1.173444e+001 2.321209e+001 1.822680e+001 1.398116e+001 1.894219e+001 1.569843e+001 1.279598e+001 1.643004e+001 1.085285e+001 1.480911e+000 4.287696e-001 4.916915e-001 7.611579e-001 9.897326e-001 1.536344e+000 1.243036e+000 1.044619e+000 1.219217e+000 1.152377e+000 1.504240e+000 1.589823e+000 9.262337e-001 4.047215e-001 1.032357e-001 1.330007e-001 1.664443e-001 2.018054e-001 3.899074e-001 2.428108e-001 1.552127e-001 2.468321e-001 2.391081e-001 3.459862e-001 3.733976e-001 2.950055e-001
<GCONST> 8.498290e+001
<STATE> 4
<MEAN> 39
 -2.076379e+001 1.855557e+000 -1.197972e+001 3.011424e+000 -1.226515e+001 -1.837243e+000 -9.326753e+000 -2.497130e+000 -4.097020e+000 -4.776836e+000 -3.983882e-002 -2.200993e+000 2.966829e+001 1.857926e+000 3.236137e-001 4.577340e-001 5.843776e-002 -2.645774e-001 -1.227417e+000 -5.546895e-001 -5.320536e-001 -1.112594e+000 -8.447472e-001 -3.991747e-001 -5.576017e-001 1.804831e+000 3.690869e-001 2.526630e-001 3.273273e-001 7.245979e-002 7.309550e-002 -3.725941e-001 1.976664e-001 -1.140825e-001 -1.711263e-001 -1.994932e-001 -1.665026e-001 -2.085003e-001 6.484988e-001
<VARIANCE> 39
 2.667793e+001 3.985954e+000 3.853195e+000 7.588280e+000 1.782209e+001 3.386331e+001 1.585992e+001 1.513601e+001 2.744813e+001 2.115198e+001 1.673881e+001 1.710038e+001 1.723675e+001 4.296849e+000 6.486441e-001 9.070926e-001 1.110647e+000 1.619654e+000 2.504076e+000 1.814918e+000 1.176231e+000 9.971719e-001 2.246981e+000 2.439587e+000 2.474796e+000 4.292599e+000 7.488350e-001 2.250002e-001 2.205487e-001 2.075917e-001 3.307732e-001 7.851287e-001 2.541819e-001 2.904882e-001 3.110138e-001 5.438926e-001 5.507895e-001 5.619755e-001 9.025310e-001
<GCONST> 1.018524e+002
<STATE> 5
<MEAN> 39
 -1.286079e+001 5.930342e+000 -6.241158e+000 6.223849e+000 -1.123702e+001 -7.897694e+000 -7.461524e+000 -5.761800e+000 -6.878542e+000 -9.389609e+000 -2.736842e+000 -5.964186e+000 4.202356e+001 1.617361e+000 1.019864e+000 1.506418e+000 7.038014e-001 -6.840121e-002 -1.735606e+000 2.170678e-001 -1.273977e+000 -1.096110e+000 -1.288094e+000 -9.319474e-001 -1.296566e+000 3.083162e+000 -3.464925e-001 1.646755e-002 8.304053e-002 1.938366e-002 -1.299651e-001 6.580570e-002 1.428077e-001 -1.289392e-001 6.840768e-002 5.165584e-002 3.080664e-002 1.403487e-002 -7.229368e-002
<VARIANCE> 39
 3.305506e+001 1.932337e+001 3.804253e+001 2.062180e+001 2.993258e+001 5.777119e+001 2.400896e+001 2.516605e+001 2.360962e+001 2.530829e+001 1.785131e+001 2.996880e+001 8.080782e+001 6.017573e+000 2.147029e+000 2.838192e+000 2.131888e+000 3.790451e+000 7.976780e+000 2.446991e+000 2.849905e+000 2.413710e+000 3.209885e+000 2.166103e+000 3.044313e+000 7.714284e+000 1.103538e+000 4.696614e-001 6.550821e-001 4.889804e-001 7.928590e-001 1.623489e+000 5.083711e-001 4.838130e-001 4.088866e-001 5.777141e-001 3.990370e-001 5.565711e-001 1.589564e+000
<GCONST> 1.259850e+002
<STATE> 6
<MEAN> 39
 -5.632768e+000 3.049417e+000 1.319284e+001 -4.886177e+000 -1.710613e+001 -1.205495e+001 -1.195446e+001 -1.706791e+001 -1.269375e+001 -5.904549e+000 -7.060132e+000 -7.701602e+000 6.273904e+001 6.101864e-001 -3.282266e-001 5.937665e-001 -6.314479e-001 -1.881459e-001 3.980358e-004 -4.860275e-001 -4.498185e-001 -2.270090e-001 3.180056e-001 -7.554758e-002 5.211595e-002 8.229576e-001 -1.549236e-002 -6.167428e-003 -6.560610e-002 -9.241611e-002 4.604783e-002 9.753595e-002 -4.778726e-002 8.091114e-002 1.044618e-002 4.228598e-002 3.006391e-002 3.936416e-002 -1.374111e-001
<VARIANCE> 39
 6.373849e+001 7.294042e+001 2.918834e+002 2.258665e+002 9.066496e+001 7.051060e+001 9.807566e+001 6.646120e+001 3.650255e+001 5.988854e+001 3.399910e+001 3.433107e+001 7.784467e+001 2.068573e+000 4.251093e+000 1.033564e+001 9.078981e+000 7.273299e+000 7.246820e+000 5.784115e+000 6.088304e+000 3.316766e+000 3.242181e+000 3.233381e+000 2.799772e+000 2.884909e+000 3.576566e-001 6.460997e-001 8.200238e-001 8.132342e-001 1.170812e+000 1.333166e+000 8.953561e-001 1.212595e+000 6.155671e-001 6.030416e-001 6.682564e-001 5.686966e-001 3.083419e-001
<GCONST> 1.432721e+002
<STATE> 7
<MEAN> 39
 4.017021e+000 1.457994e-001 8.386554e+000 -1.027549e+001 -1.561302e+001 -8.402319e+000 -1.926346e+001 -1.559422e+001 -1.385754e+001 -3.541486e+000 -5.828383e+000 -5.657694e+000 6.367599e+001 5.811794e-001 5.091883e-001 -1.101217e+000 -3.234713e-002 3.065080e-001 3.763939e-001 8.521511e-002 3.353445e-001 -1.847963e-001 -5.899129e-002 1.881808e-001 1.860967e-001 -5.144429e-001 -5.634642e-002 8.114246e-002 -1.682035e-002 3.197859e-002 -4.064118e-002 -5.664167e-002 9.929143e-002 9.525318e-002 3.904304e-002 -5.795772e-002 -3.679347e-002 -9.564982e-003 -5.238212e-002
<VARIANCE> 39
 8.898058e+001 8.072913e+001 2.888890e+002 8.709156e+001 5.768690e+001 7.253783e+001 4.629211e+001 8.487701e+001 4.729824e+001 3.562001e+001 3.390694e+001 2.609850e+001 5.504377e+001 1.506128e+000 4.449047e+000 5.309680e+000 6.562352e+000 4.909375e+000 6.426632e+000 4.552806e+000 6.682818e+000 6.201322e+000 3.231063e+000 3.372145e+000 2.497012e+000 1.148998e+000 1.602959e-001 4.382737e-001 5.283316e-001 8.508870e-001 8.220302e-001 1.101547e+000 7.513700e-001 1.325948e+000 1.331937e+000 6.349413e-001 7.627268e-001 5.317066e-001 1.387141e-001
<GCONST> 1.365115e+002
<STATE> 8
<MEAN> 39
 1.210436e+001 1.278883e+001 -1.101362e+001 -8.906333e+000 -1.069052e+001 -3.873902e+000 -1.605253e+001 -7.352758e+000 -1.405025e+001 -5.300337e+000 -5.364958e+000 -5.498920e+000 5.280807e+001 -6.721098e-001 5.590714e-001 2.470274e-001 4.873363e-001 4.701816e-002 3.460864e-002 3.266825e-001 6.679735e-001 6.882579e-001 -6.937986e-002 -4.196243e-001 -2.746286e-001 -8.123781e-001 -8.411410e-002 -2.428115e-001 4.782838e-002 1.846861e-001 -6.802542e-002 3.892431e-002 -5.080083e-002 -2.086856e-001 8.550290e-002 6.752878e-002 3.313910e-002 1.967505e-002 1.065484e-002
<VARIANCE> 39
 2.605652e+001 2.176375e+001 3.572124e+001 5.345473e+001 2.219581e+001 2.642878e+001 1.683815e+001 3.528104e+001 4.772744e+001 2.001837e+001 2.059899e+001 1.324692e+001 1.739863e+001 1.123956e+000 3.305636e+000 2.103928e+000 4.374906e+000 2.248993e+000 2.407122e+000 1.607092e+000 3.327183e+000 2.852016e+000 1.847824e+000 1.791151e+000 1.188127e+000 1.080961e+000 1.337672e-001 4.740916e-001 3.666299e-001 7.941239e-001 4.302230e-001 5.073106e-001 3.229176e-001 6.126200e-001 5.182941e-001 3.329763e-001 3.378875e-001 2.677318e-001 1.859477e-001
<GCONST> 1.100776e+002
<STATE> 9
<MEAN> 39
 5.129306e+000 1.371669e+001 -7.563948e+000 -2.492271e+000 -1.222913e+001 -3.478666e+000 -1.346759e+001 -6.079264e+000 -9.109583e+000 -6.509746e+000 -7.108263e+000 -5.879531e+000 4.638826e+001 -1.321722e+000 -2.613943e-001 1.306852e-001 8.253945e-001 -1.252220e-001 1.262379e-001 2.705990e-001 2.550080e-001 6.392491e-001 -1.998063e-001 1.166081e-003 5.400235e-003 -1.059270e+000 -5.960624e-002 -1.589995e-001 -4.389518e-002 3.582422e-002 2.128084e-002 -3.925712e-003 -7.245497e-002 -6.174443e-002 -1.888566e-002 4.125604e-002 1.033653e-001 4.012837e-002 1.471627e-002
<VARIANCE> 39
 6.181750e+001 2.088958e+001 2.658226e+001 4.140169e+001 1.988957e+001 2.810067e+001 2.464223e+001 2.323098e+001 3.980126e+001 2.376147e+001 2.067402e+001 1.443027e+001 3.450946e+001 9.401504e-001 1.751597e+000 1.782454e+000 1.992005e+000 1.360261e+000 2.014153e+000 1.646365e+000 2.179471e+000 2.085934e+000 1.357008e+000 1.812377e+000 1.318536e+000 4.118899e-001 8.729863e-002 2.506804e-001 2.886944e-001 3.738106e-001 2.837830e-001 3.820148e-001 3.223070e-001 4.289642e-001 3.805776e-001 2.750478e-001 2.851540e-001 2.216094e-001 6.440646e-002
<GCONST> 1.016778e+002
<STATE> 10
<MEAN> 39
 -5.946590e+000 1.040269e+001 -7.632986e+000 3.164988e+000 -1.164688e+001 -2.091571e+000 -1.267384e+001 -5.346468e+000 -5.715877e+000 -7.033026e+000 -4.980274e+000 -5.216581e+000 3.819611e+001 -1.419213e+000 -8.417650e-001 -4.986574e-001 -2.040241e-002 -1.132232e-001 -2.090033e-001 -1.726414e-001 7.223868e-002 1.696313e-001 -1.216525e-001 3.789497e-001 8.253190e-002 -8.638960e-001 1.047359e-001 4.087551e-002 -7.045649e-002 -1.628163e-001 2.544899e-002 -4.893865e-002 -2.592540e-002 -7.336466e-003 -1.239274e-001 3.207766e-002 1.178237e-002 -1.073706e-002 8.569751e-002
<VARIANCE> 39
 4.193819e+001 2.353013e+001 1.512333e+001 1.255425e+001 1.640999e+001 2.070370e+001 1.257622e+001 1.749278e+001 1.805395e+001 1.703919e+001 1.826401e+001 1.047780e+001 1.465859e+001 5.923617e-001 1.109072e+000 1.516763e+000 2.074821e+000 2.000921e+000 2.398086e+000 1.640880e+000 1.393673e+000 1.827232e+000 1.518553e+000 1.618946e+000 1.235865e+000 1.651684e-001 1.390219e-001 2.407271e-001 2.546821e-001 2.828125e-001 3.649819e-001 4.886031e-001 3.426082e-001 2.817985e-001 2.974358e-001 2.561242e-001 3.228577e-001 2.617393e-001 3.155370e-002
<GCONST> 9.315156e+001
<STATE> 11
<MEAN> 39
 -1.633520e+001 3.385246e+000 -1.321242e+001 1.427296e+000 -1.342493e+001 -3.796253e+000 -1.233972e+001 -4.381669e+000 -5.385026e+000 -7.271987e+000 -2.905713e+000 -5.178897e+000 3.212625e+001 -5.782392e-002 -3.644589e-002 -3.753580e-002 -1.664494e-002 -3.007044e-002 -1.766075e-002 7.906855e-003 4.793326e-003 6.056579e-003 1.094343e-003 2.419513e-003 3.218809e-005 -3.646035e-002 9.644752e-003 6.812332e-003 7.979359e-003 4.626129e-003 4.733351e-003 6.466776e-003 2.012271e-003 5.909048e-004 3.016155e-003 1.368291e-003 -5.652526e-003 -1.262551e-003 5.913452e-003
<VARIANCE> 39
 4.581538e+000 4.111731e+000 6.498873e+000 7.396593e+000 9.446635e+000 1.066793e+001 1.204180e+001 1.241571e+001 1.259431e+001 1.160077e+001 1.234147e+001 1.109632e+001 1.892861e+000 1.761822e-001 3.202643e-001 5.727395e-001 6.991012e-001 8.947214e-001 1.079159e+000 1.246403e+000 1.237843e+000 1.165433e+000 1.181769e+000 1.326957e+000 1.293343e+000 7.557523e-002 3.375853e-002 6.579837e-002 1.162959e-001 1.460437e-001 1.858906e-001 2.222999e-001 2.583226e-001 2.540783e-001 2.286381e-001 2.449147e-001 2.756611e-001 2.759089e-001 1.413807e-002
<GCONST> 6.772126e+001
<TRANSP> 12
 0.000000e+000 1.000000e+000 0.000000e+000 0.000000e+000 0.000000e+000 0.000000e+000 0.000000e+000 0.000000e+000 0.000000e+000 0.000000e+000 0.000000e+000 0.000000e+000
 0.000000e+000 9.275851e-001 7.241491e-002 0.000000e+000 0.000000e+000 0.000000e+000 0.000000e+000 0.000000e+000 0.000000e+000 0.000000e+000 0.000000e+000 0.000000e+000
 0.000000e+000 0.000000e+000 8.289209e-001 1.710791e-001 0.000000e+000 0.000000e+000 0.000000e+000 0.000000e+000 0.000000e+000 0.000000e+000 0.000000e+000 0.000000e+000
 0.000000e+000 0.000000e+000 0.000000e+000 6.142866e-001 3.857134e-001 0.000000e+000 0.000000e+000 0.000000e+000 0.000000e+000 0.000000e+000 0.000000e+000 0.000000e+000
 0.000000e+000 0.000000e+000 0.000000e+000 0.000000e+000 7.732034e-001 2.267966e-001 0.000000e+000 0.000000e+000 0.000000e+000 0.000000e+000 0.000000e+000 0.000000e+000
 0.000000e+000 0.000000e+000 0.000000e+000 0.000000e+000 0.000000e+000 9.556675e-001 4.433244e-002 0.000000e+000 0.000000e+000 0.000000e+000 0.000000e+000 0.000000e+000
 0.000000e+000 0.000000e+000 0.000000e+000 0.000000e+000 0.000000e+000 0.000000e+000 9.444464e-001 5.555363e-002 0.000000e+000 0.000000e+000 0.000000e+000 0.000000e+000
 0.000000e+000 0.000000e+000 0.000000e+000 0.000000e+000 0.000000e+000 0.000000e+000 0.000000e+000 8.694777e-001 1.305223e-001 0.000000e+000 0.000000e+000 0.000000e+000
 0.000000e+000 0.000000e+000 0.000000e+000 0.000000e+000 0.000000e+000 0.000000e+000 0.000000e+000 0.000000e+000 8.775572e-001 1.224428e-001 0.000000e+000 0.000000e+000
 0.000000e+000 0.000000e+000 0.000000e+000 0.000000e+000 0.000000e+000 0.000000e+000 0.000000e+000 0.000000e+000 0.000000e+000 8.308331e-001 1.691669e-001 0.000000e+000
 0.000000e+000 0.000000e+000 0.000000e+000 0.000000e+000 0.000000e+000 0.000000e+000 0.000000e+000 0.000000e+000 0.000000e+000 0.000000e+000 9.892350e-001 1.076495e-002
 0.000000e+000 0.000000e+000 0.000000e+000 0.000000e+000 0.000000e+000 0.000000e+000 0.000000e+000 0.000000e+000 0.000000e+000 0.000000e+000 0.000000e+000 0.000000e+000
<ENDHMM>
~h "TAMANYA"
<BEGINHMM>
<NUMSTATES> 12
<STATE> 2
<MEAN> 39
 -1.623683e+001 -4.248540e+000 -9.129103e+000 4.455386e+000 1.651928e-001 8.063894e+000 -4.505131e+000 1.447668e+000 8.275754e-001 1.090961e+000 3.921076e+000 3.317441e+000 3.795333e+001 8.952651e-005 3.361276e-003 -9.024511e-004 3.731548e-004 -6.547762e-003 2.476155e-003 2.812304e-003 -1.070795e-003 6.828416e-004 -9.735354e-003 -1.946836e-003 -5.964816e-003 -1.264886e-003 -1.305991e-002 1.273617e-002 -6.531547e-003 -4.959372e-003 -8.937269e-003 -3.050344e-003 1.886812e-003 -4.983776e-003 -8.821008e-004 -6.083383e-003 -6.309011e-003 -7.522878e-003 -1.890090e-002
<VARIANCE> 39
 7.914982e-001 5.629525e-001 6.504016e-001 6.690341e-001 6.673487e-001 9.214994e-001 8.919387e-001 1.044302e+000 1.125064e+000 9.660581e-001 1.065729e+000 9.530342e-001 1.836966e+000 1.616252e-002 1.787940e-002 2.779255e-002 3.784380e-002 4.300367e-002 6.500587e-002 9.111589e-002 9.844258e-002 1.005115e-001 1.005764e-001 1.126492e-001 9.072103e-002 2.115463e-002 8.871345e-003 8.856542e-003 6.985018e-003 8.266255e-003 1.516976e-002 1.352586e-002 1.838835e-002 2.079657e-002 2.060768e-002 2.032705e-002 2.421617e-002 1.991971e-002 1.544929e-002
<GCONST> -2.360380e+001
<STATE> 3
<MEAN> 39
 -2.263584e+001 1.698944e+000 -1.236481e+001 2.607107e+000 -9.813486e+000 2.368433e+000 -6.366948e+000 -1.388939e-001 -7.314930e-001 -3.606266e+000 -2.086799e-001 -1.158963e+000 2.828101e+001 -2.837649e-001 2.582864e-001 -1.362485e-001 -6.639297e-002 -4.444130e-001 -3.196600e-001 -1.847154e-001 -1.324882e-001 -9.792994e-002 -1.446394e-001 -1.559296e-001 -2.305409e-001 -4.270317e-001 7.562920e-002 -3.712371e-002 1.213333e-002 -7.733400e-003 3.134418e-002 -2.650999e-002 -3.276589e-002 -1.230033e-003 -1.033017e-002 9.924000e-003 -4.647907e-003 -1.282729e-002 8.618367e-002
<VARIANCE> 39
 2.338281e+001 4.540338e+000 5.215408e+000 5.006580e+000 1.700116e+001 2.244151e+001 1.923291e+001 1.338356e+001 1.759383e+001 1.368638e+001 1.160948e+001 1.257805e+001 1.865640e+001 1.681068e+000 6.740493e-001 3.541299e-001 5.046310e-001 1.202591e+000 7.538311e-001 8.911465e-001 1.096285e+000 1.197192e+000 1.006980e+000 1.103654e+000 1.070003e+000 1.978529e+000 2.397223e-001 1.017667e-001 5.828503e-002 1.053102e-001 2.164963e-001 1.622800e-001 1.448348e-001 2.105939e-001 2.788800e-001 1.834410e-001 2.098507e-001 2.106858e-001 2.623966e-001
<GCONST> 8.073576e+001
<STATE> 4
<MEAN> 39
 -1.823634e+001 1.940781e+000 -1.387274e+001 1.108075e+000 -1.325247e+001 -2.980531e+000 -1.108042e+001 -3.425554e+000 -4.488997e+000 -7.004516e+000 -2.462777e+000 -4.245270e+000 3.113814e+001 2.827150e-001 -1.596310e-002 -1.513095e-001 -1.692547e-001 -1.405198e-001 -2.435225e-001 -2.070168e-001 -1.008145e-001 -2.114325e-001 -2.440190e-001 -1.824955e-001 -1.260054e-001 2.020409e-001 -1.929284e-002 -5.980885e-002 8.053504e-003 4.118023e-003 2.750038e-002 3.400088e-002 3.311907e-002 2.575956e-002 2.577123e-002 8.881699e-003 2.884188e-002 4.761475e-002 3.510712e-002
<VARIANCE> 39
 6.315963e+000 2.096398e+000 5.088185e+000 7.176041e+000 9.766756e+000 1.203465e+001 1.164096e+001 1.083118e+001 1.440085e+001 1.861020e+001 1.378895e+001 1.078907e+001 3.119982e+000 7.942481e-001 2.655638e-001 5.928517e-001 8.326086e-001 1.063295e+000 1.429793e+000 1.266856e+000 1.336050e+000 1.816665e+000 2.229991e+000 1.558878e+000 1.220413e+000 3.422094e-001 1.313049e-001 7.995839e-002 1.303050e-001 1.776949e-001 2.170123e-001 2.851561e-001 2.367702e-001 2.542593e-001 3.568343e-001 4.575203e-001 2.954645e-001 2.286941e-001 1.226059e-001
<GCONST> 7.832545e+001
<STATE> 5
<MEAN> 39
 -1.813228e+001 1.667360e+000 -1.505029e+001 2.590956e-001 -1.313772e+001 -3.494443e+000 -1.180533e+001 -3.980098e+000 -5.128247e+000 -7.474346e+000 -3.170239e+000 -4.316583e+000 3.121731e+001 7.189642e-001 -9.800976e-001 -1.083974e-002 -2.404938e-001 1.195139e-001 -1.290721e-001 -2.209327e-001 7.946900e-002 -3.233875e-002 -1.238048e-001 2.670267e-002 -9.873795e-003 1.249183e+000 5.300587e-001 -9.416239e-001 6.481405e-001 -5.608776e-001 3.438129e-001 -2.811291e-001 3.631020e-001 8.087748e-002 4.409464e-001 -3.053046e-002 4.973798e-001 2.197236e-001 1.864156e+000
<VARIANCE> 39
 8.275857e+000 3.856600e+000 3.217184e+000 5.769382e+000 6.221869e+000 7.859420e+000 1.401323e+001 1.385034e+001 2.040830e+001 1.833291e+001 1.286516e+001 9.271015e+000 4.062978e+000 1.711266e+000 1.907516e+000 5.561961e-001 1.331355e+000 1.392124e+000 1.834581e+000 1.988850e+000 1.974641e+000 2.371455e+000 2.513631e+000 1.337916e+000 1.334442e+000 3.458384e+000 3.455719e-001 1.785994e-001 2.598290e-001 3.082044e-001 2.468915e-001 4.407569e-001 3.383001e-001 4.782108e-001 4.479623e-001 8.479187e-001 6.534007e-001 3.134405e-001 8.310466e-001
<GCONST> 9.403304e+001
<STATE> 6
<MEAN> 39
 -1.546408e+001 -2.708973e+000 -1.291323e+001 -1.042891e+000 -1.123295e+001 -3.857533e+000 -1.131060e+001 -3.665743e+000 -4.302344e+000 -7.220428e+000 -1.951486e+000 -3.861688e+000 3.845988e+001 2.268374e+000 -3.085673e+000 1.905486e+000 -1.956871e+000 1.164293e+000 -1.431209e+000 9.406288e-001 1.634463e-001 7.881907e-001 -7.871925e-001 7.987596e-001 2.133573e-001 6.523642e+000 7.000648e-001 -3.737863e-001 8.119265e-001 -5.150896e-001 1.351371e-001 -6.650151e-001 3.444712e-001 -1.315330e-001 2.038697e-002 -6.718470e-001 -2.929199e-001 -1.224236e-001 1.508070e+000
<VARIANCE> 39
 2.001038e+001 3.443435e+001 1.635970e+001 2.363065e+001 1.945485e+001 2.771730e+001 2.379730e+001 2.645057e+001 3.257464e+001 2.113325e+001 2.129979e+001 1.941492e+001 1.232150e+002 3.102393e+000 2.388213e+000 2.122908e+000 2.680390e+000 2.192682e+000 4.144607e+000 3.338097e+000 3.458627e+000 4.997587e+000 6.643418e+000 5.968354e+000 2.081482e+000 9.116804e+000 3.917775e-001 5.391495e-001 3.571709e-001 4.136505e-001 4.468375e-001 5.485254e-001 6.908942e-001 6.960836e-001 9.623051e-001 1.003609e+000 1.247765e+000 3.831797e-001 2.388042e+000
<GCONST> 1.253974e+002
<STATE> 7
<MEAN> 39
 1.128777e+000 -1.427844e+001 1.650083e+000 -9.711287e+000 -8.769234e+000 -1.444289e+001 -1.263797e+001 -6.490157e+000 -5.670743e+000 -1.309312e+001 -1.255449e+001 -9.340620e+000 6.723720e+001 1.227493e+000 -8.243096e-001 1.281886e+000 -7.685071e-001 2.216243e-001 -7.916310e-001 -1.840120e-001 -2.681881e-001 -5.082349e-001 -4.465142e-001 -1.117388e+000 -5.435489e-001 1.993472e+000 -2.373965e-001 2.107845e-001 -1.629657e-001 8.849499e-002 -4.179775e-002 1.540293e-001 -4.337183e-002 3.363561e-002 -1.319798e-001 1.351479e-001 -5.345513e-003 3.195012e-002 -5.185991e-001
<VARIANCE> 39
 5.520356e+001 2.735522e+001 3.889811e+001 1.014568e+002 5.856599e+001 4.657571e+001 1.243807e+002 5.354806e+001 5.953261e+001 1.169541e+002 1.067403e+002 6.320576e+001 7.118899e+001 4.907812e+000 4.317361e+000 3.507913e+000 1.503524e+001 8.023448e+000 4.423581e+000 1.548143e+001 5.664894e+000 6.389544e+000 1.718933e+001 9.977834e+000 5.487459e+000 1.228969e+001 5.495644e-001 7.437892e-001 5.420958e-001 3.093563e+000 1.711829e+000 7.510523e-001 2.703506e+000 1.221363e+000 1.379413e+000 3.333559e+000 1.826231e+000 9.253851e-001 1.537667e+000
<GCONST> 1.557448e+002
<STATE> 8
<MEAN> 39
 2.747864e+000 -1.034567e+001 1.090503e+001 -1.634118e+001 -8.591207e+000 -9.738868e+000 -2.003004e+001 -1.024351e+001 -1.072013e+001 -8.452749e+000 -1.214536e+001 -8.118750e+000 6.832215e+001 2.389280e-002 3.631809e-001 2.808089e-001 4.212662e-002 -1.099571e-001 6.306332e-001 -4.386141e-001 -1.473149e-001 -1.289105e-001 1.807040e-001 4.386139e-001 1.360173e-001 -3.105682e-001 1.135918e-002 -2.003184e-004 -6.618721e-002 1.252074e-001 -1.550138e-002 3.193494e-002 2.881232e-002 6.762977e-002 1.590016e-003 -5.839684e-002 4.280056e-002 -1.414563e-002 -5.462983e-002
<VARIANCE> 39
 1.820244e+001 5.521062e+001 2.871649e+001 7.286697e+001 6.505066e+001 8.068330e+001 2.358323e+002 5.851540e+001 7.103014e+001 1.078229e+002 4.955699e+001 3.720122e+001 3.368725e+001 2.165495e+000 2.824489e+000 2.078814e+000 8.983731e+000 6.752926e+000 3.163073e+000 1.684102e+001 6.283191e+000 5.872885e+000 9.456506e+000 3.987633e+000 4.161476e+000 2.184412e+000 3.403725e-001 3.888578e-001 3.771171e-001 1.430819e+000 1.100243e+000 4.943792e-001 2.311649e+000 1.284637e+000 9.109533e-001 1.431333e+000 6.621991e-001 8.009847e-001 3.255346e-001
<GCONST> 1.407325e+002
<STATE> 9
<MEAN> 39
 1.169183e+000 -8.134574e+000 2.311984e+000 -2.494332e-001 -7.478374e+000 -2.233937e+000 -2.068578e+001 -6.798950e-002 -1.627716e+001 -1.912356e+001 2.748142e+000 -2.955685e+000 5.631501e+001 -6.343943e-001 4.161977e-001 -1.721197e+000 1.310314e+000 -3.461707e-002 -7.216491e-001 3.616103e-001 6.379920e-001 -1.478101e-001 -5.710194e-001 3.439681e-001 5.107240e-001 -1.519864e+000 -1.400555e-001 1.524160e-001 4.541149e-002 -2.061204e-001 -6.375736e-002 3.859426e-003 -5.055784e-002 -2.389873e-001 1.577063e-001 2.386675e-001 -1.579747e-001 -4.087827e-002 -1.075197e-001
<VARIANCE> 39
 1.549834e+001 3.441084e+001 1.405206e+002 1.368430e+002 2.909801e+001 7.556213e+001 5.910135e+001 8.298039e+001 5.001931e+001 1.044689e+002 4.783347e+001 3.989939e+001 6.289943e+001 1.178199e+000 3.011015e+000 4.164879e+000 5.048376e+000 3.074740e+000 5.209126e+000 5.050119e+000 5.975006e+000 4.003852e+000 5.248973e+000 3.198626e+000 2.498566e+000 8.455389e-001 1.196996e-001 4.355089e-001 7.740242e-001 6.405339e-001 5.147334e-001 8.382287e-001 8.005935e-001 6.358269e-001 6.161312e-001 5.184069e-001 4.266800e-001 4.722665e-001 6.050577e-002
<GCONST> 1.289998e+002
<STATE> 10
<MEAN> 39
 -6.070796e+000 5.832914e-001 -1.043644e+001 3.774958e+000 -1.078701e+001 -9.346577e+000 -1.837749e+001 -3.035747e+000 -1.239860e+001 -1.594120e+001 1.763853e-001 1.689771e-001 4.222846e+001 -1.763961e+000 1.235785e+000 -1.483666e-001 -1.015977e+000 -5.405347e-001 8.795518e-001 4.755611e-001 -1.143017e+000 1.064045e+000 1.376612e+000 -8.286169e-001 -3.892571e-001 -1.870388e+000 7.430053e-002 -2.993039e-001 1.656744e-001 4.328555e-002 1.360885e-001 2.225366e-001 1.295800e-001 1.994223e-001 -1.616185e-001 -1.427517e-001 1.287762e-001 -8.995209e-002 2.224213e-001
<VARIANCE> 39
 4.019194e+001 2.882491e+001 7.547828e+001 5.229866e+001 1.762295e+001 3.512696e+001 3.369354e+001 3.546425e+001 2.969205e+001 3.979435e+001 2.635367e+001 1.929204e+001 5.505552e+001 6.846044e-001 2.974929e+000 3.349681e+000 3.028957e+000 1.389620e+000 3.866754e+000 2.648353e+000 2.984319e+000 2.935945e+000 3.813625e+000 2.128770e+000 1.875190e+000 6.059325e-001 1.851769e-001 6.349280e-001 5.864617e-001 4.892292e-001 2.955233e-001 5.725167e-001 4.589855e-001 4.430078e-001 6.924088e-001 5.815746e-001 3.546058e-001 3.031107e-001 1.082454e-001
<GCONST> 1.157949e+002
<STATE> 11
<MEAN> 39
 -1.398281e+001 2.367695e+000 -1.363999e+001 2.455021e+000 -1.271109e+001 -6.064124e+000 -1.379758e+001 -4.158332e+000 -8.554113e+000 -1.138644e+001 -3.118016e+000 -2.847506e+000 3.417345e+001 -6.477656e-001 1.949160e-001 -4.735320e-002 -1.824978e-001 -9.900440e-002 4.443921e-001 5.102135e-001 -9.716461e-002 4.663321e-001 5.856215e-001 -4.244761e-001 -4.354652e-001 -5.709457e-001 1.461306e-001 -1.549495e-001 -3.487633e-002 1.106313e-001 9.139017e-002 -1.015151e-001 -8.090420e-002 1.694320e-001 -4.405173e-002 -1.316078e-001 1.116431e-001 6.318509e-002 1.696679e-001
<VARIANCE> 39
 8.043775e+000 1.169322e+001 1.140381e+001 9.230971e+000 1.041622e+001 1.170352e+001 1.512536e+001 1.348746e+001 1.866663e+001 1.925021e+001 1.557146e+001 1.607478e+001 7.617498e+000 7.305135e-001 1.198001e+000 1.113418e+000 9.447258e-001 1.021521e+000 1.573598e+000 1.471654e+000 1.420892e+000 1.752958e+000 1.483465e+000 1.616862e+000 1.521009e+000 4.232946e-001 8.775612e-002 2.628102e-001 2.475561e-001 2.205548e-001 1.905010e-001 3.262109e-001 3.257174e-001 2.996813e-001 3.235131e-001 2.558118e-001 3.309640e-001 2.862660e-001 5.176437e-002
<GCONST> 8.697003e+001
<TRANSP> 12
 0.000000e+000 1.000000e+000 0.000000e+000 0.000000e+000 0.000000e+000 0.000000e+000 0.000000e+000 0.000000e+000 0.000000e+000 0.000000e+000 0.000000e+000 0.000000e+000
 0.000000e+000 9.865892e-001 1.341082e-002 0.000000e+000 0.000000e+000 0.000000e+000 0.000000e+000 0.000000e+000 0.000000e+000 0.000000e+000 0.000000e+000 0.000000e+000
 0.000000e+000 0.000000e+000 9.569631e-001 4.303697e-002 0.000000e+000 0.000000e+000 0.000000e+000 0.000000e+000 0.000000e+000 0.000000e+000 0.000000e+000 0.000000e+000
 0.000000e+000 0.000000e+000 0.000000e+000 9.364964e-001 6.350349e-002 0.000000e+000 0.000000e+000 0.000000e+000 0.000000e+000 0.000000e+000 0.000000e+000 0.000000e+000
 0.000000e+000 0.000000e+000 0.000000e+000 0.000000e+000 2.443334e-001 7.556666e-001 0.000000e+000 0.000000e+000 0.000000e+000 0.000000e+000 0.000000e+000 0.000000e+000
 0.000000e+000 0.000000e+000 0.000000e+000 0.000000e+000 0.000000e+000 5.573891e-001 4.426108e-001 0.000000e+000 0.000000e+000 0.000000e+000 0.000000e+000 0.000000e+000
 0.000000e+000 0.000000e+000 0.000000e+000 0.000000e+000 0.000000e+000 0.000000e+000 9.177302e-001 8.226982e-002 0.000000e+000 0.000000e+000 0.000000e+000 0.000000e+000
 0.000000e+000 0.000000e+000 0.000000e+000 0.000000e+000 0.000000e+000 0.000000e+000 0.000000e+000 9.594207e-001 4.057934e-002 0.000000e+000 0.000000e+000 0.000000e+000
 0.000000e+000 0.000000e+000 0.000000e+000 0.000000e+000 0.000000e+000 0.000000e+000 0.000000e+000 0.000000e+000 9.310131e-001 6.898697e-002 0.000000e+000 0.000000e+000
 0.000000e+000 0.000000e+000 0.000000e+000 0.000000e+000 0.000000e+000 0.000000e+000 0.000000e+000 0.000000e+000 0.000000e+000 6.440621e-001 3.559379e-001 0.000000e+000
 0.000000e+000 0.000000e+000 0.000000e+000 0.000000e+000 0.000000e+000 0.000000e+000 0.000000e+000 0.000000e+000 0.000000e+000 0.000000e+000 8.453170e-001 1.546830e-001
 0.000000e+000 0.000000e+000 0.000000e+000 0.000000e+000 0.000000e+000 0.000000e+000 0.000000e+000 0.000000e+000 0.000000e+000 0.000000e+000 0.000000e+000 0.000000e+000
<ENDHMM>
~h "SETTA"
<BEGINHMM>
<NUMSTATES> 12
<STATE> 2
<MEAN> 39
 -1.623189e+001 -4.249636e+000 -9.129570e+000 4.480845e+000 1.657391e-001 8.053399e+000 -4.561988e+000 1.490873e+000 7.847794e-001 1.148116e+000 3.941498e+000 3.324102e+000 3.793108e+001 7.684857e-004 2.513950e-003 3.866558e-004 -1.777262e-004 -4.931796e-003 5.376400e-003 -2.281592e-004 3.300053e-003 -2.440103e-003 -5.403332e-003 -4.921733e-003 -2.659717e-004 -1.475458e-003 -1.313352e-002 1.332438e-002 -7.185840e-003 -4.537948e-003 -1.072045e-002 -1.184849e-003 -2.019665e-003 -6.279921e-003 -7.801257e-004 -8.608569e-003 -5.422343e-003 -7.709372e-003 -1.844602e-002
<VARIANCE> 39
 7.914982e-001 5.629525e-001 6.504016e-001 6.690341e-001 6.673487e-001 8.030654e-001 8.461059e-001 9.487711e-001 1.043915e+000 9.272422e-001 9.875254e-001 9.593987e-001 1.836966e+000 1.616252e-002 1.855174e-002 2.982819e-002 3.925128e-002 4.429334e-002 5.940725e-002 8.967592e-002 8.656225e-002 1.021486e-001 9.987905e-002 1.030891e-001 8.504062e-002 2.115463e-002 8.522486e-003 9.381058e-003 7.701904e-003 8.245477e-003 1.559155e-002 1.171456e-002 1.972569e-002 1.923172e-002 2.127362e-002 2.079712e-002 2.088180e-002 1.789977e-002 1.497012e-002
<GCONST> -2.452425e+001
<STATE> 3
<MEAN> 39
 -2.395861e+001 1.687797e+000 -1.174355e+001 3.163621e+000 -8.578573e+000 4.110851e+000 -4.991694e+000 5.906045e-001 4.635952e-001 -2.690603e+000 6.113507e-001 -4.946755e-001 2.741933e+001 -4.799000e-001 3.419819e-001 -1.729535e-001 -3.255357e-002 -5.591553e-001 -3.571393e-001 -1.387317e-001 -1.301532e-001 -3.890118e-002 -1.668205e-001 -1.333907e-001 -2.378377e-001 -6.437982e-001 1.117724e-001 -5.299363e-002 2.488717e-002 6.861359e-003 3.312398e-002 -4.636683e-002 -3.969582e-002 -7.317553e-003 -1.950325e-002 1.537642e-002 -2.824085e-003 -1.908237e-002 1.257530e-001
<VARIANCE> 39
 2.113572e+001 5.463848e+000 4.396664e+000 3.786237e+000 1.369546e+001 1.406969e+001 1.136343e+001 1.116060e+001 1.179568e+001 9.340877e+000 9.251232e+000 1.222808e+001 1.996310e+001 1.794955e+000 8.226432e-001 3.822543e-001 4.080424e-001 1.148312e+000 6.058459e-001 7.252498e-001 1.123318e+000 9.277192e-001 9.404612e-001 1.080814e+000 1.077473e+000 2.262110e+000 2.769748e-001 1.293726e-001 6.412375e-002 8.168029e-002 2.088357e-001 1.610201e-001 1.246686e-001 2.153018e-001 2.239977e-001 1.498993e-001 2.032077e-001 2.167823e-001 3.262741e-001
<GCONST> 7.733572e+001
<STATE> 4
<MEAN> 39
 -1.894240e+001 2.320223e+000 -1.338787e+001 2.224436e+000 -1.261301e+001 -2.182363e+000 -1.060913e+001 -3.157466e+000 -3.757985e+000 -5.555533e+000 -1.524738e+000 -4.248760e+000 3.048816e+001 7.235117e-001 -1.982986e-002 -2.208615e-001 -3.022199e-001 -4.407949e-001 -5.190284e-001 -2.077653e-001 -1.481525e-001 -3.930287e-001 -3.204827e-001 -2.866168e-001 -4.371243e-001 5.309975e-001 -4.085856e-002 -1.264405e-001 7.863136e-003 -6.735779e-002 -1.032440e-001 -1.330473e-002 2.118299e-001 6.080671e-002 2.046402e-003 1.146707e-001 8.949944e-002 3.322854e-002 6.355850e-002
<VARIANCE> 39
 1.241817e+001 2.413743e+000 4.330031e+000 6.530512e+000 8.953118e+000 1.406728e+001 1.345806e+001 1.222017e+001 1.931195e+001 1.705958e+001 1.449067e+001 1.373310e+001 6.175817e+000 1.207315e+000 3.811732e-001 4.653652e-001 6.852713e-001 8.784140e-001 1.697168e+000 1.809511e+000 1.508743e+000 2.322290e+000 2.173567e+000 1.453545e+000 1.354115e+000 6.337947e-001 2.113105e-001 1.063794e-001 1.063042e-001 1.575281e-001 2.001583e-001 3.644926e-001 3.005166e-001 3.021990e-001 5.246195e-001 4.342774e-001 3.136701e-001 2.553461e-001 1.837970e-001
<GCONST> 8.399503e+001
<STATE> 5
<MEAN> 39
 -1.905722e+001 -1.961914e+000 -1.273571e+001 -1.035618e+000 -1.667766e+001 -5.890871e+000 -4.255654e+000 -3.783666e+000 -3.192014e+000 -2.819488e+000 1.403159e-001 -5.068146e+000 3.760536e+001 3.138548e-001 -1.024587e+000 1.692550e-001 -7.166379e-001 -9.722123e-001 -1.162362e+000 1.078807e+000 -3.818022e-001 -3.550857e-001 4.769629e-001 2.541317e-001 -3.522230e-001 1.690177e+000 -1.619673e-001 -1.229346e-001 2.607242e-001 -6.561168e-002 6.531441e-002 -1.318649e-001 4.019814e-001 -1.387914e-001 7.639823e-002 1.803917e-002 8.841883e-002 1.090610e-001 3.547441e-001
<VARIANCE> 39
 1.653013e+001 2.361970e+001 1.129164e+001 1.632631e+001 2.564898e+001 2.554722e+001 3.766618e+001 2.266569e+001 1.950615e+001 1.914451e+001 2.091959e+001 1.315658e+001 6.360577e+001 1.914177e+000 2.851461e+000 1.348156e+000 1.056717e+000 2.862886e+000 2.342120e+000 3.025593e+000 2.670411e+000 2.518662e+000 1.999028e+000 1.906570e+000 1.675981e+000 2.195893e+000 4.670139e-001 6.620602e-001 3.522972e-001 2.251050e-001 6.245180e-001 4.014180e-001 6.227407e-001 7.532867e-001 5.100111e-001 4.044695e-001 4.224036e-001 3.126341e-001 5.117682e-001
<GCONST> 1.112753e+002
<STATE> 6
<MEAN> 39
 -2.310098e+001 -8.363841e-001 -1.217946e+001 -3.222871e+000 -1.663889e+001 -9.873104e+000 4.642555e+000 -7.602457e+000 -1.543462e+000 -1.543815e+000 2.645183e+000 -3.917425e+000 5.262271e+001 -4.305089e-001 2.300794e-002 3.825163e-001 -3.082922e-001 -6.683445e-002 -6.028622e-001 1.105381e+000 -7.207517e-001 3.026892e-001 2.426417e-002 3.468056e-001 2.554781e-001 2.659750e+000 3.085304e-001 4.511777e-002 1.772191e-001 5.664270e-002 -3.444246e-002 -5.362240e-002 -2.487732e-001 -1.971873e-002 -9.217539e-002 -1.632170e-001 -1.737117e-001 2.198024e-002 -3.370715e-002
<VARIANCE> 39
 3.311878e+001 3.825882e+001 2.022967e+001 2.151856e+001 4.149184e+001 2.656742e+001 6.948901e+001 3.215290e+001 2.973803e+001 3.141627e+001 4.159807e+001 2.047808e+001 1.405720e+002 5.245862e+000 5.679955e+000 3.852914e+000 2.737286e+000 5.318573e+000 3.825963e+000 9.884736e+000 3.058370e+000 3.625025e+000 3.199160e+000 3.284481e+000 1.893078e+000 4.595620e+000 9.675118e-001 1.224409e+000 8.292197e-001 5.492539e-001 1.130604e+000 8.258388e-001 1.699107e+000 6.172850e-001 7.756094e-001 5.631885e-001 5.520051e-001 4.365430e-001 8.632321e-001
<GCONST> 1.330865e+002
<STATE> 7
<MEAN> 39
 -5.171576e+000 -4.932778e+000 -2.344710e+000 -7.705364e+000 -2.363250e+001 -1.766244e+001 -2.335498e-001 -6.296870e+000 -6.200867e+000 -2.917426e+000 -4.731575e+000 -5.080016e+000 6.087184e+001 1.222551e+000 -1.547490e-001 4.082125e-001 -5.461674e-003 -5.358776e-001 -2.478351e-001 -3.446015e-001 2.142222e-001 -3.079729e-001 -1.777125e-001 -3.962496e-001 -1.036866e-001 1.350852e-001 -1.032924e-001 1.511595e-001 -1.966953e-001 6.694838e-002 4.153563e-002 1.430128e-001 -7.759684e-002 7.850797e-002 2.029869e-002 -3.052587e-002 4.773405e-002 -4.356875e-003 -2.380242e-001
<VARIANCE> 39
 1.425990e+002 9.046404e+001 9.692999e+001 8.009528e+001 1.052718e+002 8.780618e+001 6.208052e+001 6.069882e+001 4.524059e+001 6.980098e+001 1.005892e+002 3.370744e+001 1.609589e+002 8.688111e+000 7.319863e+000 8.091133e+000 9.495837e+000 6.426640e+000 7.924768e+000 6.073170e+000 5.516131e+000 4.689348e+000 5.654106e+000 6.718441e+000 3.455341e+000 1.069415e+001 1.273800e+000 8.672263e-001 9.553324e-001 1.612181e+000 1.104833e+000 1.316291e+000 1.238324e+000 1.132486e+000 9.257335e-001 1.046189e+000 1.051194e+000 7.199053e-001 1.055468e+000
<GCONST> 1.544487e+002
<STATE> 8
<MEAN> 39
 -6.560485e-001 -1.384788e+000 -7.782143e+000 -2.094620e+000 -2.169176e+001 -1.000964e+001 -8.659383e+000 -1.338387e+000 -8.788265e+000 -9.991849e+000 -2.664452e+000 -7.028423e+000 4.910825e+001 -1.613439e-002 -1.364456e-001 -2.902779e-001 3.670306e-001 6.699556e-001 3.582024e-001 -2.870440e-001 1.910951e-001 -2.470696e-001 -3.516775e-001 1.839583e-001 1.052799e-001 -1.554262e-001 -5.278737e-002 -3.272268e-002 3.232190e-002 -1.921028e-002 4.568268e-002 -6.361505e-002 2.749446e-002 -4.911407e-002 1.158180e-002 4.110504e-002 2.517591e-003 3.504536e-002 3.828835e-002
<VARIANCE> 39
 5.985795e+001 1.063502e+002 5.328439e+001 4.537386e+001 9.790719e+001 6.062729e+001 3.532259e+001 4.593659e+001 5.610169e+001 4.382360e+001 5.172671e+001 3.141277e+001 1.388863e+002 4.934605e+000 5.640719e+000 4.660109e+000 4.393858e+000 4.282971e+000 5.005686e+000 3.308932e+000 4.138662e+000 4.158487e+000 3.652177e+000 5.675890e+000 2.817656e+000 1.056717e+001 6.366193e-001 6.310381e-001 6.447468e-001 8.351561e-001 8.104870e-001 9.765077e-001 5.939141e-001 8.149946e-001 7.166798e-001 6.563120e-001 1.161655e+000 5.845215e-001 1.348884e+000
<GCONST> 1.409868e+002
<STATE> 9
<MEAN> 39
 1.767355e+000 -4.362226e+000 -1.006896e+001 5.506069e+000 -1.339631e+001 -8.020190e+000 -1.147524e+001 7.048619e-001 -1.286149e+001 -1.469530e+001 -1.618219e+000 -3.636780e+000 5.001894e+001 -1.044280e+000 7.993733e-001 -6.676153e-001 7.820832e-002 3.240684e-001 -1.023502e-001 -4.516066e-001 1.797762e-002 3.530450e-002 -1.970090e-002 5.870557e-001 3.844467e-001 -1.399567e+000 -1.718704e-001 -2.108476e-002 1.172729e-001 -2.001878e-001 -1.953105e-001 1.326399e-002 2.307075e-002 -1.780739e-001 1.163000e-001 2.028338e-001 -7.902649e-002 -7.234506e-002 -5.126993e-002
<VARIANCE> 39
 5.935466e+001 4.386643e+001 2.734117e+001 4.200920e+001 5.589921e+001 4.166156e+001 3.513512e+001 3.937978e+001 3.799313e+001 4.555978e+001 4.326284e+001 2.307864e+001 7.661942e+001 3.102871e+000 2.789965e+000 2.808110e+000 3.139839e+000 4.865929e+000 3.859932e+000 2.509740e+000 4.014296e+000 3.054254e+000 3.224335e+000 3.569144e+000 1.865847e+000 3.695716e+000 2.603296e-001 3.915876e-001 5.739784e-001 4.702761e-001 7.663130e-001 8.184067e-001 4.905082e-001 6.592946e-001 4.426324e-001 4.842530e-001 5.884712e-001 3.450834e-001 3.274533e-001
<GCONST> 1.259045e+002
<STATE> 10
<MEAN> 39
 -5.508889e+000 -1.147698e+000 -1.327635e+001 4.552077e+000 -1.312577e+001 -8.351676e+000 -1.407066e+001 -1.141466e+000 -1.356804e+001 -1.367288e+001 1.922583e+000 -1.377978e+000 4.191055e+001 -2.317541e+000 9.465804e-001 -2.352547e-001 -8.732068e-001 -6.952524e-001 2.291873e-001 -3.649507e-001 -1.378459e+000 5.079538e-001 8.800160e-001 -2.933112e-001 -1.427923e-001 -2.175626e+000 1.450717e-001 -1.300196e-001 1.648086e-001 1.185604e-001 1.497730e-001 1.507598e-001 1.311193e-001 9.224302e-002 1.867127e-003 -1.711704e-001 -2.929717e-001 -1.130428e-001 2.139225e-001
<VARIANCE> 39
 2.666842e+001 2.677462e+001 1.621239e+001 1.765662e+001 2.421062e+001 2.438051e+001 2.086020e+001 3.060787e+001 1.921375e+001 2.050327e+001 1.687907e+001 9.120069e+000 2.054449e+001 8.613553e-001 2.695501e+000 1.902795e+000 1.208252e+000 2.138053e+000 3.377478e+000 2.964470e+000 2.425712e+000 1.436968e+000 1.669487e+000 2.371669e+000 1.085408e+000 3.400282e-001 1.968374e-001 5.036857e-001 3.443951e-001 2.938583e-001 3.764758e-001 4.961198e-001 4.284877e-001 6.566474e-001 3.489096e-001 4.008479e-001 3.085972e-001 2.597978e-001 9.251341e-002
<GCONST> 1.027278e+002
<STATE> 11
<MEAN> 39
 -1.529324e+001 2.613577e+000 -1.340985e+001 1.724647e+000 -1.399237e+001 -5.827112e+000 -1.326024e+001 -4.775144e+000 -7.207327e+000 -8.339097e+000 -2.134369e+000 -3.491705e+000 3.310516e+001 -2.545086e-001 7.588196e-002 4.083291e-003 -2.580452e-002 4.323068e-002 1.526453e-001 1.105662e-001 4.659595e-003 2.383155e-001 1.357855e-001 -1.585344e-001 -1.188254e-001 -2.168570e-001 5.528490e-002 -3.149918e-002 -1.694470e-003 2.163234e-002 1.966380e-002 -6.569535e-004 -2.528148e-004 4.350220e-002 -9.923107e-003 -1.162749e-002 3.166082e-002 9.820792e-004 5.290936e-002
<VARIANCE> 39
 6.103032e+000 5.262913e+000 5.716915e+000 6.892366e+000 1.097569e+001 1.412611e+001 1.243452e+001 1.211459e+001 1.774404e+001 1.329338e+001 1.247645e+001 1.172716e+001 4.144402e+000 4.615637e-001 6.794631e-001 6.439307e-001 8.224481e-001 1.120245e+000 1.177038e+000 1.256858e+000 1.436338e+000 1.784542e+000 1.530657e+000 1.424360e+000 1.306681e+000 4.216376e-001 6.515653e-002 1.472517e-001 1.387524e-001 1.736960e-001 2.435918e-001 2.358041e-001 2.600628e-001 3.071246e-001 3.637238e-001 3.262318e-001 2.940062e-001 2.651421e-001 6.743070e-002
<GCONST> 7.944819e+001
<TRANSP> 12
 0.000000e+000 1.000000e+000 0.000000e+000 0.000000e+000 0.000000e+000 0.000000e+000 0.000000e+000 0.000000e+000 0.000000e+000 0.000000e+000 0.000000e+000 0.000000e+000
 0.000000e+000 9.858572e-001 1.414274e-002 0.000000e+000 0.000000e+000 0.000000e+000 0.000000e+000 0.000000e+000 0.000000e+000 0.000000e+000 0.000000e+000 0.000000e+000
 0.000000e+000 0.000000e+000 9.403176e-001 5.968239e-002 0.000000e+000 0.000000e+000 0.000000e+000 0.000000e+000 0.000000e+000 0.000000e+000 0.000000e+000 0.000000e+000
 0.000000e+000 0.000000e+000 0.000000e+000 8.752829e-001 1.247172e-001 0.000000e+000 0.000000e+000 0.000000e+000 0.000000e+000 0.000000e+000 0.000000e+000 0.000000e+000
 0.000000e+000 0.000000e+000 0.000000e+000 0.000000e+000 6.944757e-001 3.055243e-001 0.000000e+000 0.000000e+000 0.000000e+000 0.000000e+000 0.000000e+000 0.000000e+000
 0.000000e+000 0.000000e+000 0.000000e+000 0.000000e+000 0.000000e+000 8.519581e-001 1.480419e-001 0.000000e+000 0.000000e+000 0.000000e+000 0.000000e+000 0.000000e+000
 0.000000e+000 0.000000e+000 0.000000e+000 0.000000e+000 0.000000e+000 0.000000e+000 9.512621e-001 4.873782e-002 0.000000e+000 0.000000e+000 0.000000e+000 0.000000e+000
 0.000000e+000 0.000000e+000 0.000000e+000 0.000000e+000 0.000000e+000 0.000000e+000 0.000000e+000 9.498399e-001 5.016002e-002 0.000000e+000 0.000000e+000 0.000000e+000
 0.000000e+000 0.000000e+000 0.000000e+000 0.000000e+000 0.000000e+000 0.000000e+000 0.000000e+000 0.000000e+000 8.633440e-001 1.366560e-001 0.000000e+000 0.000000e+000
 0.000000e+000 0.000000e+000 0.000000e+000 0.000000e+000 0.000000e+000 0.000000e+000 0.000000e+000 0.000000e+000 0.000000e+000 6.064731e-001 3.935269e-001 0.000000e+000
 0.000000e+000 0.000000e+000 0.000000e+000 0.000000e+000 0.000000e+000 0.000000e+000 0.000000e+000 0.000000e+000 0.000000e+000 0.000000e+000 9.606361e-001 3.936393e-002
 0.000000e+000 0.000000e+000 0.000000e+000 0.000000e+000 0.000000e+000 0.000000e+000 0.000000e+000 0.000000e+000 0.000000e+000 0.000000e+000 0.000000e+000 0.000000e+000
<ENDHMM>
~h "ETNEEN"
<BEGINHMM>
<NUMSTATES> 12
<STATE> 2
<MEAN> 39
 -1.625887e+001 -4.266990e+000 -9.132578e+000 4.505433e+000 2.845766e-001 8.140683e+000 -4.474823e+000 1.370334e+000 7.505776e-001 1.027129e+000 3.984723e+000 3.363636e+000 3.792212e+001 4.127689e-004 1.252599e-003 1.019219e-003 -9.526276e-005 -3.807685e-003 2.661837e-003 4.032979e-003 2.084725e-003 -4.916702e-004 -5.958371e-003 -4.839386e-003 -3.983954e-003 6.340031e-004 -1.199660e-002 1.186855e-002 -6.409528e-003 -5.683457e-003 -8.564386e-003 -1.990247e-003 -1.819630e-004 -2.472991e-003 -2.825536e-003 -6.352890e-003 -4.666906e-003 -7.777676e-003 -1.760835e-002
<VARIANCE> 39
 7.914982e-001 5.629525e-001 6.504016e-001 6.690341e-001 6.673487e-001 8.071227e-001 9.220587e-001 9.358808e-001 9.766014e-001 9.116944e-001 1.091328e+000 9.164498e-001 1.836966e+000 1.616252e-002 1.680612e-002 2.513276e-002 3.824408e-002 4.697737e-002 6.525429e-002 8.904993e-002 9.610218e-002 1.014566e-001 9.660345e-002 1.150368e-001 8.817599e-002 2.115463e-002 7.644579e-003 8.518106e-003 6.437269e-003 8.293301e-003 1.643720e-002 1.359063e-002 1.812680e-002 2.006648e-002 2.063949e-002 2.076804e-002 2.419876e-002 2.030852e-002 1.388462e-002
<GCONST> -2.446918e+001
<STATE> 3
<MEAN> 39
 -2.491510e+001 1.492590e+000 -1.140506e+001 3.222109e+000 -7.618912e+000 5.491717e+000 -3.564384e+000 1.892580e+000 1.468586e+000 -1.868267e+000 1.432389e+000 9.340463e-002 2.699379e+001 -8.277446e-001 4.450949e-001 -2.167958e-001 -4.300547e-002 -6.799878e-001 -3.425492e-001 -6.057275e-002 -3.328688e-002 -8.345829e-003 -1.279982e-001 -5.639633e-002 -2.266980e-001 -1.005013e+000 1.202977e-001 -6.298033e-002 4.912853e-002 4.751646e-002 6.065953e-002 -2.023814e-002 -5.798464e-002 -3.045566e-002 -1.029514e-002 4.132290e-002 -3.185512e-003 -1.373310e-002 1.352533e-001
<VARIANCE> 39
 1.753419e+001 6.806605e+000 3.692474e+000 2.300074e+000 1.375567e+001 6.307736e+000 4.716002e+000 6.407093e+000 6.306586e+000 5.921206e+000 8.029214e+000 7.198689e+000 2.355263e+001 1.538890e+000 9.975098e-001 3.534263e-001 2.965131e-001 1.403824e+000 4.310395e-001 5.039405e-001 7.739649e-001 9.581646e-001 8.462785e-001 1.001731e+000 9.613340e-001 2.446851e+000 3.108105e-001 1.601038e-001 6.048839e-002 4.783234e-002 2.467012e-001 1.139779e-001 7.337624e-002 1.344272e-001 2.332239e-001 1.377997e-001 1.843789e-001 1.752099e-001 4.212979e-001
<GCONST> 6.991212e+001
<STATE> 4
<MEAN> 39
 -2.095420e+001 2.083721e+000 -1.312556e+001 2.411898e+000 -1.175639e+001 -1.006618e+000 -9.442285e+000 -2.216669e+000 -2.448852e+000 -4.923931e+000 -1.511029e+000 -3.746182e+000 2.905604e+001 4.689753e-001 8.269894e-002 -1.893484e-002 -2.963783e-002 -1.842252e-001 -3.442419e-001 -3.324679e-001 -2.712665e-001 -2.969384e-001 -1.992046e-001 -2.826823e-001 -3.507632e-001 3.085406e-001 2.220821e-001 2.572246e-002 1.311380e-001 -1.077375e-002 -5.576755e-002 -1.188518e-001 -2.067106e-002 -3.575275e-002 -1.273108e-001 5.898563e-002 -2.424228e-002 -2.832348e-002 2.105659e-001
<VARIANCE> 39
 1.804156e+001 1.463391e+000 4.521543e+000 6.227921e+000 7.750442e+000 2.038650e+001 1.895951e+001 1.487395e+001 1.636825e+001 1.750954e+001 1.691423e+001 1.495792e+001 9.276382e+000 1.467185e+000 3.330864e-001 6.503651e-001 7.368365e-001 7.875183e-001 1.251366e+000 1.065822e+000 1.237488e+000 1.878013e+000 2.163795e+000 1.544684e+000 1.206222e+000 8.606694e-001 4.086727e-001 9.651195e-002 1.624382e-001 1.659038e-001 2.159911e-001 3.715113e-001 1.953531e-001 2.462613e-001 4.321953e-001 5.124714e-001 3.461191e-001 2.478551e-001 2.633644e-001
<GCONST> 8.539572e+001
<STATE> 5
<MEAN> 39
 -1.900181e+001 2.847755e+000 -1.055082e+001 3.215561e+000 -1.192584e+001 -1.928788e+000 -8.767401e+000 -2.997530e+000 -4.790961e+000 -3.117235e+000 -9.807155e-001 -4.719448e+000 3.099479e+001 1.661722e+000 1.089684e-001 6.172069e-001 9.161782e-002 -5.064183e-001 -1.029428e+000 -9.149367e-001 -6.243045e-001 -5.654466e-001 2.131048e-001 -4.202803e-001 -6.403252e-001 1.385526e+000 3.367778e-001 -1.249491e-001 2.542797e-001 -1.774146e-001 -3.326291e-001 -3.984877e-001 -7.482246e-002 -1.907787e-001 -8.290680e-002 2.329008e-001 -1.040966e-001 -5.602710e-002 4.254765e-001
<VARIANCE> 39
 3.618082e+001 1.310763e+001 1.420632e+001 1.064359e+001 1.777406e+001 3.203781e+001 1.760959e+001 1.527309e+001 3.035602e+001 1.835140e+001 1.443894e+001 1.417143e+001 2.132897e+001 6.100957e+000 2.460274e+000 2.363788e+000 1.264700e+000 2.536425e+000 3.922533e+000 1.870816e+000 1.495422e+000 3.246162e+000 3.048512e+000 1.368564e+000 1.662405e+000 3.710728e+000 1.189247e+000 3.892522e-001 6.380681e-001 3.905584e-001 8.345289e-001 1.072215e+000 3.636505e-001 2.888472e-001 7.660712e-001 6.511816e-001 2.625971e-001 2.274917e-001 9.764740e-001
<GCONST> 1.129949e+002
<STATE> 6
<MEAN> 39
 -1.250185e+001 2.401649e+000 -6.339658e+000 2.897949e+000 -1.487264e+001 -6.219289e+000 -1.191133e+001 -6.209149e+000 -6.257607e+000 -7.606394e-001 -2.453493e+000 -6.746231e+000 3.755774e+001 2.098431e+000 -8.583978e-001 1.260076e+000 -9.346592e-001 -1.292982e+000 -1.788834e+000 -9.929022e-001 -1.204518e+000 -7.690594e-001 1.031460e+000 -7.893242e-001 -7.334133e-001 2.610343e+000 1.570305e-002 -3.098215e-002 1.303256e-001 -1.998731e-001 2.043503e-002 -1.142138e-002 6.141159e-002 5.414108e-002 3.186909e-002 3.623000e-002 -2.000650e-001 -1.158873e-002 1.253396e-001
<VARIANCE> 39
 3.838142e+001 4.903522e+001 4.005494e+001 2.230951e+001 3.440146e+001 4.089096e+001 3.154473e+001 2.914414e+001 3.627799e+001 3.371494e+001 1.628547e+001 1.687418e+001 4.668453e+001 8.152134e+000 6.828012e+000 7.997186e+000 3.009838e+000 6.540761e+000 7.936198e+000 3.233658e+000 2.687833e+000 8.142226e+000 4.236827e+000 1.860597e+000 1.718055e+000 8.520412e+000 1.449780e+000 1.528042e+000 1.375598e+000 6.176271e-001 1.097142e+000 1.353397e+000 4.388207e-001 4.559131e-001 1.313189e+000 7.998473e-001 3.223102e-001 3.024806e-001 1.547563e+000
<GCONST> 1.343879e+002
<STATE> 7
<MEAN> 39
 -1.163707e+000 1.502731e+000 1.035459e+000 -1.768798e+000 -1.952279e+001 -1.048994e+001 -1.478944e+001 -1.072087e+001 -9.975326e+000 2.265456e+000 -1.003241e+001 -1.211543e+001 4.975165e+001 1.137641e+000 2.941971e-002 1.294073e+000 -7.203035e-001 -5.212647e-001 -4.600310e-002 6.360345e-002 -5.110936e-001 -6.575958e-001 1.948784e-001 -1.073077e+000 -8.677264e-001 1.397909e+000 -2.790942e-001 -5.848501e-002 9.346414e-003 -1.486130e-001 1.118882e-001 1.529129e-001 1.175518e-001 7.111993e-002 -4.412045e-002 -1.576315e-002 8.357761e-002 8.334190e-002 -1.286263e-001
<VARIANCE> 39
 6.921223e+001 6.729659e+001 8.411106e+001 5.891290e+001 7.903981e+001 4.025706e+001 5.185239e+001 4.352900e+001 7.591152e+001 3.676822e+001 6.284433e+001 4.352329e+001 6.796214e+001 6.577096e+000 1.110791e+001 8.993794e+000 7.773554e+000 1.026885e+001 5.645933e+000 3.791502e+000 4.377195e+000 8.273160e+000 5.233757e+000 4.925913e+000 4.034235e+000 4.895514e+000 9.492292e-001 2.419113e+000 1.450607e+000 1.377966e+000 2.034656e+000 1.169277e+000 5.774285e-001 9.375219e-001 1.685237e+000 1.107757e+000 9.013547e-001 8.334991e-001 8.958251e-001
<GCONST> 1.502446e+002
<STATE> 8
<MEAN> 39
 -9.887493e-001 -5.164218e+000 2.094907e+001 -2.550916e+001 -1.893001e+001 -7.564084e+000 -1.184188e+001 -1.560808e+001 -1.746193e+001 7.109137e+000 -1.412938e+001 -1.393415e+001 6.735590e+001 -1.572428e-001 -9.901337e-002 2.076095e-001 -2.979145e-001 1.793043e-001 -1.436086e-001 6.460293e-002 2.446377e-001 -7.789471e-002 -1.412732e-001 1.714745e-001 5.283280e-001 1.557301e-001 3.858673e-002 1.321920e-001 -1.778933e-001 2.098135e-001 3.151961e-002 1.677104e-003 -5.801637e-002 1.495202e-002 1.618691e-001 -7.397412e-002 -1.200763e-002 7.483115e-002 -1.352606e-001
<VARIANCE> 39
 3.131450e+001 2.545838e+001 6.050313e+001 2.065626e+002 7.603599e+001 7.481646e+001 3.705571e+001 4.380123e+001 5.480556e+001 6.353466e+001 5.563313e+001 2.481822e+001 3.322844e+001 2.219848e+000 1.858452e+000 4.828429e+000 1.491583e+001 5.297525e+000 2.524580e+000 2.575799e+000 2.913304e+000 5.330327e+000 2.950407e+000 3.867021e+000 2.019235e+000 2.209002e+000 2.322862e-001 2.150675e-001 4.242796e-001 1.255052e+000 7.520643e-001 4.125911e-001 4.687555e-001 4.991409e-001 9.026734e-001 3.775536e-001 7.781305e-001 3.415878e-001 1.332017e-001
<GCONST> 1.279582e+002
<STATE> 9
<MEAN> 39
 -1.944097e+000 -7.132778e+000 2.108958e+001 -2.293531e+001 -1.621990e+001 -1.175611e+001 -1.201248e+001 -1.492062e+001 -1.729497e+001 8.016785e+000 -1.495337e+001 -9.579737e+000 6.847131e+001 5.292609e-001 3.161680e-001 -7.625489e-001 1.701246e+000 -6.471927e-001 -9.064883e-002 -2.287285e-002 2.949680e-001 5.423051e-001 -7.543769e-001 3.768321e-001 3.003511e-001 -5.967629e-001 1.419072e-002 4.234873e-002 -1.946292e-002 7.372878e-002 2.530921e-002 -3.892132e-002 4.715607e-002 4.927997e-002 -7.454178e-002 8.324525e-003 9.345841e-002 -4.171263e-002 -3.606818e-002
<VARIANCE> 39
 3.440614e+001 1.940695e+001 5.109231e+001 2.477828e+002 7.298434e+001 2.380162e+001 2.322950e+001 4.441080e+001 4.704527e+001 7.591557e+001 4.305281e+001 1.577934e+001 3.572293e+001 9.755952e-001 1.187041e+000 1.675149e+000 6.781380e+000 3.010500e+000 2.558411e+000 2.436960e+000 2.728349e+000 4.625775e+000 2.037953e+000 2.379070e+000 1.385827e+000 8.595566e-001 1.245183e-001 1.307115e-001 2.391712e-001 7.216710e-001 5.442629e-001 4.685744e-001 4.581002e-001 4.501068e-001 9.478504e-001 3.431318e-001 4.554993e-001 2.516569e-001 8.725767e-002
<GCONST> 1.155536e+002
<STATE> 10
<MEAN> 39
 4.844416e+000 5.215491e+000 3.411151e+000 1.099008e+001 -2.117054e+001 -1.464233e+001 -1.240306e+001 -1.967963e+000 -1.100626e+001 -9.064287e+000 -5.301500e+000 -3.171406e+000 5.034074e+001 -6.424656e-001 6.679911e-001 -6.231441e-001 4.683754e-001 1.011360e+000 -9.157834e-002 1.742401e-001 6.267352e-001 -3.833959e-001 -2.974919e-001 7.311760e-001 2.598533e-001 -9.618500e-001 -1.031440e-001 -9.209917e-002 1.213019e-001 -1.466873e-001 -1.120184e-002 1.297931e-001 -5.929487e-002 -3.780667e-002 -9.439969e-003 -3.710429e-002 -6.497349e-003 -9.598694e-002 1.414096e-002
<VARIANCE> 39
 4.656793e+001 5.639499e+001 4.019229e+001 4.076631e+001 5.762669e+001 3.753418e+001 1.970164e+001 5.276637e+001 2.582533e+001 2.207124e+001 2.972666e+001 1.196576e+001 3.918566e+001 8.461657e-001 3.561455e+000 1.621355e+000 2.610842e+000 1.988232e+000 3.101806e+000 1.578792e+000 3.059410e+000 2.478956e+000 1.318740e+000 1.522223e+000 9.592989e-001 4.173776e-001 8.036873e-002 4.814986e-001 2.741655e-001 5.296052e-001 4.711871e-001 5.336153e-001 3.262745e-001 5.783557e-001 5.591204e-001 2.694888e-001 3.745719e-001 2.129371e-001 8.270291e-002
<GCONST> 1.089518e+002
<STATE> 11
<MEAN> 39
 -2.599535e+000 9.531374e+000 -5.855353e-001 9.648343e+000 -1.737108e+001 -1.066244e+001 -1.346692e+001 -3.149946e+000 -8.641439e+000 -1.054559e+001 -4.256496e+000 -3.627258e+000 4.185452e+001 -9.725572e-001 -5.550866e-002 -6.443080e-001 -2.109256e-001 4.260853e-001 3.175499e-001 -9.336094e-002 -3.723593e-002 1.763344e-001 -8.442975e-002 1.587960e-001 1.205054e-003 -8.368355e-001 -9.799981e-003 -7.074773e-002 -1.548842e-002 -6.099721e-002 -3.261939e-002 3.659125e-002 1.969413e-002 -1.083668e-002 2.506733e-002 4.700714e-002 -1.895666e-002 -1.787188e-002 2.841151e-002
<VARIANCE> 39
 8.692583e+001 3.562134e+001 4.627058e+001 3.399935e+001 2.824538e+001 2.324297e+001 1.479599e+001 2.027708e+001 1.356454e+001 1.360858e+001 1.182232e+001 1.106197e+001 5.190036e+001 9.060792e-001 2.125313e+000 1.724634e+000 1.793052e+000 1.625924e+000 1.705639e+000 1.264887e+000 1.719731e+000 1.275310e+000 1.513157e+000 1.143196e+000 1.081428e+000 2.642183e-001 9.110387e-002 2.286087e-001 2.382184e-001 2.469372e-001 3.134184e-001 3.340206e-001 2.441919e-001 3.040280e-001 2.173000e-001 2.927165e-001 2.211452e-001 2.083410e-001 2.530292e-002
<GCONST> 9.535648e+001
<TRANSP> 12
 0.000000e+000 1.000000e+000 0.000000e+000 0.000000e+000 0.000000e+000 0.000000e+000 0.000000e+000 0.000000e+000 0.000000e+000 0.000000e+000 0.000000e+000 0.000000e+000
 0.000000e+000 9.859029e-001 1.409708e-002 0.000000e+000 0.000000e+000 0.000000e+000 0.000000e+000 0.000000e+000 0.000000e+000 0.000000e+000 0.000000e+000 0.000000e+000
 0.000000e+000 0.000000e+000 9.169818e-001 8.301822e-002 0.000000e+000 0.000000e+000 0.000000e+000 0.000000e+000 0.000000e+000 0.000000e+000 0.000000e+000 0.000000e+000
 0.000000e+000 0.000000e+000 0.000000e+000 8.256755e-001 1.743245e-001 0.000000e+000 0.000000e+000 0.000000e+000 0.000000e+000 0.000000e+000 0.000000e+000 0.000000e+000
 0.000000e+000 0.000000e+000 0.000000e+000 0.000000e+000 6.706448e-001 3.293552e-001 0.000000e+000 0.000000e+000 0.000000e+000 0.000000e+000 0.000000e+000 0.000000e+000
 0.000000e+000 0.000000e+000 0.000000e+000 0.000000e+000 0.000000e+000 7.701082e-001 2.298918e-001 0.000000e+000 0.000000e+000 0.000000e+000 0.000000e+000 0.000000e+000
 0.000000e+000 0.000000e+000 0.000000e+000 0.000000e+000 0.000000e+000 0.000000e+000 9.218319e-001 7.816814e-002 0.000000e+000 0.000000e+000 0.000000e+000 0.000000e+000
 0.000000e+000 0.000000e+000 0.000000e+000 0.000000e+000 0.000000e+000 0.000000e+000 0.000000e+000 9.429148e-001 5.708514e-002 0.000000e+000 0.000000e+000 0.000000e+000
 0.000000e+000 0.000000e+000 0.000000e+000 0.000000e+000 0.000000e+000 0.000000e+000 0.000000e+000 0.000000e+000 9.186227e-001 8.137733e-002 0.000000e+000 0.000000e+000
 0.000000e+000 0.000000e+000 0.000000e+000 0.000000e+000 0.000000e+000 0.000000e+000 0.000000e+000 0.000000e+000 0.000000e+000 8.129991e-001 1.870009e-001 0.000000e+000
 0.000000e+000 0.000000e+000 0.000000e+000 0.000000e+000 0.000000e+000 0.000000e+000 0.000000e+000 0.000000e+000 0.000000e+000 0.000000e+000 9.531847e-001 4.681533e-002
 0.000000e+000 0.000000e+000 0.000000e+000 0.000000e+000 0.000000e+000 0.000000e+000 0.000000e+000 0.000000e+000 0.000000e+000 0.000000e+000 0.000000e+000 0.000000e+000
<ENDHMM>
~h "SIL"
<BEGINHMM>
<NUMSTATES> 5
<STATE> 2
<MEAN> 39
 -1.496232e+001 1.382759e-001 -1.184879e+001 2.554931e+000 -7.450833e+000 -3.982171e-001 -1.069429e+001 -2.735847e+000 -4.027662e+000 -5.657164e+000 -8.870627e-001 -2.701566e+000 3.600669e+001 -7.589855e-002 5.521955e-002 2.329638e-002 -1.524921e-002 -1.022964e-001 5.813953e-002 4.706886e-002 1.529050e-002 1.741741e-001 6.773015e-002 -7.779086e-002 -5.909941e-002 -9.024832e-002 2.610594e-002 -5.679266e-003 5.322604e-003 5.254411e-003 -4.688625e-003 -2.485706e-002 -2.369431e-002 -6.415133e-003 -4.600075e-002 -2.487781e-002 1.302591e-002 -9.994820e-003 2.243820e-002
<VARIANCE> 39
 2.963315e+001 3.727817e+001 1.794130e+001 2.377769e+001 4.587564e+001 4.571016e+001 4.602984e+001 2.394481e+001 2.220130e+001 3.203706e+001 2.339283e+001 2.443378e+001 6.677250e+001 6.809345e-001 8.079364e-001 8.896730e-001 1.113129e+000 1.350549e+000 1.288176e+000 1.504011e+000 1.436666e+000 1.292146e+000 1.232412e+000 1.213792e+000 1.000348e+000 5.641918e-001 1.017460e-001 1.394369e-001 1.708900e-001 2.158102e-001 2.505348e-001 2.394736e-001 2.709970e-001 2.793847e-001 2.535356e-001 2.249882e-001 2.200835e-001 1.956236e-001 6.190427e-002
<GCONST> 9.557310e+001
<STATE> 3
<MEAN> 39
 -1.592688e+001 1.508962e+000 -1.260301e+001 2.918199e+000 -9.252373e+000 -7.288960e-001 -1.069924e+001 -3.200342e+000 -3.980582e+000 -5.278617e+000 -1.182390e+000 -2.890847e+000 3.362843e+001 -4.878957e-002 1.603270e-002 1.622329e-002 1.081303e-002 -1.275155e-001 7.963214e-002 3.153669e-002 -4.055122e-002 1.008657e-001 5.024629e-002 -1.252993e-002 -1.077151e-001 -6.529745e-002 1.746463e-002 -9.805922e-003 -1.718148e-003 5.567553e-003 1.987000e-002 -2.783203e-002 -2.698316e-002 -6.905806e-003 -4.933842e-002 -2.843569e-002 2.282123e-002 1.134845e-002 1.927517e-002
<VARIANCE> 39
 2.829327e+000 1.368303e+001 1.060798e+001 8.267418e+000 3.429762e+001 3.049185e+001 2.120711e+001 1.647815e+001 1.662054e+001 2.227174e+001 1.649910e+001 1.965976e+001 5.855773e+000 1.315145e-001 2.390017e-001 4.392313e-001 6.099935e-001 7.717428e-001 8.172290e-001 9.545020e-001 1.114918e+000 1.007787e+000 9.381119e-001 9.493732e-001 8.469189e-001 4.770778e-002 2.881744e-002 5.425609e-002 9.130511e-002 1.220038e-001 1.464851e-001 1.683989e-001 2.009563e-001 2.296367e-001 2.057905e-001 1.881224e-001 1.967222e-001 1.677112e-001 1.018363e-002
<GCONST> 6.860065e+001
<STATE> 4
<MEAN> 39
 -1.705789e+001 1.128626e+000 -1.273560e+001 2.198145e+000 -1.001461e+001 -7.547635e-001 -1.023863e+001 -2.848149e+000 -3.606267e+000 -5.182220e+000 -1.223006e+000 -2.997837e+000 3.296677e+001 -1.212054e-002 7.389002e-003 -1.998339e-003 -1.161575e-002 -3.367756e-002 -1.480606e-002 -4.504895e-003 -1.150147e-002 -7.967921e-003 -1.220367e-002 -9.325881e-003 -2.224112e-002 -1.557760e-002 2.063203e-003 1.033621e-004 6.260783e-005 -3.473271e-004 2.267563e-003 -1.414364e-003 -1.201331e-003 -8.306613e-004 -4.373470e-003 -4.633002e-005 3.213672e-003 -1.290303e-004 1.773496e-003
<VARIANCE> 39
 2.995801e+000 1.046573e+001 7.056277e+000 6.101612e+000 3.587201e+001 3.022948e+001 1.850474e+001 1.475071e+001 1.542330e+001 2.013842e+001 1.681807e+001 1.998274e+001 8.182903e+000 1.613542e-001 2.300668e-001 3.397296e-001 4.696519e-001 6.259076e-001 7.296839e-001 8.282083e-001 9.628680e-001 1.017479e+000 1.013429e+000 9.819325e-001 9.166358e-001 1.053915e-001 2.916376e-002 4.605407e-002 6.821436e-002 9.403443e-002 1.243860e-001 1.458386e-001 1.653882e-001 1.955836e-001 2.071295e-001 2.048961e-001 1.981799e-001 1.868120e-001 1.797581e-002
<GCONST> 6.709991e+001
<TRANSP> 5
 0.000000e+000 1.000000e+000 0.000000e+000 0.000000e+000 0.000000e+000
 0.000000e+000 7.306769e-001 2.693231e-001 0.000000e+000 0.000000e+000
 0.000000e+000 0.000000e+000 6.829302e-001 3.170698e-001 0.000000e+000
 0.000000e+000 0.000000e+000 0.000000e+000 9.660448e-001 3.395519e-002
 0.000000e+000 0.000000e+000 0.000000e+000 0.000000e+000 0.000000e+000
<ENDHMM>
~h "ARBA3A"
<BEGINHMM>
<NUMSTATES> 12
<STATE> 2
<MEAN> 39
 -1.620464e+001 -4.253531e+000 -9.136783e+000 4.410825e+000 1.075251e-001 8.055155e+000 -4.561709e+000 1.514740e+000 7.840143e-001 1.065533e+000 4.034372e+000 3.210841e+000 3.793929e+001 1.258837e-004 4.244427e-003 6.104146e-005 -1.008253e-004 -5.807044e-003 4.089436e-003 2.956088e-004 -2.085365e-004 -2.769652e-003 -6.385234e-003 -7.196339e-003 -6.350911e-003 -3.004743e-003 -1.345882e-002 1.365784e-002 -7.119032e-003 -4.626248e-003 -9.420924e-003 -4.377298e-003 -1.301970e-003 -6.375810e-003 -2.932910e-003 -8.901484e-003 -4.501953e-003 -7.950071e-003 -1.954672e-002
<VARIANCE> 39
 7.914982e-001 5.629525e-001 6.504016e-001 6.690341e-001 8.145729e-001 9.494189e-001 9.142820e-001 1.084776e+000 1.030979e+000 1.059190e+000 1.117268e+000 1.045317e+000 1.836966e+000 1.616252e-002 2.174260e-002 3.204446e-002 4.131410e-002 5.108554e-002 6.233259e-002 8.689079e-002 9.348463e-002 9.956441e-002 1.087400e-001 1.206389e-001 9.478772e-002 2.115463e-002 9.219985e-003 1.006457e-002 7.971983e-003 8.855018e-003 1.758545e-002 1.386949e-002 1.823588e-002 1.957499e-002 2.130141e-002 2.374599e-002 2.462424e-002 2.050969e-002 1.621468e-002
<GCONST> -2.177556e+001
<STATE> 3
<MEAN> 39
 -2.326168e+001 1.753756e+000 -1.219898e+001 2.949601e+000 -9.295667e+000 3.154902e+000 -5.606630e+000 3.819261e-001 -5.224765e-002 -2.935722e+000 1.204303e-001 -1.190832e+000 2.779280e+001 -3.678604e-001 2.926940e-001 -1.597629e-001 -5.701154e-002 -4.841242e-001 -3.338239e-001 -1.450717e-001 -1.409278e-001 -7.061315e-002 -1.526060e-001 -1.632579e-001 -2.485908e-001 -5.155029e-001 1.026560e-001 -4.593746e-002 1.944857e-002 3.456790e-003 3.419582e-002 -3.011072e-002 -4.776936e-002 -7.040855e-003 -2.494971e-002 6.306472e-003 -1.294794e-002 -3.731417e-003 1.122148e-001
<VARIANCE> 39
 2.302887e+001 4.997807e+000 4.724322e+000 4.691689e+000 1.620099e+001 1.874789e+001 1.531287e+001 1.182488e+001 1.252766e+001 1.060175e+001 1.226201e+001 1.258470e+001 1.943750e+001 1.770026e+000 7.842502e-001 3.581374e-001 4.913360e-001 1.218830e+000 8.747091e-001 8.659158e-001 1.160260e+000 9.803403e-001 9.116639e-001 1.111943e+000 1.054682e+000 2.167326e+000 2.688363e-001 1.227773e-001 6.718623e-002 1.011610e-001 2.235968e-001 2.130060e-001 1.552955e-001 2.288013e-001 2.316862e-001 1.713077e-001 2.206467e-001 2.104747e-001 2.974386e-001
<GCONST> 8.051855e+001
<STATE> 4
<MEAN> 39
 -1.827095e+001 2.159015e+000 -1.387810e+001 1.397253e+000 -1.257948e+001 -2.505369e+000 -1.174876e+001 -4.783139e+000 -5.064256e+000 -6.467294e+000 -2.163649e+000 -4.612633e+000 3.106434e+001 4.407361e-001 5.517539e-003 -1.695937e-001 -1.779049e-001 -2.189704e-001 -3.247140e-001 -2.969307e-001 -1.817744e-001 -2.549206e-001 -2.569992e-001 -2.530857e-001 -1.721245e-001 3.071888e-001 3.595527e-002 -5.514871e-002 -7.717079e-002 -7.570101e-002 3.221400e-002 4.717944e-002 4.968227e-002 5.926711e-002 7.174440e-002 5.190825e-002 -2.276100e-002 2.918623e-002 4.792950e-002
<VARIANCE> 39
 7.767564e+000 3.138958e+000 4.430289e+000 6.002709e+000 9.295289e+000 1.325700e+001 1.359952e+001 1.331193e+001 1.620952e+001 1.554437e+001 1.452568e+001 1.275347e+001 3.731974e+000 1.019978e+000 3.787514e-001 5.998042e-001 6.592011e-001 1.207683e+000 1.667232e+000 1.500630e+000 1.792257e+000 2.299549e+000 2.016716e+000 1.822751e+000 1.693777e+000 4.684030e-001 1.956709e-001 9.278281e-002 1.467900e-001 1.600027e-001 2.580906e-001 3.366586e-001 2.664488e-001 3.496770e-001 4.667093e-001 3.989359e-001 4.309812e-001 3.495863e-001 1.262920e-001
<GCONST> 8.372631e+001
<STATE> 5
<MEAN> 39
 -1.701935e+001 1.550994e+000 -1.503533e+001 6.004487e-001 -1.319832e+001 -2.899090e+000 -1.169329e+001 -4.628874e+000 -3.854946e+000 -6.204397e+000 -3.289100e+000 -4.762436e+000 3.201082e+001 2.107345e+000 -8.062654e-001 -1.782628e+000 -1.656200e+000 2.147418e-001 3.451963e-002 -4.172742e-001 -1.182431e-001 9.796266e-002 6.420195e-003 -1.247529e+000 -5.050428e-001 1.787176e+000 8.244130e-001 -5.417550e-001 -5.069398e-001 -7.808361e-001 5.861576e-001 3.330000e-001 8.754171e-002 2.043296e-003 1.599401e-001 3.517334e-001 -6.508308e-001 -2.180465e-001 1.022194e+000
<VARIANCE> 39
 1.333843e+001 6.641822e+000 1.893396e+001 1.822778e+001 8.188043e+000 1.683361e+001 1.372737e+001 1.645324e+001 1.529475e+001 2.216644e+001 1.803258e+001 1.216659e+001 8.634558e+000 3.367518e+000 1.765596e+000 3.474963e+000 2.318221e+000 1.351522e+000 2.833373e+000 2.024352e+000 1.422275e+000 1.822776e+000 1.915221e+000 3.318202e+000 2.415411e+000 2.706115e+000 5.201575e-001 2.806033e-001 7.437054e-001 4.704889e-001 2.468133e-001 3.083648e-001 3.006827e-001 4.434795e-001 3.481629e-001 4.185947e-001 5.227187e-001 5.056943e-001 7.350501e-001
<GCONST> 1.051909e+002
<STATE> 6
<MEAN> 39
 -1.083541e+001 -4.968410e-001 -1.993707e+001 -4.428969e+000 -1.117168e+001 -5.181963e-001 -1.095602e+001 -3.999993e+000 -3.481423e+000 -5.615850e+000 -7.652617e+000 -6.827928e+000 3.751200e+001 2.500809e+000 -1.674988e+000 -9.487478e-001 -1.960318e+000 1.524838e+000 3.265886e-001 -2.296182e-001 -8.374558e-002 3.657766e-001 1.113083e+000 -1.730341e+000 -3.574003e-001 3.193372e+000 1.305153e-001 -5.923406e-001 6.203166e-001 -4.100869e-001 5.757517e-001 -1.418476e-001 2.956662e-001 -2.136600e-001 -5.679958e-002 5.210974e-001 -4.313031e-001 1.503223e-001 8.804720e-001
<VARIANCE> 39
 4.836641e+001 2.987491e+001 4.535752e+001 4.446967e+001 2.291220e+001 3.019408e+001 2.764300e+001 2.016563e+001 2.288305e+001 2.739672e+001 3.780225e+001 2.229024e+001 5.233840e+001 8.314102e+000 3.349320e+000 7.703633e+000 6.851792e+000 2.964409e+000 3.664108e+000 3.457914e+000 2.959497e+000 2.847624e+000 3.639033e+000 6.531813e+000 4.782393e+000 1.079159e+001 1.460610e+000 6.919709e-001 1.255152e+000 1.734306e+000 7.012607e-001 6.382619e-001 6.437501e-001 5.824882e-001 5.011296e-001 7.916476e-001 1.214397e+000 7.439572e-001 1.972319e+000
<GCONST> 1.353795e+002
<STATE> 7
<MEAN> 39
 3.153892e+000 -1.315398e+001 -7.845316e+000 -1.124978e+001 -4.625554e+000 -1.115104e+001 -6.983286e+000 -7.832304e+000 -6.423408e+000 -2.293314e+000 -1.506578e+001 -8.787888e+000 6.434067e+001 7.169079e-001 -7.001877e-001 8.806556e-001 -4.073552e-001 1.060369e-001 -4.044762e-001 2.365735e-001 -2.544888e-001 -3.353835e-001 1.106436e-001 -2.760700e-001 -1.176120e-001 1.424165e+000 -1.331234e-001 1.194038e-001 1.372596e-002 1.583597e-001 -1.695171e-001 1.912934e-002 -4.106812e-002 9.830150e-003 -4.523844e-002 -9.045047e-002 1.514407e-001 -1.407870e-003 -2.411986e-001
<VARIANCE> 39
 5.440436e+001 1.151208e+002 7.283125e+001 2.108851e+002 1.257767e+002 9.902677e+001 1.089415e+002 7.659817e+001 3.624861e+001 6.523147e+001 8.702357e+001 3.302483e+001 1.351270e+002 3.841303e+000 9.308450e+000 5.749322e+000 1.517828e+001 1.035190e+001 7.207616e+000 1.010153e+001 8.563237e+000 3.330840e+000 7.440029e+000 7.745164e+000 2.828467e+000 1.377535e+001 6.814012e-001 1.101492e+000 1.076617e+000 1.756363e+000 1.250726e+000 1.125917e+000 1.504480e+000 1.593022e+000 7.309128e-001 1.201328e+000 1.170235e+000 5.893091e-001 1.351067e+000
<GCONST> 1.562601e+002
<STATE> 8
<MEAN> 39
 8.163237e+000 -1.095026e+001 -5.686596e+000 -7.109449e+000 -7.026386e+000 -5.937701e+000 -1.035205e+001 -1.042917e+001 -1.106814e+001 -1.367994e+000 -1.342465e+001 -9.448944e+000 6.462133e+001 1.124136e-002 -2.174040e-001 3.941360e-002 -5.629364e-001 3.199421e-001 6.423331e-001 2.605196e-002 -1.852007e-001 -2.653734e-001 3.908001e-001 -1.781260e-001 4.481556e-002 2.275718e-001 -4.455757e-002 -2.251150e-002 -1.950848e-002 5.919701e-002 4.117071e-002 7.506787e-002 -8.332187e-003 2.972144e-003 5.923961e-002 -8.576073e-002 2.419116e-002 3.360739e-002 -3.384897e-002
<VARIANCE> 39
 2.346754e+001 1.577896e+002 4.616985e+001 2.752024e+002 9.974352e+001 9.293213e+001 6.719720e+001 6.267376e+001 3.487160e+001 9.734468e+001 5.501228e+001 2.628431e+001 9.579077e+001 1.622389e+000 1.206407e+001 4.799917e+000 1.493530e+001 7.967464e+000 5.035477e+000 6.033652e+000 7.520599e+000 3.318855e+000 8.739804e+000 4.479283e+000 2.140338e+000 6.713963e+000 2.624190e-001 1.453776e+000 8.547283e-001 1.651656e+000 1.295098e+000 9.961615e-001 1.041309e+000 1.549233e+000 7.103820e-001 1.499981e+000 7.720641e-001 4.092253e-001 8.033940e-001
<GCONST> 1.478846e+002
<STATE> 9
<MEAN> 39
 6.654184e+000 -2.148486e+001 -6.855192e+000 -1.350529e+001 6.788225e-001 1.311823e+001 -1.002670e+001 -1.552503e+001 -1.292294e+001 8.270962e-001 -1.172153e+001 -3.650495e+000 6.897256e+001 9.289046e-002 2.933371e-001 -3.818090e-001 1.264599e+000 -6.394041e-002 9.853556e-001 -4.740552e-001 -8.590147e-002 2.603179e-001 -9.151890e-001 8.877386e-001 2.736095e-001 -7.137108e-001 6.001664e-003 1.447266e-001 -4.707974e-002 4.509369e-002 -5.313867e-002 -8.998562e-002 1.473392e-002 4.446527e-002 -5.440312e-003 3.360120e-002 5.273971e-002 -5.102937e-002 -1.009643e-001
<VARIANCE> 39
 7.906357e+000 4.543412e+001 2.277431e+001 1.013211e+002 3.648224e+001 8.219415e+001 6.387531e+001 3.724287e+001 3.733238e+001 7.647185e+001 7.061496e+001 2.948530e+001 3.799529e+001 5.675089e-001 1.899044e+000 1.777833e+000 2.849465e+000 3.383846e+000 4.787702e+000 4.136200e+000 2.741558e+000 2.886227e+000 4.420511e+000 3.803152e+000 2.266287e+000 6.356454e-001 8.877905e-002 1.630951e-001 2.978237e-001 4.996968e-001 6.526833e-001 8.597777e-001 6.560202e-001 4.974048e-001 5.310006e-001 7.524392e-001 7.356895e-001 4.365110e-001 9.359668e-002
<GCONST> 1.192188e+002
<STATE> 10
<MEAN> 39
 6.311820e+000 -1.132342e+001 -1.183343e+001 -1.500543e+000 1.325463e+000 1.586300e+001 -1.534912e+001 -1.245528e+001 -1.135803e+001 -8.333646e+000 -1.589780e+000 -3.949486e+000 5.793081e+001 -6.388283e-001 1.084536e+000 -7.540404e-001 6.417115e-001 3.347501e-001 -6.439729e-001 -1.350573e-001 2.733681e-001 -1.927006e-001 -1.255220e-001 5.748761e-001 -6.409683e-002 -1.324237e+000 -1.045276e-001 -2.809549e-002 -2.772605e-002 -1.015178e-001 -5.393944e-002 -1.378374e-001 6.274193e-002 -3.702068e-002 -7.129958e-002 9.751064e-002 -4.409505e-002 3.009621e-002 -4.134648e-002
<VARIANCE> 39
 2.797171e+001 1.033678e+002 5.418597e+001 3.710945e+001 5.460384e+001 6.389610e+001 5.121164e+001 4.057211e+001 3.271444e+001 5.227201e+001 4.890425e+001 2.673412e+001 7.852407e+001 1.116954e+000 2.058791e+000 4.590337e+000 2.434352e+000 3.496415e+000 3.485509e+000 3.929672e+000 3.364830e+000 2.428361e+000 3.594218e+000 2.046616e+000 2.344716e+000 4.830058e-001 9.040898e-002 2.371510e-001 6.900039e-001 4.361273e-001 5.144464e-001 5.254410e-001 6.625221e-001 5.538598e-001 4.479563e-001 5.539810e-001 3.757063e-001 4.286585e-001 4.844510e-002
<GCONST> 1.197676e+002
<STATE> 11
<MEAN> 39
 -8.773957e+000 9.750271e-001 -1.754188e+001 2.603976e+000 -2.395952e+000 4.289993e+000 -1.415044e+001 -1.019069e+001 -1.135368e+001 -6.366375e+000 1.749123e+000 -4.531616e+000 3.818622e+001 -1.029242e+000 3.410528e-001 2.491764e-001 4.289679e-002 -9.320260e-001 -6.822456e-001 2.565975e-001 1.496520e-001 3.486978e-001 1.377317e-001 -2.028914e-001 -4.921908e-002 -9.266182e-001 9.452842e-002 -2.160122e-002 1.053403e-001 -4.181803e-003 4.116093e-002 7.168653e-002 -3.442250e-002 8.587492e-002 1.050551e-001 -3.184975e-003 -4.068786e-002 9.696617e-003 1.150013e-001
<VARIANCE> 39
 4.389112e+001 3.264114e+001 5.643097e+001 1.527842e+001 4.172945e+001 2.820804e+001 2.162413e+001 2.415485e+001 2.626652e+001 1.856518e+001 1.830383e+001 1.318309e+001 3.185717e+001 1.404639e+000 1.761210e+000 3.536287e+000 1.251623e+000 2.132560e+000 2.153661e+000 2.438949e+000 2.135638e+000 2.146193e+000 1.850564e+000 1.616728e+000 1.362738e+000 7.160321e-001 1.887250e-001 3.364404e-001 6.084659e-001 2.833763e-001 3.791700e-001 4.397821e-001 5.101104e-001 4.337531e-001 3.740280e-001 3.749847e-001 3.162170e-001 2.745762e-001 6.687653e-002
<GCONST> 1.066458e+002
<TRANSP> 12
 0.000000e+000 1.000000e+000 0.000000e+000 0.000000e+000 0.000000e+000 0.000000e+000 0.000000e+000 0.000000e+000 0.000000e+000 0.000000e+000 0.000000e+000 0.000000e+000
 0.000000e+000 9.850765e-001 1.492347e-002 0.000000e+000 0.000000e+000 0.000000e+000 0.000000e+000 0.000000e+000 0.000000e+000 0.000000e+000 0.000000e+000 0.000000e+000
 0.000000e+000 0.000000e+000 9.448976e-001 5.510236e-002 0.000000e+000 0.000000e+000 0.000000e+000 0.000000e+000 0.000000e+000 0.000000e+000 0.000000e+000 0.000000e+000
 0.000000e+000 0.000000e+000 0.000000e+000 9.124892e-001 8.751086e-002 0.000000e+000 0.000000e+000 0.000000e+000 0.000000e+000 0.000000e+000 0.000000e+000 0.000000e+000
 0.000000e+000 0.000000e+000 0.000000e+000 0.000000e+000 3.748113e-001 6.251886e-001 0.000000e+000 0.000000e+000 0.000000e+000 0.000000e+000 0.000000e+000 0.000000e+000
 0.000000e+000 0.000000e+000 0.000000e+000 0.000000e+000 0.000000e+000 6.467764e-001 3.532236e-001 0.000000e+000 0.000000e+000 0.000000e+000 0.000000e+000 0.000000e+000
 0.000000e+000 0.000000e+000 0.000000e+000 0.000000e+000 0.000000e+000 0.000000e+000 9.455770e-001 5.442297e-002 0.000000e+000 0.000000e+000 0.000000e+000 0.000000e+000
 0.000000e+000 0.000000e+000 0.000000e+000 0.000000e+000 0.000000e+000 0.000000e+000 0.000000e+000 9.492314e-001 5.076851e-002 0.000000e+000 0.000000e+000 0.000000e+000
 0.000000e+000 0.000000e+000 0.000000e+000 0.000000e+000 0.000000e+000 0.000000e+000 0.000000e+000 0.000000e+000 9.321681e-001 6.783196e-002 0.000000e+000 0.000000e+000
 0.000000e+000 0.000000e+000 0.000000e+000 0.000000e+000 0.000000e+000 0.000000e+000 0.000000e+000 0.000000e+000 0.000000e+000 9.260839e-001 7.391617e-002 0.000000e+000
 0.000000e+000 0.000000e+000 0.000000e+000 0.000000e+000 0.000000e+000 0.000000e+000 0.000000e+000 0.000000e+000 0.000000e+000 0.000000e+000 9.215671e-001 7.843291e-002
 0.000000e+000 0.000000e+000 0.000000e+000 0.000000e+000 0.000000e+000 0.000000e+000 0.000000e+000 0.000000e+000 0.000000e+000 0.000000e+000 0.000000e+000 0.000000e+000
<ENDHMM>
~h "WAHED"
<BEGINHMM>
<NUMSTATES> 12
<STATE> 2
<MEAN> 39
 -1.615859e+001 -4.165844e+000 -9.258559e+000 4.264333e+000 8.464312e-002 7.855336e+000 -4.453875e+000 1.639510e+000 9.038528e-001 1.026653e+000 3.960278e+000 3.260285e+000 3.797800e+001 1.045531e-003 1.424650e-003 9.384629e-004 1.922234e-004 -4.909927e-003 2.606595e-003 4.795315e-003 -3.819883e-003 4.996967e-003 -1.062355e-002 -3.030698e-003 -2.493975e-003 1.262882e-003 -1.178673e-002 1.253360e-002 -6.680901e-003 -4.415935e-003 -8.697078e-003 -1.278560e-003 -4.531139e-004 -2.811748e-003 -1.959509e-003 -5.981992e-003 -6.041626e-003 -6.326029e-003 -1.717678e-002
<VARIANCE> 39
 7.914982e-001 5.629525e-001 6.504016e-001 6.690341e-001 6.673487e-001 8.030654e-001 8.704028e-001 8.903878e-001 1.007572e+000 1.023808e+000 1.034560e+000 9.599418e-001 1.836966e+000 1.616252e-002 1.688270e-002 2.872119e-002 3.820223e-002 4.094774e-002 5.621323e-002 8.174562e-002 9.059418e-002 1.070395e-001 1.106524e-001 1.100409e-001 9.144998e-002 2.115463e-002 7.421394e-003 8.996418e-003 7.463305e-003 8.139439e-003 1.476130e-002 1.139765e-002 1.661432e-002 1.883079e-002 2.256385e-002 2.275073e-002 2.371000e-002 1.992839e-002 1.355878e-002
<GCONST> -2.471712e+001
<STATE> 3
<MEAN> 39
 -2.507506e+001 1.612508e+000 -1.139266e+001 3.374755e+000 -7.852688e+000 5.413286e+000 -3.752737e+000 1.674293e+000 1.538326e+000 -2.022807e+000 1.175393e+000 5.607224e-001 2.681444e+001 -7.829444e-001 4.114446e-001 -1.640517e-001 8.906749e-003 -6.450624e-001 -2.907013e-001 -8.894189e-002 -8.369090e-002 4.698438e-003 -8.508758e-002 -9.590242e-002 -2.301987e-001 -9.451821e-001 1.370756e-001 -5.070419e-002 4.297464e-002 1.948431e-002 5.927365e-002 -3.173846e-002 -6.876572e-002 -1.983947e-002 -1.206021e-002 2.898841e-002 2.338982e-003 -5.055219e-002 1.436221e-001
<VARIANCE> 39
 1.714207e+001 6.524006e+000 3.624306e+000 2.824739e+000 1.246995e+001 5.661687e+000 5.032322e+000 6.876793e+000 6.349106e+000 5.759760e+000 6.742015e+000 7.179340e+000 2.225864e+001 1.583015e+000 9.758318e-001 3.890642e-001 3.584761e-001 1.314865e+000 4.076447e-001 5.905477e-001 9.010192e-001 9.880170e-001 8.566616e-001 9.110098e-001 9.641642e-001 2.395467e+000 3.065100e-001 1.573099e-001 6.459381e-002 7.656482e-002 2.423859e-001 1.032454e-001 1.054421e-001 1.617569e-001 2.553144e-001 1.437549e-001 1.669904e-001 1.988744e-001 4.027969e-001
<GCONST> 7.117087e+001
<STATE> 4
<MEAN> 39
 -1.856482e+001 3.065470e+000 -1.316508e+001 1.622680e+000 -1.225387e+001 -1.837600e+000 -1.128811e+001 -4.788431e+000 -4.412218e+000 -5.722227e+000 -1.142187e+000 -3.896644e+000 3.050253e+001 8.694255e-001 1.908633e-001 -1.128499e-001 -2.903180e-001 -3.051352e-001 -5.778031e-001 -5.790870e-001 -4.337668e-001 -4.698983e-001 -3.136166e-001 -2.124965e-001 -2.572084e-001 5.764638e-001 5.955004e-002 6.518977e-002 3.281064e-002 -3.271445e-002 -1.530362e-004 7.660028e-003 4.363712e-002 2.325638e-002 -3.931667e-002 -3.781464e-003 1.151737e-002 8.628718e-002 3.958480e-002
<VARIANCE> 39
 2.156030e+001 5.303431e+000 9.183218e+000 9.742933e+000 1.219303e+001 1.893858e+001 2.270835e+001 1.944346e+001 2.314100e+001 1.978315e+001 1.443546e+001 1.364227e+001 9.227626e+000 1.654625e+000 4.620410e-001 6.609374e-001 8.416364e-001 1.016109e+000 1.392018e+000 1.406623e+000 1.174909e+000 1.757277e+000 1.812404e+000 1.738293e+000 1.530670e+000 6.848230e-001 3.738514e-001 1.088789e-001 1.403093e-001 1.870438e-001 2.112816e-001 2.726789e-001 2.117381e-001 1.829569e-001 3.618677e-001 3.498596e-001 3.600283e-001 2.634215e-001 1.646165e-001
<GCONST> 8.865359e+001
<STATE> 5
<MEAN> 39
 -1.670203e+001 4.526353e+000 -1.194290e+001 2.452452e+000 -1.148911e+001 -1.425508e+000 -1.135480e+001 -4.752970e+000 -4.071448e+000 -4.204028e+000 1.351169e-001 -2.374100e+000 3.150716e+001 1.626606e+000 8.516204e-001 3.870338e-001 -1.001180e-001 -1.720603e-002 -4.273409e-001 -4.825399e-001 -3.449564e-001 -5.197333e-001 -3.934663e-001 -2.426167e-001 -1.650176e-001 1.025743e+000 5.651200e-001 3.632543e-001 2.522204e-001 -1.578022e-001 2.848699e-001 1.984724e-001 3.134229e-002 4.330902e-002 -3.769990e-001 -1.436926e-001 -1.002529e-001 -9.062368e-002 4.157263e-001
<VARIANCE> 39
 2.432360e+001 1.032156e+001 1.329099e+001 2.211583e+001 1.923329e+001 1.715628e+001 1.672615e+001 1.593349e+001 1.953691e+001 1.897978e+001 1.247038e+001 9.849492e+000 9.461525e+000 4.116389e+000 1.471386e+000 2.185048e+000 2.874938e+000 2.297546e+000 1.810228e+000 1.740843e+000 1.407794e+000 2.197619e+000 1.475483e+000 1.382378e+000 1.724721e+000 2.002679e+000 1.303204e+000 3.894161e-001 3.954795e-001 8.506919e-001 5.417504e-001 3.217738e-001 3.025347e-001 3.489337e-001 6.901209e-001 4.468251e-001 2.538733e-001 2.711000e-001 6.341146e-001
<GCONST> 1.058735e+002
<STATE> 6
<MEAN> 39
 -1.358677e+001 6.195888e+000 -1.155062e+001 1.314278e+000 -1.173346e+001 -1.899342e+000 -1.165942e+001 -4.814851e+000 -4.883006e+000 -4.996315e+000 -1.225159e-001 -2.401282e+000 3.355319e+001 4.155758e+000 2.211974e+000 1.295882e+000 -9.226330e-001 9.534677e-001 1.558677e-001 -7.856026e-001 -4.228540e-001 -2.434208e+000 -1.082930e+000 -7.581341e-001 -7.937081e-001 2.891769e+000 1.307101e+000 1.655322e-001 -1.482181e-001 -8.300974e-001 2.208304e-001 5.947995e-002 -4.448695e-001 -3.097749e-001 -8.201303e-001 -7.451025e-002 -1.249819e-001 -2.325301e-001 1.074647e+000
<VARIANCE> 39
 3.315143e+001 1.586842e+001 1.743401e+001 1.906650e+001 1.964846e+001 2.087000e+001 1.607256e+001 1.719793e+001 2.812275e+001 2.165138e+001 1.206355e+001 8.846313e+000 1.674638e+001 6.263153e+000 1.852265e+000 2.648011e+000 5.000981e+000 2.398543e+000 1.655618e+000 1.415932e+000 2.760360e+000 3.496768e+000 2.526790e+000 1.150203e+000 1.667323e+000 3.796067e+000 1.160354e+000 4.705833e-001 5.265155e-001 7.105961e-001 6.579153e-001 3.554465e-001 3.403265e-001 8.064515e-001 5.667778e-001 5.510668e-001 2.934071e-001 3.821958e-001 7.178513e-001
<GCONST> 1.132104e+002
<STATE> 7
<MEAN> 39
 1.683007e+000 -2.455068e+000 -4.869361e+000 -1.363857e+001 -7.821260e+000 -6.572046e+000 -1.008775e+001 -7.371973e+000 -1.229272e+001 -6.651760e+000 -5.722739e+000 -6.051385e+000 6.053263e+001 2.052761e+000 -8.886926e-001 3.767643e-001 -1.738684e+000 1.838529e-001 -2.763164e-001 -1.358409e-001 -5.110068e-001 -8.931597e-001 5.696391e-002 -2.845736e-001 -3.705188e-001 2.863225e+000 -3.449871e-001 -5.109858e-001 -3.049394e-002 -8.362604e-002 -1.275013e-001 -4.164382e-002 3.713444e-002 9.833432e-003 3.047101e-001 2.634547e-001 9.478313e-002 1.684255e-002 -1.042603e-002
<VARIANCE> 39
 7.505205e+001 2.317939e+002 5.379821e+001 1.233412e+002 2.833450e+001 5.450915e+001 1.282843e+002 3.836837e+001 5.639365e+001 5.177853e+001 5.966658e+001 2.278845e+001 2.868244e+002 1.288470e+001 6.533898e+000 3.513543e+000 4.448731e+000 4.073821e+000 2.926076e+000 5.786333e+000 5.218298e+000 8.048886e+000 7.083234e+000 4.487961e+000 2.736691e+000 5.562584e+000 1.368569e+000 9.431860e-001 9.221900e-001 7.653001e-001 9.080801e-001 4.575773e-001 6.467545e-001 1.016289e+000 1.184590e+000 1.405010e+000 8.577797e-001 5.425147e-001 5.566880e-001
<GCONST> 1.460419e+002
<STATE> 8
<MEAN> 39
 -3.727033e+000 -1.993276e+001 4.350757e+000 -2.021119e+001 -6.319073e+000 -8.340280e+000 3.005808e+000 -7.392020e+000 -1.153170e+001 -6.298320e+000 -9.315451e+000 -5.162790e+000 7.314379e+001 -1.126975e-001 -5.143425e-001 5.507128e-001 -1.631838e-001 -1.628893e-001 -1.245767e-001 4.233665e-001 3.817114e-003 1.167403e-001 1.480958e-001 -1.795320e-001 5.655306e-002 4.186496e-001 -8.172990e-003 1.032826e-001 -2.180539e-002 1.457492e-001 -9.876724e-002 -1.254887e-002 -4.760058e-002 8.976731e-004 4.338922e-002 -1.765572e-002 3.011399e-002 3.900186e-002 -1.351722e-001
<VARIANCE> 39
 8.998001e+001 1.076547e+002 5.018697e+001 3.828888e+001 3.680772e+001 8.283586e+001 1.533161e+002 5.972718e+001 5.351555e+001 6.711864e+001 5.789556e+001 4.033649e+001 5.770995e+001 4.900140e+000 4.874241e+000 2.362168e+000 3.420712e+000 4.574347e+000 4.665373e+000 6.984767e+000 4.986182e+000 4.091275e+000 5.521308e+000 5.410640e+000 4.217338e+000 3.052555e+000 5.752633e-001 5.373946e-001 4.725543e-001 4.723694e-001 8.078640e-001 6.019469e-001 9.928473e-001 9.505539e-001 7.611135e-001 1.041048e+000 9.901491e-001 7.969966e-001 1.489617e-001
<GCONST> 1.389680e+002
<STATE> 9
<MEAN> 39
 3.894310e+000 -8.357905e+000 1.019260e+001 -6.723392e+000 -2.231969e+001 -8.211744e+000 -4.198469e+000 -9.615894e+000 -7.673255e+000 -8.316330e-001 -5.048490e+000 -1.905769e+000 6.383792e+001 1.411977e+000 3.370865e+000 -1.388728e+000 3.502611e+000 -1.658737e+000 -4.550064e-002 -1.719184e+000 3.231521e-001 -1.609433e-001 -5.949027e-001 1.417721e+000 3.257336e-001 -2.596958e+000 -6.094868e-001 4.063856e-001 -4.416798e-001 -1.465028e-001 9.193761e-001 2.736847e-001 5.154380e-001 4.777240e-001 -2.627389e-001 -3.822374e-001 -1.625438e-001 -3.776338e-001 -5.493829e-001
<VARIANCE> 39
 3.459402e+001 6.366782e+001 2.903724e+001 9.872500e+001 7.985761e+001 4.720317e+001 5.735835e+001 4.911264e+001 4.138636e+001 2.917775e+001 4.089525e+001 2.805876e+001 3.728448e+001 2.949822e+000 3.814362e+000 3.264099e+000 5.823238e+000 1.119795e+001 5.944381e+000 5.883512e+000 5.470983e+000 6.093710e+000 4.586867e+000 4.137640e+000 4.789071e+000 2.749985e+000 2.784526e-001 7.403854e-001 4.475481e-001 1.488009e+000 1.482810e+000 1.052925e+000 9.918258e-001 9.546235e-001 1.102182e+000 6.752841e-001 1.124652e+000 1.104207e+000 2.625858e-001
<GCONST> 1.386269e+002
<STATE> 10
<MEAN> 39
 -5.877454e+000 3.941456e+000 -6.643921e+000 4.075427e-001 -1.603547e+001 -1.095401e+001 -4.691697e+000 -4.731234e+000 -8.518457e+000 -7.542590e+000 -1.018386e+000 -3.934216e+000 4.680647e+001 -5.023678e-001 4.349545e-001 -9.427961e-001 5.427198e-002 5.631781e-001 -2.122311e-001 2.156025e-001 5.893226e-001 -1.445096e-001 -3.767326e-001 5.408616e-002 -2.402038e-001 -7.987058e-001 -7.024332e-002 -2.647175e-001 1.125396e-001 -1.484106e-001 -3.124820e-002 3.019170e-002 -9.117443e-002 -1.133207e-001 6.651081e-002 5.579188e-002 -7.643542e-002 2.080837e-002 1.227854e-001
<VARIANCE> 39
 1.131762e+002 1.129929e+002 6.093527e+001 4.167065e+001 4.503096e+001 9.213660e+001 1.218523e+002 5.426852e+001 3.476059e+001 2.693435e+001 3.938176e+001 3.034356e+001 1.043668e+002 6.239569e+000 1.194478e+001 3.675153e+000 4.437576e+000 5.346305e+000 6.424881e+000 1.030604e+001 6.264665e+000 4.191489e+000 4.068515e+000 3.550415e+000 3.667894e+000 1.251377e+001 9.683804e-001 1.628973e+000 6.492779e-001 9.563055e-001 1.139041e+000 1.087322e+000 1.618900e+000 1.194192e+000 8.477100e-001 8.023208e-001 6.499082e-001 6.223273e-001 1.657843e+000
<GCONST> 1.474804e+002
<STATE> 11
<MEAN> 39
 -9.598636e+000 4.186732e+000 -8.622678e+000 3.760197e+000 -1.160850e+001 -7.894670e+000 -8.365926e+000 -1.043379e+000 -8.070525e+000 -8.583125e+000 -1.321369e+000 -4.023797e+000 4.020839e+001 -2.634566e-001 -5.775569e-004 -7.479981e-002 1.172712e-001 2.078973e-001 1.634280e-001 -1.642794e-001 -3.296417e-002 9.446077e-002 -5.233083e-002 -2.731842e-002 2.952352e-002 -2.635121e-001 1.702311e-002 -3.704707e-002 2.578842e-002 -1.435553e-002 -1.786717e-002 -1.695089e-002 2.061999e-002 -2.362765e-002 4.969604e-003 3.076576e-002 5.266182e-003 2.127354e-002 5.198428e-002
<VARIANCE> 39
 5.106680e+001 1.109608e+002 4.205052e+001 4.880550e+001 3.687899e+001 7.529482e+001 5.843900e+001 4.499572e+001 3.333126e+001 2.188241e+001 3.286153e+001 2.399674e+001 6.636926e+001 3.324234e+000 5.029005e+000 2.996572e+000 3.919700e+000 2.396214e+000 4.320166e+000 4.312265e+000 3.613102e+000 3.026134e+000 2.133897e+000 2.252580e+000 1.953865e+000 4.968678e+000 5.807433e-001 8.781998e-001 5.594519e-001 6.709912e-001 4.713853e-001 6.726217e-001 6.352112e-001 6.736473e-001 5.966802e-001 4.219843e-001 4.107926e-001 4.111384e-001 7.961327e-001
<GCONST> 1.294846e+002
<TRANSP> 12
 0.000000e+000 1.000000e+000 0.000000e+000 0.000000e+000 0.000000e+000 0.000000e+000 0.000000e+000 0.000000e+000 0.000000e+000 0.000000e+000 0.000000e+000 0.000000e+000
 0.000000e+000 9.865806e-001 1.341938e-002 0.000000e+000 0.000000e+000 0.000000e+000 0.000000e+000 0.000000e+000 0.000000e+000 0.000000e+000 0.000000e+000 0.000000e+000
 0.000000e+000 0.000000e+000 9.278018e-001 7.219816e-002 0.000000e+000 0.000000e+000 0.000000e+000 0.000000e+000 0.000000e+000 0.000000e+000 0.000000e+000 0.000000e+000
 0.000000e+000 0.000000e+000 0.000000e+000 8.888464e-001 1.111536e-001 0.000000e+000 0.000000e+000 0.000000e+000 0.000000e+000 0.000000e+000 0.000000e+000 0.000000e+000
 0.000000e+000 0.000000e+000 0.000000e+000 0.000000e+000 5.607601e-001 4.392399e-001 0.000000e+000 0.000000e+000 0.000000e+000 0.000000e+000 0.000000e+000 0.000000e+000
 0.000000e+000 0.000000e+000 0.000000e+000 0.000000e+000 0.000000e+000 3.560903e-001 6.439097e-001 0.000000e+000 0.000000e+000 0.000000e+000 0.000000e+000 0.000000e+000
 0.000000e+000 0.000000e+000 0.000000e+000 0.000000e+000 0.000000e+000 0.000000e+000 8.279878e-001 1.720122e-001 0.000000e+000 0.000000e+000 0.000000e+000 0.000000e+000
 0.000000e+000 0.000000e+000 0.000000e+000 0.000000e+000 0.000000e+000 0.000000e+000 0.000000e+000 9.717606e-001 2.823938e-002 0.000000e+000 0.000000e+000 0.000000e+000
 0.000000e+000 0.000000e+000 0.000000e+000 0.000000e+000 0.000000e+000 0.000000e+000 0.000000e+000 0.000000e+000 7.955898e-001 2.044101e-001 0.000000e+000 0.000000e+000
 0.000000e+000 0.000000e+000 0.000000e+000 0.000000e+000 0.000000e+000 0.000000e+000 0.000000e+000 0.000000e+000 0.000000e+000 9.093536e-001 9.064638e-002 0.000000e+000
 0.000000e+000 0.000000e+000 0.000000e+000 0.000000e+000 0.000000e+000 0.000000e+000 0.000000e+000 0.000000e+000 0.000000e+000 0.000000e+000 9.752043e-001 2.479569e-002
 0.000000e+000 0.000000e+000 0.000000e+000 0.000000e+000 0.000000e+000 0.000000e+000 0.000000e+000 0.000000e+000 0.000000e+000 0.000000e+000 0.000000e+000 0.000000e+000
<ENDHMM>
~h "TALAATA"
<BEGINHMM>
<NUMSTATES> 12
<STATE> 2
<MEAN> 39
 -1.616528e+001 -4.265974e+000 -9.152365e+000 4.333420e+000 1.725181e-001 8.030864e+000 -4.521981e+000 1.560085e+000 7.538841e-001 1.047844e+000 3.929537e+000 3.293296e+000 3.793023e+001 2.356727e-003 -7.011269e-004 2.931359e-004 -8.541103e-004 -3.558445e-003 2.988426e-003 5.071301e-003 -2.428890e-003 2.239333e-003 -9.116762e-003 -3.102688e-003 -1.747224e-003 1.254452e-003 -1.145571e-002 1.153185e-002 -6.631089e-003 -4.726161e-003 -8.438837e-003 -9.020284e-004 -1.225086e-003 -3.996054e-003 -2.998079e-003 -5.979029e-003 -7.141755e-003 -4.607610e-003 -1.690264e-002
<VARIANCE> 39
 7.914982e-001 5.629525e-001 6.504016e-001 6.690341e-001 8.247311e-001 9.380443e-001 9.679768e-001 1.063215e+000 1.022862e+000 9.843100e-001 1.092252e+000 1.059759e+000 1.836966e+000 1.616252e-002 1.680612e-002 2.813275e-002 4.119437e-002 4.085843e-002 6.537534e-002 8.739442e-002 9.791266e-002 9.401029e-002 9.455084e-002 1.072501e-001 8.631915e-002 2.115463e-002 7.338926e-003 8.615197e-003 6.950697e-003 8.905099e-003 1.510845e-002 1.326170e-002 1.805433e-002 2.169759e-002 1.939179e-002 1.992473e-002 2.236333e-002 1.830350e-002 1.296201e-002
<GCONST> -2.407330e+001
<STATE> 3
<MEAN> 39
 -2.461554e+001 1.572802e+000 -1.138891e+001 3.203380e+000 -7.963923e+000 4.938375e+000 -4.249671e+000 1.125467e+000 1.039198e+000 -1.956709e+000 8.300149e-001 2.066817e-001 2.705610e+001 -6.943350e-001 3.792353e-001 -1.565823e-001 -1.087358e-002 -5.894107e-001 -2.977982e-001 -1.139428e-001 -1.052964e-001 1.954277e-002 -8.750769e-002 -9.004510e-002 -2.554793e-001 -8.404765e-001 1.116184e-001 -5.240548e-002 3.973577e-002 2.065233e-002 5.087147e-002 -2.599778e-002 -5.956702e-002 -9.908366e-003 -1.150126e-002 3.221984e-002 1.144081e-002 -5.209208e-002 1.274721e-001
<VARIANCE> 39
 1.902195e+001 6.079918e+000 3.919487e+000 3.098043e+000 1.251839e+001 9.548444e+000 7.484636e+000 1.078656e+001 7.855186e+000 5.425254e+000 7.409980e+000 9.899196e+000 2.170281e+001 1.608475e+000 9.200186e-001 3.917495e-001 3.308359e-001 1.198987e+000 5.245937e-001 5.723533e-001 1.095610e+000 9.723592e-001 8.140905e-001 9.871956e-001 9.900839e-001 2.298019e+000 2.940199e-001 1.513856e-001 6.023692e-002 5.793867e-002 2.134642e-001 1.368545e-001 8.979418e-002 2.078424e-001 2.536811e-001 1.296962e-001 1.712038e-001 2.065535e-001 3.744176e-001
<GCONST> 7.319510e+001
<STATE> 4
<MEAN> 39
 -1.883788e+001 2.509585e+000 -1.319528e+001 1.875767e+000 -1.276898e+001 -2.565662e+000 -1.097598e+001 -3.694962e+000 -3.930153e+000 -5.689113e+000 -2.207848e+000 -4.928966e+000 3.048178e+001 5.026459e-001 5.228899e-002 -1.337894e-001 -2.028423e-001 -2.328794e-001 -4.019853e-001 -3.239893e-001 -1.969496e-001 -2.802501e-001 -2.896301e-001 -2.400970e-001 -2.593533e-001 3.407615e-001 -1.632730e-002 -2.352794e-002 7.265731e-003 -3.831591e-002 -4.482975e-003 -2.028639e-002 5.520209e-002 1.993059e-002 -2.520917e-005 -7.062180e-003 -2.476391e-003 5.768108e-002 3.661823e-002
<VARIANCE> 39
 1.119342e+001 2.500206e+000 4.237703e+000 6.517726e+000 9.626965e+000 1.681083e+001 1.249168e+001 1.148030e+001 1.451350e+001 1.749684e+001 1.425628e+001 1.130859e+001 5.138482e+000 1.094326e+000 2.530491e-001 4.853700e-001 7.284495e-001 9.442635e-001 1.564019e+000 1.294369e+000 1.208296e+000 1.624140e+000 1.836985e+000 1.471758e+000 1.361887e+000 5.028561e-001 1.694177e-001 6.223599e-002 1.121340e-001 1.753352e-001 1.917018e-001 3.110809e-001 2.355950e-001 2.136919e-001 3.220294e-001 3.698042e-001 3.071396e-001 2.563293e-001 1.538468e-001
<GCONST> 7.941963e+001
<STATE> 5
<MEAN> 39
 -1.830855e+001 1.392336e+000 -1.301207e+001 6.951191e-001 -1.253459e+001 -3.797085e+000 -1.236910e+001 -3.759913e+000 -3.554534e+000 -6.286985e+000 -3.308589e+000 -4.704250e+000 3.181940e+001 2.565430e-001 -3.742358e-003 -4.456848e-003 -1.766527e-001 -1.897751e-001 -2.017154e-001 -1.057852e-001 -2.227791e-001 -2.364620e-001 -2.493303e-001 -1.991135e-001 -1.172903e-001 3.607106e-001 5.521923e-002 -2.199570e-001 1.725376e-001 -1.866066e-001 1.114840e-001 -1.221366e-001 2.037354e-001 1.823422e-002 1.896563e-002 1.455208e-001 1.033926e-001 1.149081e-002 5.260208e-001
<VARIANCE> 39
 4.674611e+000 1.106765e+001 8.681520e+000 1.690074e+001 1.350278e+001 1.943058e+001 1.931309e+001 1.646625e+001 1.698825e+001 1.441085e+001 1.372527e+001 1.101685e+001 4.680421e+000 7.826802e-001 1.805688e+000 7.943322e-001 1.862157e+000 1.900615e+000 3.073578e+000 2.583730e+000 2.307845e+000 2.585983e+000 1.497334e+000 1.367447e+000 1.524066e+000 1.981189e+000 1.957816e-001 5.043468e-001 2.635329e-001 4.887942e-001 3.847292e-001 7.819588e-001 5.805675e-001 5.330739e-001 6.711261e-001 2.371096e-001 2.966115e-001 3.919331e-001 1.208063e+000
<GCONST> 1.005265e+002
<STATE> 6
<MEAN> 39
 -1.713114e+001 2.118888e+000 -1.302820e+001 6.138600e-001 -1.278330e+001 -3.117387e+000 -1.091725e+001 -4.140043e+000 -4.221247e+000 -6.462008e+000 -2.622097e+000 -4.955338e+000 3.312957e+001 1.218860e+000 -1.798450e+000 1.203161e+000 -1.802391e+000 5.070334e-001 -1.612071e+000 9.428214e-001 2.936857e-002 -2.274708e-001 8.970631e-001 4.518963e-001 -1.815182e-001 4.783028e+000 4.837299e-001 -8.958626e-001 9.153947e-001 -8.851733e-001 3.654627e-001 -1.069321e+000 7.602615e-001 1.904116e-002 -2.872358e-002 5.131121e-001 2.006259e-001 -7.456511e-002 2.226519e+000
<VARIANCE> 39
 4.405705e+000 1.397473e+001 7.471635e+000 1.546066e+001 9.130869e+000 1.558564e+001 1.126653e+001 1.301312e+001 1.377207e+001 1.757808e+001 1.118357e+001 1.122525e+001 5.034122e+001 1.724370e+000 2.630157e+000 1.983273e+000 3.160649e+000 1.039629e+000 4.511577e+000 3.040946e+000 2.917338e+000 3.256539e+000 2.338506e+000 2.232663e+000 2.569058e+000 1.478437e+001 1.505591e-001 2.885388e-001 2.486606e-001 4.031795e-001 2.933048e-001 7.608715e-001 2.425776e-001 6.623747e-001 7.160481e-001 4.847839e-001 6.824423e-001 4.504584e-001 1.342380e+000
<GCONST> 1.075718e+002
<STATE> 7
<MEAN> 39
 -5.277747e+000 -1.340717e+001 8.943376e+000 -2.010841e+001 -9.421497e+000 -2.260141e+001 -1.316303e+000 -5.683282e+000 -1.360851e+001 1.221386e+000 -1.382386e+001 -3.467329e+000 6.967521e+001 8.091912e-001 -8.965991e-001 1.410452e+000 -1.237260e+000 9.162842e-002 -1.255903e+000 7.967582e-001 -9.408375e-002 -6.048504e-001 2.860398e-001 -7.799522e-001 3.349823e-002 2.158896e+000 -2.252654e-002 1.475696e-001 -5.941679e-002 1.746422e-001 -8.835175e-002 1.291318e-001 -1.228309e-001 1.080987e-003 -7.927120e-003 -6.045818e-002 -8.637476e-002 2.435490e-002 -3.614394e-001
<VARIANCE> 39
 3.026433e+001 3.583975e+001 9.529269e+001 8.675936e+001 1.968501e+001 6.502396e+001 9.304926e+001 2.803925e+001 5.165721e+001 2.670507e+001 8.852106e+001 2.150624e+001 1.465742e+002 2.749650e+000 2.910461e+000 5.216646e+000 5.403584e+000 2.193344e+000 6.811523e+000 1.108659e+001 2.821308e+000 3.942180e+000 3.052793e+000 7.930852e+000 2.034619e+000 1.348831e+001 3.738071e-001 3.478777e-001 6.957458e-001 8.079324e-001 3.805593e-001 1.073119e+000 2.050894e+000 6.092892e-001 7.823853e-001 5.918272e-001 1.623281e+000 3.793938e-001 1.387290e+000
<GCONST> 1.376966e+002
<STATE> 8
<MEAN> 39
 -1.111112e+000 -1.114289e+001 6.462207e+000 -1.538689e+001 -1.514064e+001 -1.928734e+001 1.505028e-001 -3.770433e+000 -1.422754e+001 -1.075073e+000 -1.206537e+001 -4.494626e+000 6.634204e+001 2.937157e-001 1.481978e-001 -3.399789e-001 6.158564e-001 1.190665e-001 5.082802e-001 -3.960494e-001 3.479638e-001 3.583322e-002 -1.666975e-001 1.387176e-001 -1.768376e-002 -3.544604e-001 -2.259906e-003 2.908643e-003 -5.283218e-002 7.564846e-002 6.681706e-002 1.066227e-001 -4.181022e-002 1.009968e-001 -2.985913e-002 -5.930763e-002 7.366026e-002 -1.763886e-002 -5.844195e-002
<VARIANCE> 39
 2.496655e+001 5.307594e+001 1.034487e+002 1.112014e+002 7.747472e+001 9.678127e+001 8.693387e+001 3.469078e+001 4.156200e+001 4.263555e+001 5.574743e+001 2.332208e+001 1.086813e+002 4.387999e+000 4.259672e+000 7.378089e+000 9.291320e+000 9.384692e+000 1.068574e+001 7.701343e+000 4.582484e+000 3.251354e+000 4.907492e+000 5.766288e+000 2.110902e+000 8.850864e+000 8.936150e-001 6.705142e-001 1.113264e+000 1.567991e+000 1.741084e+000 2.035753e+000 1.337014e+000 9.546362e-001 6.125479e-001 1.023257e+000 1.143875e+000 4.119940e-001 1.295170e+000
<GCONST> 1.478597e+002
<STATE> 9
<MEAN> 39
 2.948992e+000 -8.777972e+000 -2.810202e+000 1.373279e+000 -3.576860e+000 -8.314170e+000 -1.172149e+001 9.267662e+000 -1.633576e+001 -1.011158e+001 -3.291677e+000 -6.682708e+000 5.731852e+001 -1.670076e-001 4.461415e-001 -1.331539e+000 1.693312e+000 7.856136e-001 5.933871e-001 -7.797763e-001 9.079479e-001 -5.995712e-001 -1.339353e+000 1.265005e+000 -1.773167e-001 -1.371675e+000 -3.272310e-001 1.797294e-001 -1.670870e-001 -1.907385e-001 -1.539799e-001 -2.334184e-001 9.625891e-002 -4.196568e-001 1.597361e-001 1.081597e-001 -2.201227e-003 7.111753e-002 -1.969628e-001
<VARIANCE> 39
 1.936826e+001 1.447607e+001 5.590061e+001 6.074811e+001 6.101075e+001 5.320144e+001 4.802707e+001 6.611452e+001 5.651887e+001 4.483807e+001 5.652973e+001 3.218197e+001 4.433392e+001 2.603245e+000 1.584698e+000 3.937684e+000 4.210153e+000 4.597528e+000 5.347191e+000 2.609735e+000 8.368690e+000 3.610023e+000 2.326862e+000 4.803955e+000 2.278213e+000 2.451723e+000 4.188002e-001 3.474914e-001 5.910472e-001 6.531085e-001 7.554286e-001 9.087253e-001 5.244097e-001 1.172920e+000 6.111336e-001 4.821547e-001 8.303090e-001 4.543984e-001 2.889533e-001
<GCONST> 1.294768e+002
<STATE> 10
<MEAN> 39
 -2.477434e-001 -5.063452e+000 -1.033160e+001 7.718681e+000 -3.327592e+000 -7.464227e+000 -1.452660e+001 7.588592e+000 -1.658941e+001 -1.524773e+001 1.585641e+000 -5.323898e+000 4.892103e+001 -1.548748e+000 1.098057e+000 -1.064589e+000 -3.030567e-001 -8.827077e-001 2.246711e-002 -6.175538e-001 -1.482080e+000 3.704686e-001 -2.750949e-001 3.013581e-001 2.252211e-001 -2.093161e+000 -1.521462e-001 4.882476e-002 2.089971e-001 -2.919400e-001 -2.523269e-001 3.556510e-003 1.188229e-001 -3.128692e-001 2.595695e-001 3.052018e-001 -2.805862e-001 4.101827e-002 -8.607197e-003
<VARIANCE> 39
 2.926164e+001 2.170124e+001 5.094158e+001 2.878367e+001 3.222279e+001 2.331655e+001 2.455457e+001 5.889486e+001 3.086983e+001 2.574758e+001 2.747845e+001 2.525259e+001 4.353860e+001 9.725394e-001 2.444135e+000 3.916752e+000 3.543385e+000 3.549999e+000 2.818946e+000 1.906918e+000 5.759413e+000 3.278359e+000 2.615482e+000 3.867063e+000 2.065750e+000 3.389314e-001 1.340442e-001 4.918051e-001 6.551671e-001 4.504795e-001 4.918519e-001 5.094928e-001 3.262509e-001 8.742375e-001 4.515494e-001 3.695808e-001 4.332630e-001 4.032321e-001 6.448308e-002
<GCONST> 1.148001e+002
<STATE> 11
<MEAN> 39
 -1.291468e+001 1.680002e+000 -1.397668e+001 2.374200e+000 -1.134225e+001 -5.437005e+000 -1.499670e+001 -4.397805e+000 -8.778911e+000 -1.046048e+001 -1.649959e+000 -4.463526e+000 3.523579e+001 -1.138011e+000 4.276178e-001 8.042269e-002 -2.719602e-001 -6.040804e-001 4.435131e-001 5.198557e-001 -6.150562e-001 1.026399e+000 8.886690e-001 -4.259428e-001 2.608135e-002 -1.043130e+000 1.776863e-001 -1.827007e-001 -5.371673e-003 1.447331e-001 2.178559e-001 2.277345e-002 1.182598e-001 4.076129e-001 -7.786192e-002 -8.617228e-002 7.150153e-002 -3.503927e-002 2.078819e-001
<VARIANCE> 39
 1.786436e+001 1.216549e+001 8.505298e+000 8.540807e+000 1.704037e+001 1.387899e+001 1.708755e+001 2.371193e+001 3.396286e+001 2.113610e+001 1.908448e+001 1.081876e+001 1.279656e+001 9.537730e-001 1.280177e+000 1.072477e+000 1.153712e+000 1.419230e+000 1.623056e+000 2.170624e+000 3.568887e+000 2.272240e+000 2.183058e+000 2.184905e+000 1.468667e+000 6.324547e-001 9.767643e-002 2.604688e-001 2.419345e-001 2.172351e-001 2.171259e-001 2.692307e-001 4.281175e-001 5.707764e-001 3.823528e-001 4.296261e-001 4.692074e-001 3.019109e-001 4.462798e-002
<GCONST> 9.513782e+001
<TRANSP> 12
 0.000000e+000 1.000000e+000 0.000000e+000 0.000000e+000 0.000000e+000 0.000000e+000 0.000000e+000 0.000000e+000 0.000000e+000 0.000000e+000 0.000000e+000 0.000000e+000
 0.000000e+000 9.850735e-001 1.492649e-002 0.000000e+000 0.000000e+000 0.000000e+000 0.000000e+000 0.000000e+000 0.000000e+000 0.000000e+000 0.000000e+000 0.000000e+000
 0.000000e+000 0.000000e+000 9.270199e-001 7.298012e-002 0.000000e+000 0.000000e+000 0.000000e+000 0.000000e+000 0.000000e+000 0.000000e+000 0.000000e+000 0.000000e+000
