~o
<STREAMINFO> 1 39
<VECSIZE> 39<NULLD><MFCC_D_A_0><DIAGC>
~v varFloor1
<Variance> 39
 7.914982e-001 5.629525e-001 6.504016e-001 6.690341e-001 6.673487e-001 8.030654e-001 4.972198e-001 4.154061e-001 4.091316e-001 4.123420e-001 4.358953e-001 3.052994e-001 1.836966e+000 1.616252e-002 1.680612e-002 1.592145e-002 2.221946e-002 1.945003e-002 1.951501e-002 2.082671e-002 1.891161e-002 1.704559e-002 1.847978e-002 1.737418e-002 1.253533e-002 2.115463e-002 2.147347e-003 2.380595e-003 2.371068e-003 3.417991e-003 3.368902e-003 3.400898e-003 3.500464e-003 3.550174e-003 3.242797e-003 3.389731e-003 3.182189e-003 2.439308e-003 2.344984e-003
~h "ZERO"
<BEGINHMM>
<NUMSTATES> 12
<STATE> 2
<MEAN> 39
 -1.320366e+001 -1.876988e+000 -8.912127e+000 4.821533e-001 -7.331118e+000 -4.806912e-001 -8.685589e+000 -2.881468e+000 -4.184924e+000 -4.051162e+000 -1.413965e+000 -2.233202e+000 4.072678e+001 -3.590016e-004 3.186409e-002 -1.519628e-002 -9.863323e-003 -5.871981e-002 -4.477600e-002 -3.215173e-002 -2.671507e-002 -2.478387e-002 -3.573222e-002 -2.899026e-002 -3.863795e-002 -2.494030e-002 -2.185254e-004 -1.622500e-004 3.425443e-005 -7.503422e-004 1.357508e-003 -9.585583e-004 -4.180817e-004 7.011475e-004 -1.191675e-003 9.774680e-004 9.959090e-004 -3.021735e-004 2.498777e-004
<VARIANCE> 39
 7.914983e+001 5.629525e+001 6.504016e+001 6.690341e+001 6.673487e+001 8.030654e+001 4.972198e+001 4.154061e+001 4.091316e+001 4.123420e+001 4.358953e+001 3.052994e+001 1.836966e+002 1.616252e+000 1.680612e+000 1.592145e+000 2.221946e+000 1.945003e+000 1.951501e+000 2.082671e+000 1.891161e+000 1.704558e+000 1.847978e+000 1.737418e+000 1.253533e+000 2.115463e+000 2.147346e-001 2.380595e-001 2.371068e-001 3.417991e-001 3.368902e-001 3.400898e-001 3.500464e-001 3.550174e-001 3.242797e-001 3.389731e-001 3.182189e-001 2.439308e-001 2.344984e-001
<GCONST> 1.162047e+002
<STATE> 3
<MEAN> 39
 -1.320366e+001 -1.876988e+000 -8.912127e+000 4.821533e-001 -7.331118e+000 -4.806912e-001 -8.685589e+000 -2.881468e+000 -4.184924e+000 -4.051162e+000 -1.413965e+000 -2.233202e+000 4.072678e+001 -3.590016e-004 3.186409e-002 -1.519628e-002 -9.863323e-003 -5.871981e-002 -4.477600e-002 -3.215173e-002 -2.671507e-002 -2.478387e-002 -3.573222e-002 -2.899026e-002 -3.863795e-002 -2.494030e-002 -2.185254e-004 -1.622500e-004 3.425443e-005 -7.503422e-004 1.357508e-003 -9.585583e-004 -4.180817e-004 7.011475e-004 -1.191675e-003 9.774680e-004 9.959090e-004 -3.021735e-004 2.498777e-004
<VARIANCE> 39
 7.914983e+001 5.629525e+001 6.504016e+001 6.690341e+001 6.673487e+001 8.030654e+001 4.972198e+001 4.154061e+001 4.091316e+001 4.123420e+001 4.358953e+001 3.052994e+001 1.836966e+002 1.616252e+000 1.680612e+000 1.592145e+000 2.221946e+000 1.945003e+000 1.951501e+000 2.082671e+000 1.891161e+000 1.704558e+000 1.847978e+000 1.737418e+000 1.253533e+000 2.115463e+000 2.147346e-001 2.380595e-001 2.371068e-001 3.417991e-001 3.368902e-001 3.400898e-001 3.500464e-001 3.550174e-001 3.242797e-001 3.389731e-001 3.182189e-001 2.439308e-001 2.344984e-001
<GCONST> 1.162047e+002
<STATE> 4
<MEAN> 39
 -1.320366e+001 -1.876988e+000 -8.912127e+000 4.821533e-001 -7.331118e+000 -4.806912e-001 -8.685589e+000 -2.881468e+000 -4.184924e+000 -4.051162e+000 -1.413965e+000 -2.233202e+000 4.072678e+001 -3.590016e-004 3.186409e-002 -1.519628e-002 -9.863323e-003 -5.871981e-002 -4.477600e-002 -3.215173e-002 -2.671507e-002 -2.478387e-002 -3.573222e-002 -2.899026e-002 -3.863795e-002 -2.494030e-002 -2.185254e-004 -1.622500e-004 3.425443e-005 -7.503422e-004 1.357508e-003 -9.585583e-004 -4.180817e-004 7.011475e-004 -1.191675e-003 9.774680e-004 9.959090e-004 -3.021735e-004 2.498777e-004
<VARIANCE> 39
 7.914983e+001 5.629525e+001 6.504016e+001 6.690341e+001 6.673487e+001 8.030654e+001 4.972198e+001 4.154061e+001 4.091316e+001 4.123420e+001 4.358953e+001 3.052994e+001 1.836966e+002 1.616252e+000 1.680612e+000 1.592145e+000 2.221946e+000 1.945003e+000 1.951501e+000 2.082671e+000 1.891161e+000 1.704558e+000 1.847978e+000 1.737418e+000 1.253533e+000 2.115463e+000 2.147346e-001 2.380595e-001 2.371068e-001 3.417991e-001 3.368902e-001 3.400898e-001 3.500464e-001 3.550174e-001 3.242797e-001 3.389731e-001 3.182189e-001 2.439308e-001 2.344984e-001
<GCONST> 1.162047e+002
<STATE> 5
<MEAN> 39
 -1.320366e+001 -1.876988e+000 -8.912127e+000 4.821533e-001 -7.331118e+000 -4.806912e-001 -8.685589e+000 -2.881468e+000 -4.184924e+000 -4.051162e+000 -1.413965e+000 -2.233202e+000 4.072678e+001 -3.590016e-004 3.186409e-002 -1.519628e-002 -9.863323e-003 -5.871981e-002 -4.477600e-002 -3.215173e-002 -2.671507e-002 -2.478387e-002 -3.573222e-002 -2.899026e-002 -3.863795e-002 -2.494030e-002 -2.185254e-004 -1.622500e-004 3.425443e-005 -7.503422e-004 1.357508e-003 -9.585583e-004 -4.180817e-004 7.011475e-004 -1.191675e-003 9.774680e-004 9.959090e-004 -3.021735e-004 2.498777e-004
<VARIANCE> 39
 7.914983e+001 5.629525e+001 6.504016e+001 6.690341e+001 6.673487e+001 8.030654e+001 4.972198e+001 4.154061e+001 4.091316e+001 4.123420e+001 4.358953e+001 3.052994e+001 1.836966e+002 1.616252e+000 1.680612e+000 1.592145e+000 2.221946e+000 1.945003e+000 1.951501e+000 2.082671e+000 1.891161e+000 1.704558e+000 1.847978e+000 1.737418e+000 1.253533e+000 2.115463e+000 2.147346e-001 2.380595e-001 2.371068e-001 3.417991e-001 3.368902e-001 3.400898e-001 3.500464e-001 3.550174e-001 3.242797e-001 3.389731e-001 3.182189e-001 2.439308e-001 2.344984e-001
<GCONST> 1.162047e+002
<STATE> 6
<MEAN> 39
 -1.320366e+001 -1.876988e+000 -8.912127e+000 4.821533e-001 -7.331118e+000 -4.806912e-001 -8.685589e+000 -2.881468e+000 -4.184924e+000 -4.051162e+000 -1.413965e+000 -2.233202e+000 4.072678e+001 -3.590016e-004 3.186409e-002 -1.519628e-002 -9.863323e-003 -5.871981e-002 -4.477600e-002 -3.215173e-002 -2.671507e-002 -2.478387e-002 -3.573222e-002 -2.899026e-002 -3.863795e-002 -2.494030e-002 -2.185254e-004 -1.622500e-004 3.425443e-005 -7.503422e-004 1.357508e-003 -9.585583e-004 -4.180817e-004 7.011475e-004 -1.191675e-003 9.774680e-004 9.959090e-004 -3.021735e-004 2.498777e-004
<VARIANCE> 39
 7.914983e+001 5.629525e+001 6.504016e+001 6.690341e+001 6.673487e+001 8.030654e+001 4.972198e+001 4.154061e+001 4.091316e+001 4.123420e+001 4.358953e+001 3.052994e+001 1.836966e+002 1.616252e+000 1.680612e+000 1.592145e+000 2.221946e+000 1.945003e+000 1.951501e+000 2.082671e+000 1.891161e+000 1.704558e+000 1.847978e+000 1.737418e+000 1.253533e+000 2.115463e+000 2.147346e-001 2.380595e-001 2.371068e-001 3.417991e-001 3.368902e-001 3.400898e-001 3.500464e-001 3.550174e-001 3.242797e-001 3.389731e-001 3.182189e-001 2.439308e-001 2.344984e-001
<GCONST> 1.162047e+002
<STATE> 7
<MEAN> 39
 -1.320366e+001 -1.876988e+000 -8.912127e+000 4.821533e-001 -7.331118e+000 -4.806912e-001 -8.685589e+000 -2.881468e+000 -4.184924e+000 -4.051162e+000 -1.413965e+000 -2.233202e+000 4.072678e+001 -3.590016e-004 3.186409e-002 -1.519628e-002 -9.863323e-003 -5.871981e-002 -4.477600e-002 -3.215173e-002 -2.671507e-002 -2.478387e-002 -3.573222e-002 -2.899026e-002 -3.863795e-002 -2.494030e-002 -2.185254e-004 -1.622500e-004 3.425443e-005 -7.503422e-004 1.357508e-003 -9.585583e-004 -4.180817e-004 7.011475e-004 -1.191675e-003 9.774680e-004 9.959090e-004 -3.021735e-004 2.498777e-004
<VARIANCE> 39
 7.914983e+001 5.629525e+001 6.504016e+001 6.690341e+001 6.673487e+001 8.030654e+001 4.972198e+001 4.154061e+001 4.091316e+001 4.123420e+001 4.358953e+001 3.052994e+001 1.836966e+002 1.616252e+000 1.680612e+000 1.592145e+000 2.221946e+000 1.945003e+000 1.951501e+000 2.082671e+000 1.891161e+000 1.704558e+000 1.847978e+000 1.737418e+000 1.253533e+000 2.115463e+000 2.147346e-001 2.380595e-001 2.371068e-001 3.417991e-001 3.368902e-001 3.400898e-001 3.500464e-001 3.550174e-001 3.242797e-001 3.389731e-001 3.182189e-001 2.439308e-001 2.344984e-001
<GCONST> 1.162047e+002
<STATE> 8
<MEAN> 39
 -1.320366e+001 -1.876988e+000 -8.912127e+000 4.821533e-001 -7.331118e+000 -4.806912e-001 -8.685589e+000 -2.881468e+000 -4.184924e+000 -4.051162e+000 -1.413965e+000 -2.233202e+000 4.072678e+001 -3.590016e-004 3.186409e-002 -1.519628e-002 -9.863323e-003 -5.871981e-002 -4.477600e-002 -3.215173e-002 -2.671507e-002 -2.478387e-002 -3.573222e-002 -2.899026e-002 -3.863795e-002 -2.494030e-002 -2.185254e-004 -1.622500e-004 3.425443e-005 -7.503422e-004 1.357508e-003 -9.585583e-004 -4.180817e-004 7.011475e-004 -1.191675e-003 9.774680e-004 9.959090e-004 -3.021735e-004 2.498777e-004
<VARIANCE> 39
 7.914983e+001 5.629525e+001 6.504016e+001 6.690341e+001 6.673487e+001 8.030654e+001 4.972198e+001 4.154061e+001 4.091316e+001 4.123420e+001 4.358953e+001 3.052994e+001 1.836966e+002 1.616252e+000 1.680612e+000 1.592145e+000 2.221946e+000 1.945003e+000 1.951501e+000 2.082671e+000 1.891161e+000 1.704558e+000 1.847978e+000 1.737418e+000 1.253533e+000 2.115463e+000 2.147346e-001 2.380595e-001 2.371068e-001 3.417991e-001 3.368902e-001 3.400898e-001 3.500464e-001 3.550174e-001 3.242797e-001 3.389731e-001 3.182189e-001 2.439308e-001 2.344984e-001
<GCONST> 1.162047e+002
<STATE> 9
<MEAN> 39
 -1.320366e+001 -1.876988e+000 -8.912127e+000 4.821533e-001 -7.331118e+000 -4.806912e-001 -8.685589e+000 -2.881468e+000 -4.184924e+000 -4.051162e+000 -1.413965e+000 -2.233202e+000 4.072678e+001 -3.590016e-004 3.186409e-002 -1.519628e-002 -9.863323e-003 -5.871981e-002 -4.477600e-002 -3.215173e-002 -2.671507e-002 -2.478387e-002 -3.573222e-002 -2.899026e-002 -3.863795e-002 -2.494030e-002 -2.185254e-004 -1.622500e-004 3.425443e-005 -7.503422e-004 1.357508e-003 -9.585583e-004 -4.180817e-004 7.011475e-004 -1.191675e-003 9.774680e-004 9.959090e-004 -3.021735e-004 2.498777e-004
<VARIANCE> 39
 7.914983e+001 5.629525e+001 6.504016e+001 6.690341e+001 6.673487e+001 8.030654e+001 4.972198e+001 4.154061e+001 4.091316e+001 4.123420e+001 4.358953e+001 3.052994e+001 1.836966e+002 1.616252e+000 1.680612e+000 1.592145e+000 2.221946e+000 1.945003e+000 1.951501e+000 2.082671e+000 1.891161e+000 1.704558e+000 1.847978e+000 1.737418e+000 1.253533e+000 2.115463e+000 2.147346e-001 2.380595e-001 2.371068e-001 3.417991e-001 3.368902e-001 3.400898e-001 3.500464e-001 3.550174e-001 3.242797e-001 3.389731e-001 3.182189e-001 2.439308e-001 2.344984e-001
<GCONST> 1.162047e+002
<STATE> 10
<MEAN> 39
 -1.320366e+001 -1.876988e+000 -8.912127e+000 4.821533e-001 -7.331118e+000 -4.806912e-001 -8.685589e+000 -2.881468e+000 -4.184924e+000 -4.051162e+000 -1.413965e+000 -2.233202e+000 4.072678e+001 -3.590016e-004 3.186409e-002 -1.519628e-002 -9.863323e-003 -5.871981e-002 -4.477600e-002 -3.215173e-002 -2.671507e-002 -2.478387e-002 -3.573222e-002 -2.899026e-002 -3.863795e-002 -2.494030e-002 -2.185254e-004 -1.622500e-004 3.425443e-005 -7.503422e-004 1.357508e-003 -9.585583e-004 -4.180817e-004 7.011475e-004 -1.191675e-003 9.774680e-004 9.959090e-004 -3.021735e-004 2.498777e-004
<VARIANCE> 39
 7.914983e+001 5.629525e+001 6.504016e+001 6.690341e+001 6.673487e+001 8.030654e+001 4.972198e+001 4.154061e+001 4.091316e+001 4.123420e+001 4.358953e+001 3.052994e+001 1.836966e+002 1.616252e+000 1.680612e+000 1.592145e+000 2.221946e+000 1.945003e+000 1.951501e+000 2.082671e+000 1.891161e+000 1.704558e+000 1.847978e+000 1.737418e+000 1.253533e+000 2.115463e+000 2.147346e-001 2.380595e-001 2.371068e-001 3.417991e-001 3.368902e-001 3.400898e-001 3.500464e-001 3.550174e-001 3.242797e-001 3.389731e-001 3.182189e-001 2.439308e-001 2.344984e-001
<GCONST> 1.162047e+002
<STATE> 11
<MEAN> 39
 -1.320366e+001 -1.876988e+000 -8.912127e+000 4.821533e-001 -7.331118e+000 -4.806912e-001 -8.685589e+000 -2.881468e+000 -4.184924e+000 -4.051162e+000 -1.413965e+000 -2.233202e+000 4.072678e+001 -3.590016e-004 3.186409e-002 -1.519628e-002 -9.863323e-003 -5.871981e-002 -4.477600e-002 -3.215173e-002 -2.671507e-002 -2.478387e-002 -3.573222e-002 -2.899026e-002 -3.863795e-002 -2.494030e-002 -2.185254e-004 -1.622500e-004 3.425443e-005 -7.503422e-004 1.357508e-003 -9.585583e-004 -4.180817e-004 7.011475e-004 -1.191675e-003 9.774680e-004 9.959090e-004 -3.021735e-004 2.498777e-004
<VARIANCE> 39
 7.914983e+001 5.629525e+001 6.504016e+001 6.690341e+001 6.673487e+001 8.030654e+001 4.972198e+001 4.154061e+001 4.091316e+001 4.123420e+001 4.358953e+001 3.052994e+001 1.836966e+002 1.616252e+000 1.680612e+000 1.592145e+000 2.221946e+000 1.945003e+000 1.951501e+000 2.082671e+000 1.891161e+000 1.704558e+000 1.847978e+000 1.737418e+000 1.253533e+000 2.115463e+000 2.147346e-001 2.380595e-001 2.371068e-001 3.417991e-001 3.368902e-001 3.400898e-001 3.500464e-001 3.550174e-001 3.242797e-001 3.389731e-001 3.182189e-001 2.439308e-001 2.344984e-001
<GCONST> 1.162047e+002
<TRANSP> 12
 0.000000e+000 1.000000e+000 0.000000e+000 0.000000e+000 0.000000e+000 0.000000e+000 0.000000e+000 0.000000e+000 0.000000e+000 0.000000e+000 0.000000e+000 0.000000e+000
 0.000000e+000 6.000000e-001 4.000000e-001 0.000000e+000 0.000000e+000 0.000000e+000 0.000000e+000 0.000000e+000 0.000000e+000 0.000000e+000 0.000000e+000 0.000000e+000
 0.000000e+000 0.000000e+000 6.000000e-001 4.000000e-001 0.000000e+000 0.000000e+000 0.000000e+000 0.000000e+000 0.000000e+000 0.000000e+000 0.000000e+000 0.000000e+000
 0.000000e+000 0.000000e+000 0.000000e+000 6.000000e-001 4.000000e-001 0.000000e+000 0.000000e+000 0.000000e+000 0.000000e+000 0.000000e+000 0.000000e+000 0.000000e+000
 0.000000e+000 0.000000e+000 0.000000e+000 0.000000e+000 6.000000e-001 4.000000e-001 0.000000e+000 0.000000e+000 0.000000e+000 0.000000e+000 0.000000e+000 0.000000e+000
 0.000000e+000 0.000000e+000 0.000000e+000 0.000000e+000 0.000000e+000 6.000000e-001 4.000000e-001 0.000000e+000 0.000000e+000 0.000000e+000 0.000000e+000 0.000000e+000
 0.000000e+000 0.000000e+000 0.000000e+000 0.000000e+000 0.000000e+000 0.000000e+000 6.000000e-001 4.000000e-001 0.000000e+000 0.000000e+000 0.000000e+000 0.000000e+000
 0.000000e+000 0.000000e+000 0.000000e+000 0.000000e+000 0.000000e+000 0.000000e+000 0.000000e+000 6.000000e-001 4.000000e-001 0.000000e+000 0.000000e+000 0.000000e+000
 0.000000e+000 0.000000e+000 0.000000e+000 0.000000e+000 0.000000e+000 0.000000e+000 0.000000e+000 0.000000e+000 6.000000e-001 4.000000e-001 0.000000e+000 0.000000e+000
 0.000000e+000 0.000000e+000 0.000000e+000 0.000000e+000 0.000000e+000 0.000000e+000 0.000000e+000 0.000000e+000 0.000000e+000 6.000000e-001 4.000000e-001 0.000000e+000
 0.000000e+000 0.000000e+000 0.000000e+000 0.000000e+000 0.000000e+000 0.000000e+000 0.000000e+000 0.000000e+000 0.000000e+000 0.000000e+000 6.000000e-001 4.000000e-001
 0.000000e+000 0.000000e+000 0.000000e+000 0.000000e+000 0.000000e+000 0.000000e+000 0.000000e+000 0.000000e+000 0.000000e+000 0.000000e+000 0.000000e+000 0.000000e+000
<ENDHMM>
~h "WAHED"
<BEGINHMM>
<NUMSTATES> 12
<STATE> 2
<MEAN> 39
 -1.320366e+001 -1.876988e+000 -8.912127e+000 4.821533e-001 -7.331118e+000 -4.806912e-001 -8.685589e+000 -2.881468e+000 -4.184924e+000 -4.051162e+000 -1.413965e+000 -2.233202e+000 4.072678e+001 -3.590016e-004 3.186409e-002 -1.519628e-002 -9.863323e-003 -5.871981e-002 -4.477600e-002 -3.215173e-002 -2.671507e-002 -2.478387e-002 -3.573222e-002 -2.899026e-002 -3.863795e-002 -2.494030e-002 -2.185254e-004 -1.622500e-004 3.425443e-005 -7.503422e-004 1.357508e-003 -9.585583e-004 -4.180817e-004 7.011475e-004 -1.191675e-003 9.774680e-004 9.959090e-004 -3.021735e-004 2.498777e-004
<VARIANCE> 39
 7.914983e+001 5.629525e+001 6.504016e+001 6.690341e+001 6.673487e+001 8.030654e+001 4.972198e+001 4.154061e+001 4.091316e+001 4.123420e+001 4.358953e+001 3.052994e+001 1.836966e+002 1.616252e+000 1.680612e+000 1.592145e+000 2.221946e+000 1.945003e+000 1.951501e+000 2.082671e+000 1.891161e+000 1.704558e+000 1.847978e+000 1.737418e+000 1.253533e+000 2.115463e+000 2.147346e-001 2.380595e-001 2.371068e-001 3.417991e-001 3.368902e-001 3.400898e-001 3.500464e-001 3.550174e-001 3.242797e-001 3.389731e-001 3.182189e-001 2.439308e-001 2.344984e-001
<GCONST> 1.162047e+002
<STATE> 3
<MEAN> 39
 -1.320366e+001 -1.876988e+000 -8.912127e+000 4.821533e-001 -7.331118e+000 -4.806912e-001 -8.685589e+000 -2.881468e+000 -4.184924e+000 -4.051162e+000 -1.413965e+000 -2.233202e+000 4.072678e+001 -3.590016e-004 3.186409e-002 -1.519628e-002 -9.863323e-003 -5.871981e-002 -4.477600e-002 -3.215173e-002 -2.671507e-002 -2.478387e-002 -3.573222e-002 -2.899026e-002 -3.863795e-002 -2.494030e-002 -2.185254e-004 -1.622500e-004 3.425443e-005 -7.503422e-004 1.357508e-003 -9.585583e-004 -4.180817e-004 7.011475e-004 -1.191675e-003 9.774680e-004 9.959090e-004 -3.021735e-004 2.498777e-004
<VARIANCE> 39
 7.914983e+001 5.629525e+001 6.504016e+001 6.690341e+001 6.673487e+001 8.030654e+001 4.972198e+001 4.154061e+001 4.091316e+001 4.123420e+001 4.358953e+001 3.052994e+001 1.836966e+002 1.616252e+000 1.680612e+000 1.592145e+000 2.221946e+000 1.945003e+000 1.951501e+000 2.082671e+000 1.891161e+000 1.704558e+000 1.847978e+000 1.737418e+000 1.253533e+000 2.115463e+000 2.147346e-001 2.380595e-001 2.371068e-001 3.417991e-001 3.368902e-001 3.400898e-001 3.500464e-001 3.550174e-001 3.242797e-001 3.389731e-001 3.182189e-001 2.439308e-001 2.344984e-001
<GCONST> 1.162047e+002
<STATE> 4
<MEAN> 39
 -1.320366e+001 -1.876988e+000 -8.912127e+000 4.821533e-001 -7.331118e+000 -4.806912e-001 -8.685589e+000 -2.881468e+000 -4.184924e+000 -4.051162e+000 -1.413965e+000 -2.233202e+000 4.072678e+001 -3.590016e-004 3.186409e-002 -1.519628e-002 -9.863323e-003 -5.871981e-002 -4.477600e-002 -3.215173e-002 -2.671507e-002 -2.478387e-002 -3.573222e-002 -2.899026e-002 -3.863795e-002 -2.494030e-002 -2.185254e-004 -1.622500e-004 3.425443e-005 -7.503422e-004 1.357508e-003 -9.585583e-004 -4.180817e-004 7.011475e-004 -1.191675e-003 9.774680e-004 9.959090e-004 -3.021735e-004 2.498777e-004
<VARIANCE> 39
 7.914983e+001 5.629525e+001 6.504016e+001 6.690341e+001 6.673487e+001 8.030654e+001 4.972198e+001 4.154061e+001 4.091316e+001 4.123420e+001 4.358953e+001 3.052994e+001 1.836966e+002 1.616252e+000 1.680612e+000 1.592145e+000 2.221946e+000 1.945003e+000 1.951501e+000 2.082671e+000 1.891161e+000 1.704558e+000 1.847978e+000 1.737418e+000 1.253533e+000 2.115463e+000 2.147346e-001 2.380595e-001 2.371068e-001 3.417991e-001 3.368902e-001 3.400898e-001 3.500464e-001 3.550174e-001 3.242797e-001 3.389731e-001 3.182189e-001 2.439308e-001 2.344984e-001
<GCONST> 1.162047e+002
<STATE> 5
<MEAN> 39
 -1.320366e+001 -1.876988e+000 -8.912127e+000 4.821533e-001 -7.331118e+000 -4.806912e-001 -8.685589e+000 -2.881468e+000 -4.184924e+000 -4.051162e+000 -1.413965e+000 -2.233202e+000 4.072678e+001 -3.590016e-004 3.186409e-002 -1.519628e-002 -9.863323e-003 -5.871981e-002 -4.477600e-002 -3.215173e-002 -2.671507e-002 -2.478387e-002 -3.573222e-002 -2.899026e-002 -3.863795e-002 -2.494030e-002 -2.185254e-004 -1.622500e-004 3.425443e-005 -7.503422e-004 1.357508e-003 -9.585583e-004 -4.180817e-004 7.011475e-004 -1.191675e-003 9.774680e-004 9.959090e-004 -3.021735e-004 2.498777e-004
<VARIANCE> 39
 7.914983e+001 5.629525e+001 6.504016e+001 6.690341e+001 6.673487e+001 8.030654e+001 4.972198e+001 4.154061e+001 4.091316e+001 4.123420e+001 4.358953e+001 3.052994e+001 1.836966e+002 1.616252e+000 1.680612e+000 1.592145e+000 2.221946e+000 1.945003e+000 1.951501e+000 2.082671e+000 1.891161e+000 1.704558e+000 1.847978e+000 1.737418e+000 1.253533e+000 2.115463e+000 2.147346e-001 2.380595e-001 2.371068e-001 3.417991e-001 3.368902e-001 3.400898e-001 3.500464e-001 3.550174e-001 3.242797e-001 3.389731e-001 3.182189e-001 2.439308e-001 2.344984e-001
<GCONST> 1.162047e+002
<STATE> 6
<MEAN> 39
 -1.320366e+001 -1.876988e+000 -8.912127e+000 4.821533e-001 -7.331118e+000 -4.806912e-001 -8.685589e+000 -2.881468e+000 -4.184924e+000 -4.051162e+000 -1.413965e+000 -2.233202e+000 4.072678e+001 -3.590016e-004 3.186409e-002 -1.519628e-002 -9.863323e-003 -5.871981e-002 -4.477600e-002 -3.215173e-002 -2.671507e-002 -2.478387e-002 -3.573222e-002 -2.899026e-002 -3.863795e-002 -2.494030e-002 -2.185254e-004 -1.622500e-004 3.425443e-005 -7.503422e-004 1.357508e-003 -9.585583e-004 -4.180817e-004 7.011475e-004 -1.191675e-003 9.774680e-004 9.959090e-004 -3.021735e-004 2.498777e-004
<VARIANCE> 39
 7.914983e+001 5.629525e+001 6.504016e+001 6.690341e+001 6.673487e+001 8.030654e+001 4.972198e+001 4.154061e+001 4.091316e+001 4.123420e+001 4.358953e+001 3.052994e+001 1.836966e+002 1.616252e+000 1.680612e+000 1.592145e+000 2.221946e+000 1.945003e+000 1.951501e+000 2.082671e+000 1.891161e+000 1.704558e+000 1.847978e+000 1.737418e+000 1.253533e+000 2.115463e+000 2.147346e-001 2.380595e-001 2.371068e-001 3.417991e-001 3.368902e-001 3.400898e-001 3.500464e-001 3.550174e-001 3.242797e-001 3.389731e-001 3.182189e-001 2.439308e-001 2.344984e-001
<GCONST> 1.162047e+002
<STATE> 7
<MEAN> 39
 -1.320366e+001 -1.876988e+000 -8.912127e+000 4.821533e-001 -7.331118e+000 -4.806912e-001 -8.685589e+000 -2.881468e+000 -4.184924e+000 -4.051162e+000 -1.413965e+000 -2.233202e+000 4.072678e+001 -3.590016e-004 3.186409e-002 -1.519628e-002 -9.863323e-003 -5.871981e-002 -4.477600e-002 -3.215173e-002 -2.671507e-002 -2.478387e-002 -3.573222e-002 -2.899026e-002 -3.863795e-002 -2.494030e-002 -2.185254e-004 -1.622500e-004 3.425443e-005 -7.503422e-004 1.357508e-003 -9.585583e-004 -4.180817e-004 7.011475e-004 -1.191675e-003 9.774680e-004 9.959090e-004 -3.021735e-004 2.498777e-004
<VARIANCE> 39
 7.914983e+001 5.629525e+001 6.504016e+001 6.690341e+001 6.673487e+001 8.030654e+001 4.972198e+001 4.154061e+001 4.091316e+001 4.123420e+001 4.358953e+001 3.052994e+001 1.836966e+002 1.616252e+000 1.680612e+000 1.592145e+000 2.221946e+000 1.945003e+000 1.951501e+000 2.082671e+000 1.891161e+000 1.704558e+000 1.847978e+000 1.737418e+000 1.253533e+000 2.115463e+000 2.147346e-001 2.380595e-001 2.371068e-001 3.417991e-001 3.368902e-001 3.400898e-001 3.500464e-001 3.550174e-001 3.242797e-001 3.389731e-001 3.182189e-001 2.439308e-001 2.344984e-001
<GCONST> 1.162047e+002
<STATE> 8
<MEAN> 39
 -1.320366e+001 -1.876988e+000 -8.912127e+000 4.821533e-001 -7.331118e+000 -4.806912e-001 -8.685589e+000 -2.881468e+000 -4.184924e+000 -4.051162e+000 -1.413965e+000 -2.233202e+000 4.072678e+001 -3.590016e-004 3.186409e-002 -1.519628e-002 -9.863323e-003 -5.871981e-002 -4.477600e-002 -3.215173e-002 -2.671507e-002 -2.478387e-002 -3.573222e-002 -2.899026e-002 -3.863795e-002 -2.494030e-002 -2.185254e-004 -1.622500e-004 3.425443e-005 -7.503422e-004 1.357508e-003 -9.585583e-004 -4.180817e-004 7.011475e-004 -1.191675e-003 9.774680e-004 9.959090e-004 -3.021735e-004 2.498777e-004
<VARIANCE> 39
 7.914983e+001 5.629525e+001 6.504016e+001 6.690341e+001 6.673487e+001 8.030654e+001 4.972198e+001 4.154061e+001 4.091316e+001 4.123420e+001 4.358953e+001 3.052994e+001 1.836966e+002 1.616252e+000 1.680612e+000 1.592145e+000 2.221946e+000 1.945003e+000 1.951501e+000 2.082671e+000 1.891161e+000 1.704558e+000 1.847978e+000 1.737418e+000 1.253533e+000 2.115463e+000 2.147346e-001 2.380595e-001 2.371068e-001 3.417991e-001 3.368902e-001 3.400898e-001 3.500464e-001 3.550174e-001 3.242797e-001 3.389731e-001 3.182189e-001 2.439308e-001 2.344984e-001
<GCONST> 1.162047e+002
<STATE> 9
<MEAN> 39
 -1.320366e+001 -1.876988e+000 -8.912127e+000 4.821533e-001 -7.331118e+000 -4.806912e-001 -8.685589e+000 -2.881468e+000 -4.184924e+000 -4.051162e+000 -1.413965e+000 -2.233202e+000 4.072678e+001 -3.590016e-004 3.186409e-002 -1.519628e-002 -9.863323e-003 -5.871981e-002 -4.477600e-002 -3.215173e-002 -2.671507e-002 -2.478387e-002 -3.573222e-002 -2.899026e-002 -3.863795e-002 -2.494030e-002 -2.185254e-004 -1.622500e-004 3.425443e-005 -7.503422e-004 1.357508e-003 -9.585583e-004 -4.180817e-004 7.011475e-004 -1.191675e-003 9.774680e-004 9.959090e-004 -3.021735e-004 2.498777e-004
<VARIANCE> 39
 7.914983e+001 5.629525e+001 6.504016e+001 6.690341e+001 6.673487e+001 8.030654e+001 4.972198e+001 4.154061e+001 4.091316e+001 4.123420e+001 4.358953e+001 3.052994e+001 1.836966e+002 1.616252e+000 1.680612e+000 1.592145e+000 2.221946e+000 1.945003e+000 1.951501e+000 2.082671e+000 1.891161e+000 1.704558e+000 1.847978e+000 1.737418e+000 1.253533e+000 2.115463e+000 2.147346e-001 2.380595e-001 2.371068e-001 3.417991e-001 3.368902e-001 3.400898e-001 3.500464e-001 3.550174e-001 3.242797e-001 3.389731e-001 3.182189e-001 2.439308e-001 2.344984e-001
<GCONST> 1.162047e+002
<STATE> 10
<MEAN> 39
 -1.320366e+001 -1.876988e+000 -8.912127e+000 4.821533e-001 -7.331118e+000 -4.806912e-001 -8.685589e+000 -2.881468e+000 -4.184924e+000 -4.051162e+000 -1.413965e+000 -2.233202e+000 4.072678e+001 -3.590016e-004 3.186409e-002 -1.519628e-002 -9.863323e-003 -5.871981e-002 -4.477600e-002 -3.215173e-002 -2.671507e-002 -2.478387e-002 -3.573222e-002 -2.899026e-002 -3.863795e-002 -2.494030e-002 -2.185254e-004 -1.622500e-004 3.425443e-005 -7.503422e-004 1.357508e-003 -9.585583e-004 -4.180817e-004 7.011475e-004 -1.191675e-003 9.774680e-004 9.959090e-004 -3.021735e-004 2.498777e-004
<VARIANCE> 39
 7.914983e+001 5.629525e+001 6.504016e+001 6.690341e+001 6.673487e+001 8.030654e+001 4.972198e+001 4.154061e+001 4.091316e+001 4.123420e+001 4.358953e+001 3.052994e+001 1.836966e+002 1.616252e+000 1.680612e+000 1.592145e+000 2.221946e+000 1.945003e+000 1.951501e+000 2.082671e+000 1.891161e+000 1.704558e+000 1.847978e+000 1.737418e+000 1.253533e+000 2.115463e+000 2.147346e-001 2.380595e-001 2.371068e-001 3.417991e-001 3.368902e-001 3.400898e-001 3.500464e-001 3.550174e-001 3.242797e-001 3.389731e-001 3.182189e-001 2.439308e-001 2.344984e-001
<GCONST> 1.162047e+002
<STATE> 11
<MEAN> 39
 -1.320366e+001 -1.876988e+000 -8.912127e+000 4.821533e-001 -7.331118e+000 -4.806912e-001 -8.685589e+000 -2.881468e+000 -4.184924e+000 -4.051162e+000 -1.413965e+000 -2.233202e+000 4.072678e+001 -3.590016e-004 3.186409e-002 -1.519628e-002 -9.863323e-003 -5.871981e-002 -4.477600e-002 -3.215173e-002 -2.671507e-002 -2.478387e-002 -3.573222e-002 -2.899026e-002 -3.863795e-002 -2.494030e-002 -2.185254e-004 -1.622500e-004 3.425443e-005 -7.503422e-004 1.357508e-003 -9.585583e-004 -4.180817e-004 7.011475e-004 -1.191675e-003 9.774680e-004 9.959090e-004 -3.021735e-004 2.498777e-004
<VARIANCE> 39
 7.914983e+001 5.629525e+001 6.504016e+001 6.690341e+001 6.673487e+001 8.030654e+001 4.972198e+001 4.154061e+001 4.091316e+001 4.123420e+001 4.358953e+001 3.052994e+001 1.836966e+002 1.616252e+000 1.680612e+000 1.592145e+000 2.221946e+000 1.945003e+000 1.951501e+000 2.082671e+000 1.891161e+000 1.704558e+000 1.847978e+000 1.737418e+000 1.253533e+000 2.115463e+000 2.147346e-001 2.380595e-001 2.371068e-001 3.417991e-001 3.368902e-001 3.400898e-001 3.500464e-001 3.550174e-001 3.242797e-001 3.389731e-001 3.182189e-001 2.439308e-001 2.344984e-001
<GCONST> 1.162047e+002
<TRANSP> 12
 0.000000e+000 1.000000e+000 0.000000e+000 0.000000e+000 0.000000e+000 0.000000e+000 0.000000e+000 0.000000e+000 0.000000e+000 0.000000e+000 0.000000e+000 0.000000e+000
 0.000000e+000 6.000000e-001 4.000000e-001 0.000000e+000 0.000000e+000 0.000000e+000 0.000000e+000 0.000000e+000 0.000000e+000 0.000000e+000 0.000000e+000 0.000000e+000
 0.000000e+000 0.000000e+000 6.000000e-001 4.000000e-001 0.000000e+000 0.000000e+000 0.000000e+000 0.000000e+000 0.000000e+000 0.000000e+000 0.000000e+000 0.000000e+000
 0.000000e+000 0.000000e+000 0.000000e+000 6.000000e-001 4.000000e-001 0.000000e+000 0.000000e+000 0.000000e+000 0.000000e+000 0.000000e+000 0.000000e+000 0.000000e+000
 0.000000e+000 0.000000e+000 0.000000e+000 0.000000e+000 6.000000e-001 4.000000e-001 0.000000e+000 0.000000e+000 0.000000e+000 0.000000e+000 0.000000e+000 0.000000e+000
 0.000000e+000 0.000000e+000 0.000000e+000 0.000000e+000 0.000000e+000 6.000000e-001 4.000000e-001 0.000000e+000 0.000000e+000 0.000000e+000 0.000000e+000 0.000000e+000
 0.000000e+000 0.000000e+000 0.000000e+000 0.000000e+000 0.000000e+000 0.000000e+000 6.000000e-001 4.000000e-001 0.000000e+000 0.000000e+000 0.000000e+000 0.000000e+000
 0.000000e+000 0.000000e+000 0.000000e+000 0.000000e+000 0.000000e+000 0.000000e+000 0.000000e+000 6.000000e-001 4.000000e-001 0.000000e+000 0.000000e+000 0.000000e+000
 0.000000e+000 0.000000e+000 0.000000e+000 0.000000e+000 0.000000e+000 0.000000e+000 0.000000e+000 0.000000e+000 6.000000e-001 4.000000e-001 0.000000e+000 0.000000e+000
 0.000000e+000 0.000000e+000 0.000000e+000 0.000000e+000 0.000000e+000 0.000000e+000 0.000000e+000 0.000000e+000 0.000000e+000 6.000000e-001 4.000000e-001 0.000000e+000
 0.000000e+000 0.000000e+000 0.000000e+000 0.000000e+000 0.000000e+000 0.000000e+000 0.000000e+000 0.000000e+000 0.000000e+000 0.000000e+000 6.000000e-001 4.000000e-001
 0.000000e+000 0.000000e+000 0.000000e+000 0.000000e+000 0.000000e+000 0.000000e+000 0.000000e+000 0.000000e+000 0.000000e+000 0.000000e+000 0.000000e+000 0.000000e+000
<ENDHMM>
~h "ETNEEN"
<BEGINHMM>
<NUMSTATES> 12
<STATE> 2
<MEAN> 39
 -1.320366e+001 -1.876988e+000 -8.912127e+000 4.821533e-001 -7.331118e+000 -4.806912e-001 -8.685589e+000 -2.881468e+000 -4.184924e+000 -4.051162e+000 -1.413965e+000 -2.233202e+000 4.072678e+001 -3.590016e-004 3.186409e-002 -1.519628e-002 -9.863323e-003 -5.871981e-002 -4.477600e-002 -3.215173e-002 -2.671507e-002 -2.478387e-002 -3.573222e-002 -2.899026e-002 -3.863795e-002 -2.494030e-002 -2.185254e-004 -1.622500e-004 3.425443e-005 -7.503422e-004 1.357508e-003 -9.585583e-004 -4.180817e-004 7.011475e-004 -1.191675e-003 9.774680e-004 9.959090e-004 -3.021735e-004 2.498777e-004
<VARIANCE> 39
 7.914983e+001 5.629525e+001 6.504016e+001 6.690341e+001 6.673487e+001 8.030654e+001 4.972198e+001 4.154061e+001 4.091316e+001 4.123420e+001 4.358953e+001 3.052994e+001 1.836966e+002 1.616252e+000 1.680612e+000 1.592145e+000 2.221946e+000 1.945003e+000 1.951501e+000 2.082671e+000 1.891161e+000 1.704558e+000 1.847978e+000 1.737418e+000 1.253533e+000 2.115463e+000 2.147346e-001 2.380595e-001 2.371068e-001 3.417991e-001 3.368902e-001 3.400898e-001 3.500464e-001 3.550174e-001 3.242797e-001 3.389731e-001 3.182189e-001 2.439308e-001 2.344984e-001
<GCONST> 1.162047e+002
<STATE> 3
<MEAN> 39
 -1.320366e+001 -1.876988e+000 -8.912127e+000 4.821533e-001 -7.331118e+000 -4.806912e-001 -8.685589e+000 -2.881468e+000 -4.184924e+000 -4.051162e+000 -1.413965e+000 -2.233202e+000 4.072678e+001 -3.590016e-004 3.186409e-002 -1.519628e-002 -9.863323e-003 -5.871981e-002 -4.477600e-002 -3.215173e-002 -2.671507e-002 -2.478387e-002 -3.573222e-002 -2.899026e-002 -3.863795e-002 -2.494030e-002 -2.185254e-004 -1.622500e-004 3.425443e-005 -7.503422e-004 1.357508e-003 -9.585583e-004 -4.180817e-004 7.011475e-004 -1.191675e-003 9.774680e-004 9.959090e-004 -3.021735e-004 2.498777e-004
<VARIANCE> 39
 7.914983e+001 5.629525e+001 6.504016e+001 6.690341e+001 6.673487e+001 8.030654e+001 4.972198e+001 4.154061e+001 4.091316e+001 4.123420e+001 4.358953e+001 3.052994e+001 1.836966e+002 1.616252e+000 1.680612e+000 1.592145e+000 2.221946e+000 1.945003e+000 1.951501e+000 2.082671e+000 1.891161e+000 1.704558e+000 1.847978e+000 1.737418e+000 1.253533e+000 2.115463e+000 2.147346e-001 2.380595e-001 2.371068e-001 3.417991e-001 3.368902e-001 3.400898e-001 3.500464e-001 3.550174e-001 3.242797e-001 3.389731e-001 3.182189e-001 2.439308e-001 2.344984e-001
<GCONST> 1.162047e+002
<STATE> 4
<MEAN> 39
 -1.320366e+001 -1.876988e+000 -8.912127e+000 4.821533e-001 -7.331118e+000 -4.806912e-001 -8.685589e+000 -2.881468e+000 -4.184924e+000 -4.051162e+000 -1.413965e+000 -2.233202e+000 4.072678e+001 -3.590016e-004 3.186409e-002 -1.519628e-002 -9.863323e-003 -5.871981e-002 -4.477600e-002 -3.215173e-002 -2.671507e-002 -2.478387e-002 -3.573222e-002 -2.899026e-002 -3.863795e-002 -2.494030e-002 -2.185254e-004 -1.622500e-004 3.425443e-005 -7.503422e-004 1.357508e-003 -9.585583e-004 -4.180817e-004 7.011475e-004 -1.191675e-003 9.774680e-004 9.959090e-004 -3.021735e-004 2.498777e-004
<VARIANCE> 39
 7.914983e+001 5.629525e+001 6.504016e+001 6.690341e+001 6.673487e+001 8.030654e+001 4.972198e+001 4.154061e+001 4.091316e+001 4.123420e+001 4.358953e+001 3.052994e+001 1.836966e+002 1.616252e+000 1.680612e+000 1.592145e+000 2.221946e+000 1.945003e+000 1.951501e+000 2.082671e+000 1.891161e+000 1.704558e+000 1.847978e+000 1.737418e+000 1.253533e+000 2.115463e+000 2.147346e-001 2.380595e-001 2.371068e-001 3.417991e-001 3.368902e-001 3.400898e-001 3.500464e-001 3.550174e-001 3.242797e-001 3.389731e-001 3.182189e-001 2.439308e-001 2.344984e-001
<GCONST> 1.162047e+002
<STATE> 5
<MEAN> 39
 -1.320366e+001 -1.876988e+000 -8.912127e+000 4.821533e-001 -7.331118e+000 -4.806912e-001 -8.685589e+000 -2.881468e+000 -4.184924e+000 -4.051162e+000 -1.413965e+000 -2.233202e+000 4.072678e+001 -3.590016e-004 3.186409e-002 -1.519628e-002 -9.863323e-003 -5.871981e-002 -4.477600e-002 -3.215173e-002 -2.671507e-002 -2.478387e-002 -3.573222e-002 -2.899026e-002 -3.863795e-002 -2.494030e-002 -2.185254e-004 -1.622500e-004 3.425443e-005 -7.503422e-004 1.357508e-003 -9.585583e-004 -4.180817e-004 7.011475e-004 -1.191675e-003 9.774680e-004 9.959090e-004 -3.021735e-004 2.498777e-004
<VARIANCE> 39
 7.914983e+001 5.629525e+001 6.504016e+001 6.690341e+001 6.673487e+001 8.030654e+001 4.972198e+001 4.154061e+001 4.091316e+001 4.123420e+001 4.358953e+001 3.052994e+001 1.836966e+002 1.616252e+000 1.680612e+000 1.592145e+000 2.221946e+000 1.945003e+000 1.951501e+000 2.082671e+000 1.891161e+000 1.704558e+000 1.847978e+000 1.737418e+000 1.253533e+000 2.115463e+000 2.147346e-001 2.380595e-001 2.371068e-001 3.417991e-001 3.368902e-001 3.400898e-001 3.500464e-001 3.550174e-001 3.242797e-001 3.389731e-001 3.182189e-001 2.439308e-001 2.344984e-001
<GCONST> 1.162047e+002
<STATE> 6
<MEAN> 39
 -1.320366e+001 -1.876988e+000 -8.912127e+000 4.821533e-001 -7.331118e+000 -4.806912e-001 -8.685589e+000 -2.881468e+000 -4.184924e+000 -4.051162e+000 -1.413965e+000 -2.233202e+000 4.072678e+001 -3.590016e-004 3.186409e-002 -1.519628e-002 -9.863323e-003 -5.871981e-002 -4.477600e-002 -3.215173e-002 -2.671507e-002 -2.478387e-002 -3.573222e-002 -2.899026e-002 -3.863795e-002 -2.494030e-002 -2.185254e-004 -1.622500e-004 3.425443e-005 -7.503422e-004 1.357508e-003 -9.585583e-004 -4.180817e-004 7.011475e-004 -1.191675e-003 9.774680e-004 9.959090e-004 -3.021735e-004 2.498777e-004
<VARIANCE> 39
 7.914983e+001 5.629525e+001 6.504016e+001 6.690341e+001 6.673487e+001 8.030654e+001 4.972198e+001 4.154061e+001 4.091316e+001 4.123420e+001 4.358953e+001 3.052994e+001 1.836966e+002 1.616252e+000 1.680612e+000 1.592145e+000 2.221946e+000 1.945003e+000 1.951501e+000 2.082671e+000 1.891161e+000 1.704558e+000 1.847978e+000 1.737418e+000 1.253533e+000 2.115463e+000 2.147346e-001 2.380595e-001 2.371068e-001 3.417991e-001 3.368902e-001 3.400898e-001 3.500464e-001 3.550174e-001 3.242797e-001 3.389731e-001 3.182189e-001 2.439308e-001 2.344984e-001
<GCONST> 1.162047e+002
<STATE> 7
<MEAN> 39
 -1.320366e+001 -1.876988e+000 -8.912127e+000 4.821533e-001 -7.331118e+000 -4.806912e-001 -8.685589e+000 -2.881468e+000 -4.184924e+000 -4.051162e+000 -1.413965e+000 -2.233202e+000 4.072678e+001 -3.590016e-004 3.186409e-002 -1.519628e-002 -9.863323e-003 -5.871981e-002 -4.477600e-002 -3.215173e-002 -2.671507e-002 -2.478387e-002 -3.573222e-002 -2.899026e-002 -3.863795e-002 -2.494030e-002 -2.185254e-004 -1.622500e-004 3.425443e-005 -7.503422e-004 1.357508e-003 -9.585583e-004 -4.180817e-004 7.011475e-004 -1.191675e-003 9.774680e-004 9.959090e-004 -3.021735e-004 2.498777e-004
<VARIANCE> 39
 7.914983e+001 5.629525e+001 6.504016e+001 6.690341e+001 6.673487e+001 8.030654e+001 4.972198e+001 4.154061e+001 4.091316e+001 4.123420e+001 4.358953e+001 3.052994e+001 1.836966e+002 1.616252e+000 1.680612e+000 1.592145e+000 2.221946e+000 1.945003e+000 1.951501e+000 2.082671e+000 1.891161e+000 1.704558e+000 1.847978e+000 1.737418e+000 1.253533e+000 2.115463e+000 2.147346e-001 2.380595e-001 2.371068e-001 3.417991e-001 3.368902e-001 3.400898e-001 3.500464e-001 3.550174e-001 3.242797e-001 3.389731e-001 3.182189e-001 2.439308e-001 2.344984e-001
<GCONST> 1.162047e+002
<STATE> 8
<MEAN> 39
 -1.320366e+001 -1.876988e+000 -8.912127e+000 4.821533e-001 -7.331118e+000 -4.806912e-001 -8.685589e+000 -2.881468e+000 -4.184924e+000 -4.051162e+000 -1.413965e+000 -2.233202e+000 4.072678e+001 -3.590016e-004 3.186409e-002 -1.519628e-002 -9.863323e-003 -5.871981e-002 -4.477600e-002 -3.215173e-002 -2.671507e-002 -2.478387e-002 -3.573222e-002 -2.899026e-002 -3.863795e-002 -2.494030e-002 -2.185254e-004 -1.622500e-004 3.425443e-005 -7.503422e-004 1.357508e-003 -9.585583e-004 -4.180817e-004 7.011475e-004 -1.191675e-003 9.774680e-004 9.959090e-004 -3.021735e-004 2.498777e-004
<VARIANCE> 39
 7.914983e+001 5.629525e+001 6.504016e+001 6.690341e+001 6.673487e+001 8.030654e+001 4.972198e+001 4.154061e+001 4.091316e+001 4.123420e+001 4.358953e+001 3.052994e+001 1.836966e+002 1.616252e+000 1.680612e+000 1.592145e+000 2.221946e+000 1.945003e+000 1.951501e+000 2.082671e+000 1.891161e+000 1.704558e+000 1.847978e+000 1.737418e+000 1.253533e+000 2.115463e+000 2.147346e-001 2.380595e-001 2.371068e-001 3.417991e-001 3.368902e-001 3.400898e-001 3.500464e-001 3.550174e-001 3.242797e-001 3.389731e-001 3.182189e-001 2.439308e-001 2.344984e-001
<GCONST> 1.162047e+002
<STATE> 9
<MEAN> 39
 -1.320366e+001 -1.876988e+000 -8.912127e+000 4.821533e-001 -7.331118e+000 -4.806912e-001 -8.685589e+000 -2.881468e+000 -4.184924e+000 -4.051162e+000 -1.413965e+000 -2.233202e+000 4.072678e+001 -3.590016e-004 3.186409e-002 -1.519628e-002 -9.863323e-003 -5.871981e-002 -4.477600e-002 -3.215173e-002 -2.671507e-002 -2.478387e-002 -3.573222e-002 -2.899026e-002 -3.863795e-002 -2.494030e-002 -2.185254e-004 -1.622500e-004 3.425443e-005 -7.503422e-004 1.357508e-003 -9.585583e-004 -4.180817e-004 7.011475e-004 -1.191675e-003 9.774680e-004 9.959090e-004 -3.021735e-004 2.498777e-004
<VARIANCE> 39
 7.914983e+001 5.629525e+001 6.504016e+001 6.690341e+001 6.673487e+001 8.030654e+001 4.972198e+001 4.154061e+001 4.091316e+001 4.123420e+001 4.358953e+001 3.052994e+001 1.836966e+002 1.616252e+000 1.680612e+000 1.592145e+000 2.221946e+000 1.945003e+000 1.951501e+000 2.082671e+000 1.891161e+000 1.704558e+000 1.847978e+000 1.737418e+000 1.253533e+000 2.115463e+000 2.147346e-001 2.380595e-001 2.371068e-001 3.417991e-001 3.368902e-001 3.400898e-001 3.500464e-001 3.550174e-001 3.242797e-001 3.389731e-001 3.182189e-001 2.439308e-001 2.344984e-001
<GCONST> 1.162047e+002
<STATE> 10
<MEAN> 39
 -1.320366e+001 -1.876988e+000 -8.912127e+000 4.821533e-001 -7.331118e+000 -4.806912e-001 -8.685589e+000 -2.881468e+000 -4.184924e+000 -4.051162e+000 -1.413965e+000 -2.233202e+000 4.072678e+001 -3.590016e-004 3.186409e-002 -1.519628e-002 -9.863323e-003 -5.871981e-002 -4.477600e-002 -3.215173e-002 -2.671507e-002 -2.478387e-002 -3.573222e-002 -2.899026e-002 -3.863795e-002 -2.494030e-002 -2.185254e-004 -1.622500e-004 3.425443e-005 -7.503422e-004 1.357508e-003 -9.585583e-004 -4.180817e-004 7.011475e-004 -1.191675e-003 9.774680e-004 9.959090e-004 -3.021735e-004 2.498777e-004
<VARIANCE> 39
 7.914983e+001 5.629525e+001 6.504016e+001 6.690341e+001 6.673487e+001 8.030654e+001 4.972198e+001 4.154061e+001 4.091316e+001 4.123420e+001 4.358953e+001 3.052994e+001 1.836966e+002 1.616252e+000 1.680612e+000 1.592145e+000 2.221946e+000 1.945003e+000 1.951501e+000 2.082671e+000 1.891161e+000 1.704558e+000 1.847978e+000 1.737418e+000 1.253533e+000 2.115463e+000 2.147346e-001 2.380595e-001 2.371068e-001 3.417991e-001 3.368902e-001 3.400898e-001 3.500464e-001 3.550174e-001 3.242797e-001 3.389731e-001 3.182189e-001 2.439308e-001 2.344984e-001
<GCONST> 1.162047e+002
<STATE> 11
<MEAN> 39
 -1.320366e+001 -1.876988e+000 -8.912127e+000 4.821533e-001 -7.331118e+000 -4.806912e-001 -8.685589e+000 -2.881468e+000 -4.184924e+000 -4.051162e+000 -1.413965e+000 -2.233202e+000 4.072678e+001 -3.590016e-004 3.186409e-002 -1.519628e-002 -9.863323e-003 -5.871981e-002 -4.477600e-002 -3.215173e-002 -2.671507e-002 -2.478387e-002 -3.573222e-002 -2.899026e-002 -3.863795e-002 -2.494030e-002 -2.185254e-004 -1.622500e-004 3.425443e-005 -7.503422e-004 1.357508e-003 -9.585583e-004 -4.180817e-004 7.011475e-004 -1.191675e-003 9.774680e-004 9.959090e-004 -3.021735e-004 2.498777e-004
<VARIANCE> 39
 7.914983e+001 5.629525e+001 6.504016e+001 6.690341e+001 6.673487e+001 8.030654e+001 4.972198e+001 4.154061e+001 4.091316e+001 4.123420e+001 4.358953e+001 3.052994e+001 1.836966e+002 1.616252e+000 1.680612e+000 1.592145e+000 2.221946e+000 1.945003e+000 1.951501e+000 2.082671e+000 1.891161e+000 1.704558e+000 1.847978e+000 1.737418e+000 1.253533e+000 2.115463e+000 2.147346e-001 2.380595e-001 2.371068e-001 3.417991e-001 3.368902e-001 3.400898e-001 3.500464e-001 3.550174e-001 3.242797e-001 3.389731e-001 3.182189e-001 2.439308e-001 2.344984e-001
<GCONST> 1.162047e+002
<TRANSP> 12
 0.000000e+000 1.000000e+000 0.000000e+000 0.000000e+000 0.000000e+000 0.000000e+000 0.000000e+000 0.000000e+000 0.000000e+000 0.000000e+000 0.000000e+000 0.000000e+000
 0.000000e+000 6.000000e-001 4.000000e-001 0.000000e+000 0.000000e+000 0.000000e+000 0.000000e+000 0.000000e+000 0.000000e+000 0.000000e+000 0.000000e+000 0.000000e+000
 0.000000e+000 0.000000e+000 6.000000e-001 4.000000e-001 0.000000e+000 0.000000e+000 0.000000e+000 0.000000e+000 0.000000e+000 0.000000e+000 0.000000e+000 0.000000e+000
 0.000000e+000 0.000000e+000 0.000000e+000 6.000000e-001 4.000000e-001 0.000000e+000 0.000000e+000 0.000000e+000 0.000000e+000 0.000000e+000 0.000000e+000 0.000000e+000
 0.000000e+000 0.000000e+000 0.000000e+000 0.000000e+000 6.000000e-001 4.000000e-001 0.000000e+000 0.000000e+000 0.000000e+000 0.000000e+000 0.000000e+000 0.000000e+000
 0.000000e+000 0.000000e+000 0.000000e+000 0.000000e+000 0.000000e+000 6.000000e-001 4.000000e-001 0.000000e+000 0.000000e+000 0.000000e+000 0.000000e+000 0.000000e+000
 0.000000e+000 0.000000e+000 0.000000e+000 0.000000e+000 0.000000e+000 0.000000e+000 6.000000e-001 4.000000e-001 0.000000e+000 0.000000e+000 0.000000e+000 0.000000e+000
 0.000000e+000 0.000000e+000 0.000000e+000 0.000000e+000 0.000000e+000 0.000000e+000 0.000000e+000 6.000000e-001 4.000000e-001 0.000000e+000 0.000000e+000 0.000000e+000
 0.000000e+000 0.000000e+000 0.000000e+000 0.000000e+000 0.000000e+000 0.000000e+000 0.000000e+000 0.000000e+000 6.000000e-001 4.000000e-001 0.000000e+000 0.000000e+000
 0.000000e+000 0.000000e+000 0.000000e+000 0.000000e+000 0.000000e+000 0.000000e+000 0.000000e+000 0.000000e+000 0.000000e+000 6.000000e-001 4.000000e-001 0.000000e+000
 0.000000e+000 0.000000e+000 0.000000e+000 0.000000e+000 0.000000e+000 0.000000e+000 0.000000e+000 0.000000e+000 0.000000e+000 0.000000e+000 6.000000e-001 4.000000e-001
 0.000000e+000 0.000000e+000 0.000000e+000 0.000000e+000 0.000000e+000 0.000000e+000 0.000000e+000 0.000000e+000 0.000000e+000 0.000000e+000 0.000000e+000 0.000000e+000
<ENDHMM>
~h "TALAATA"
<BEGINHMM>
<NUMSTATES> 12
<STATE> 2
<MEAN> 39
 -1.320366e+001 -1.876988e+000 -8.912127e+000 4.821533e-001 -7.331118e+000 -4.806912e-001 -8.685589e+000 -2.881468e+000 -4.184924e+000 -4.051162e+000 -1.413965e+000 -2.233202e+000 4.072678e+001 -3.590016e-004 3.186409e-002 -1.519628e-002 -9.863323e-003 -5.871981e-002 -4.477600e-002 -3.215173e-002 -2.671507e-002 -2.478387e-002 -3.573222e-002 -2.899026e-002 -3.863795e-002 -2.494030e-002 -2.185254e-004 -1.622500e-004 3.425443e-005 -7.503422e-004 1.357508e-003 -9.585583e-004 -4.180817e-004 7.011475e-004 -1.191675e-003 9.774680e-004 9.959090e-004 -3.021735e-004 2.498777e-004
<VARIANCE> 39
 7.914983e+001 5.629525e+001 6.504016e+001 6.690341e+001 6.673487e+001 8.030654e+001 4.972198e+001 4.154061e+001 4.091316e+001 4.123420e+001 4.358953e+001 3.052994e+001 1.836966e+002 1.616252e+000 1.680612e+000 1.592145e+000 2.221946e+000 1.945003e+000 1.951501e+000 2.082671e+000 1.891161e+000 1.704558e+000 1.847978e+000 1.737418e+000 1.253533e+000 2.115463e+000 2.147346e-001 2.380595e-001 2.371068e-001 3.417991e-001 3.368902e-001 3.400898e-001 3.500464e-001 3.550174e-001 3.242797e-001 3.389731e-001 3.182189e-001 2.439308e-001 2.344984e-001
<GCONST> 1.162047e+002
<STATE> 3
<MEAN> 39
 -1.320366e+001 -1.876988e+000 -8.912127e+000 4.821533e-001 -7.331118e+000 -4.806912e-001 -8.685589e+000 -2.881468e+000 -4.184924e+000 -4.051162e+000 -1.413965e+000 -2.233202e+000 4.072678e+001 -3.590016e-004 3.186409e-002 -1.519628e-002 -9.863323e-003 -5.871981e-002 -4.477600e-002 -3.215173e-002 -2.671507e-002 -2.478387e-002 -3.573222e-002 -2.899026e-002 -3.863795e-002 -2.494030e-002 -2.185254e-004 -1.622500e-004 3.425443e-005 -7.503422e-004 1.357508e-003 -9.585583e-004 -4.180817e-004 7.011475e-004 -1.191675e-003 9.774680e-004 9.959090e-004 -3.021735e-004 2.498777e-004
<VARIANCE> 39
 7.914983e+001 5.629525e+001 6.504016e+001 6.690341e+001 6.673487e+001 8.030654e+001 4.972198e+001 4.154061e+001 4.091316e+001 4.123420e+001 4.358953e+001 3.052994e+001 1.836966e+002 1.616252e+000 1.680612e+000 1.592145e+000 2.221946e+000 1.945003e+000 1.951501e+000 2.082671e+000 1.891161e+000 1.704558e+000 1.847978e+000 1.737418e+000 1.253533e+000 2.115463e+000 2.147346e-001 2.380595e-001 2.371068e-001 3.417991e-001 3.368902e-001 3.400898e-001 3.500464e-001 3.550174e-001 3.242797e-001 3.389731e-001 3.182189e-001 2.439308e-001 2.344984e-001
<GCONST> 1.162047e+002
<STATE> 4
<MEAN> 39
 -1.320366e+001 -1.876988e+000 -8.912127e+000 4.821533e-001 -7.331118e+000 -4.806912e-001 -8.685589e+000 -2.881468e+000 -4.184924e+000 -4.051162e+000 -1.413965e+000 -2.233202e+000 4.072678e+001 -3.590016e-004 3.186409e-002 -1.519628e-002 -9.863323e-003 -5.871981e-002 -4.477600e-002 -3.215173e-002 -2.671507e-002 -2.478387e-002 -3.573222e-002 -2.899026e-002 -3.863795e-002 -2.494030e-002 -2.185254e-004 -1.622500e-004 3.425443e-005 -7.503422e-004 1.357508e-003 -9.585583e-004 -4.180817e-004 7.011475e-004 -1.191675e-003 9.774680e-004 9.959090e-004 -3.021735e-004 2.498777e-004
<VARIANCE> 39
 7.914983e+001 5.629525e+001 6.504016e+001 6.690341e+001 6.673487e+001 8.030654e+001 4.972198e+001 4.154061e+001 4.091316e+001 4.123420e+001 4.358953e+001 3.052994e+001 1.836966e+002 1.616252e+000 1.680612e+000 1.592145e+000 2.221946e+000 1.945003e+000 1.951501e+000 2.082671e+000 1.891161e+000 1.704558e+000 1.847978e+000 1.737418e+000 1.253533e+000 2.115463e+000 2.147346e-001 2.380595e-001 2.371068e-001 3.417991e-001 3.368902e-001 3.400898e-001 3.500464e-001 3.550174e-001 3.242797e-001 3.389731e-001 3.182189e-001 2.439308e-001 2.344984e-001
<GCONST> 1.162047e+002
<STATE> 5
<MEAN> 39
 -1.320366e+001 -1.876988e+000 -8.912127e+000 4.821533e-001 -7.331118e+000 -4.806912e-001 -8.685589e+000 -2.881468e+000 -4.184924e+000 -4.051162e+000 -1.413965e+000 -2.233202e+000 4.072678e+001 -3.590016e-004 3.186409e-002 -1.519628e-002 -9.863323e-003 -5.871981e-002 -4.477600e-002 -3.215173e-002 -2.671507e-002 -2.478387e-002 -3.573222e-002 -2.899026e-002 -3.863795e-002 -2.494030e-002 -2.185254e-004 -1.622500e-004 3.425443e-005 -7.503422e-004 1.357508e-003 -9.585583e-004 -4.180817e-004 7.011475e-004 -1.191675e-003 9.774680e-004 9.959090e-004 -3.021735e-004 2.498777e-004
<VARIANCE> 39
 7.914983e+001 5.629525e+001 6.504016e+001 6.690341e+001 6.673487e+001 8.030654e+001 4.972198e+001 4.154061e+001 4.091316e+001 4.123420e+001 4.358953e+001 3.052994e+001 1.836966e+002 1.616252e+000 1.680612e+000 1.592145e+000 2.221946e+000 1.945003e+000 1.951501e+000 2.082671e+000 1.891161e+000 1.704558e+000 1.847978e+000 1.737418e+000 1.253533e+000 2.115463e+000 2.147346e-001 2.380595e-001 2.371068e-001 3.417991e-001 3.368902e-001 3.400898e-001 3.500464e-001 3.550174e-001 3.242797e-001 3.389731e-001 3.182189e-001 2.439308e-001 2.344984e-001
<GCONST> 1.162047e+002
<STATE> 6
<MEAN> 39
 -1.320366e+001 -1.876988e+000 -8.912127e+000 4.821533e-001 -7.331118e+000 -4.806912e-001 -8.685589e+000 -2.881468e+000 -4.184924e+000 -4.051162e+000 -1.413965e+000 -2.233202e+000 4.072678e+001 -3.590016e-004 3.186409e-002 -1.519628e-002 -9.863323e-003 -5.871981e-002 -4.477600e-002 -3.215173e-002 -2.671507e-002 -2.478387e-002 -3.573222e-002 -2.899026e-002 -3.863795e-002 -2.494030e-002 -2.185254e-004 -1.622500e-004 3.425443e-005 -7.503422e-004 1.357508e-003 -9.585583e-004 -4.180817e-004 7.011475e-004 -1.191675e-003 9.774680e-004 9.959090e-004 -3.021735e-004 2.498777e-004
<VARIANCE> 39
 7.914983e+001 5.629525e+001 6.504016e+001 6.690341e+001 6.673487e+001 8.030654e+001 4.972198e+001 4.154061e+001 4.091316e+001 4.123420e+001 4.358953e+001 3.052994e+001 1.836966e+002 1.616252e+000 1.680612e+000 1.592145e+000 2.221946e+000 1.945003e+000 1.951501e+000 2.082671e+000 1.891161e+000 1.704558e+000 1.847978e+000 1.737418e+000 1.253533e+000 2.115463e+000 2.147346e-001 2.380595e-001 2.371068e-001 3.417991e-001 3.368902e-001 3.400898e-001 3.500464e-001 3.550174e-001 3.242797e-001 3.389731e-001 3.182189e-001 2.439308e-001 2.344984e-001
<GCONST> 1.162047e+002
<STATE> 7
<MEAN> 39
 -1.320366e+001 -1.876988e+000 -8.912127e+000 4.821533e-001 -7.331118e+000 -4.806912e-001 -8.685589e+000 -2.881468e+000 -4.184924e+000 -4.051162e+000 -1.413965e+000 -2.233202e+000 4.072678e+001 -3.590016e-004 3.186409e-002 -1.519628e-002 -9.863323e-003 -5.871981e-002 -4.477600e-002 -3.215173e-002 -2.671507e-002 -2.478387e-002 -3.573222e-002 -2.899026e-002 -3.863795e-002 -2.494030e-002 -2.185254e-004 -1.622500e-004 3.425443e-005 -7.503422e-004 1.357508e-003 -9.585583e-004 -4.180817e-004 7.011475e-004 -1.191675e-003 9.774680e-004 9.959090e-004 -3.021735e-004 2.498777e-004
<VARIANCE> 39
 7.914983e+001 5.629525e+001 6.504016e+001 6.690341e+001 6.673487e+001 8.030654e+001 4.972198e+001 4.154061e+001 4.091316e+001 4.123420e+001 4.358953e+001 3.052994e+001 1.836966e+002 1.616252e+000 1.680612e+000 1.592145e+000 2.221946e+000 1.945003e+000 1.951501e+000 2.082671e+000 1.891161e+000 1.704558e+000 1.847978e+000 1.737418e+000 1.253533e+000 2.115463e+000 2.147346e-001 2.380595e-001 2.371068e-001 3.417991e-001 3.368902e-001 3.400898e-001 3.500464e-001 3.550174e-001 3.242797e-001 3.389731e-001 3.182189e-001 2.439308e-001 2.344984e-001
<GCONST> 1.162047e+002
<STATE> 8
<MEAN> 39
 -1.320366e+001 -1.876988e+000 -8.912127e+000 4.821533e-001 -7.331118e+000 -4.806912e-001 -8.685589e+000 -2.881468e+000 -4.184924e+000 -4.051162e+000 -1.413965e+000 -2.233202e+000 4.072678e+001 -3.590016e-004 3.186409e-002 -1.519628e-002 -9.863323e-003 -5.871981e-002 -4.477600e-002 -3.215173e-002 -2.671507e-002 -2.478387e-002 -3.573222e-002 -2.899026e-002 -3.863795e-002 -2.494030e-002 -2.185254e-004 -1.622500e-004 3.425443e-005 -7.503422e-004 1.357508e-003 -9.585583e-004 -4.180817e-004 7.011475e-004 -1.191675e-003 9.774680e-004 9.959090e-004 -3.021735e-004 2.498777e-004
<VARIANCE> 39
 7.914983e+001 5.629525e+001 6.504016e+001 6.690341e+001 6.673487e+001 8.030654e+001 4.972198e+001 4.154061e+001 4.091316e+001 4.123420e+001 4.358953e+001 3.052994e+001 1.836966e+002 1.616252e+000 1.680612e+000 1.592145e+000 2.221946e+000 1.945003e+000 1.951501e+000 2.082671e+000 1.891161e+000 1.704558e+000 1.847978e+000 1.737418e+000 1.253533e+000 2.115463e+000 2.147346e-001 2.380595e-001 2.371068e-001 3.417991e-001 3.368902e-001 3.400898e-001 3.500464e-001 3.550174e-001 3.242797e-001 3.389731e-001 3.182189e-001 2.439308e-001 2.344984e-001
<GCONST> 1.162047e+002
<STATE> 9
<MEAN> 39
 -1.320366e+001 -1.876988e+000 -8.912127e+000 4.821533e-001 -7.331118e+000 -4.806912e-001 -8.685589e+000 -2.881468e+000 -4.184924e+000 -4.051162e+000 -1.413965e+000 -2.233202e+000 4.072678e+001 -3.590016e-004 3.186409e-002 -1.519628e-002 -9.863323e-003 -5.871981e-002 -4.477600e-002 -3.215173e-002 -2.671507e-002 -2.478387e-002 -3.573222e-002 -2.899026e-002 -3.863795e-002 -2.494030e-002 -2.185254e-004 -1.622500e-004 3.425443e-005 -7.503422e-004 1.357508e-003 -9.585583e-004 -4.180817e-004 7.011475e-004 -1.191675e-003 9.774680e-004 9.959090e-004 -3.021735e-004 2.498777e-004
<VARIANCE> 39
 7.914983e+001 5.629525e+001 6.504016e+001 6.690341e+001 6.673487e+001 8.030654e+001 4.972198e+001 4.154061e+001 4.091316e+001 4.123420e+001 4.358953e+001 3.052994e+001 1.836966e+002 1.616252e+000 1.680612e+000 1.592145e+000 2.221946e+000 1.945003e+000 1.951501e+000 2.082671e+000 1.891161e+000 1.704558e+000 1.847978e+000 1.737418e+000 1.253533e+000 2.115463e+000 2.147346e-001 2.380595e-001 2.371068e-001 3.417991e-001 3.368902e-001 3.400898e-001 3.500464e-001 3.550174e-001 3.242797e-001 3.389731e-001 3.182189e-001 2.439308e-001 2.344984e-001
<GCONST> 1.162047e+002
<STATE> 10
<MEAN> 39
 -1.320366e+001 -1.876988e+000 -8.912127e+000 4.821533e-001 -7.331118e+000 -4.806912e-001 -8.685589e+000 -2.881468e+000 -4.184924e+000 -4.051162e+000 -1.413965e+000 -2.233202e+000 4.072678e+001 -3.590016e-004 3.186409e-002 -1.519628e-002 -9.863323e-003 -5.871981e-002 -4.477600e-002 -3.215173e-002 -2.671507e-002 -2.478387e-002 -3.573222e-002 -2.899026e-002 -3.863795e-002 -2.494030e-002 -2.185254e-004 -1.622500e-004 3.425443e-005 -7.503422e-004 1.357508e-003 -9.585583e-004 -4.180817e-004 7.011475e-004 -1.191675e-003 9.774680e-004 9.959090e-004 -3.021735e-004 2.498777e-004
<VARIANCE> 39
 7.914983e+001 5.629525e+001 6.504016e+001 6.690341e+001 6.673487e+001 8.030654e+001 4.972198e+001 4.154061e+001 4.091316e+001 4.123420e+001 4.358953e+001 3.052994e+001 1.836966e+002 1.616252e+000 1.680612e+000 1.592145e+000 2.221946e+000 1.945003e+000 1.951501e+000 2.082671e+000 1.891161e+000 1.704558e+000 1.847978e+000 1.737418e+000 1.253533e+000 2.115463e+000 2.147346e-001 2.380595e-001 2.371068e-001 3.417991e-001 3.368902e-001 3.400898e-001 3.500464e-001 3.550174e-001 3.242797e-001 3.389731e-001 3.182189e-001 2.439308e-001 2.344984e-001
<GCONST> 1.162047e+002
<STATE> 11
<MEAN> 39
 -1.320366e+001 -1.876988e+000 -8.912127e+000 4.821533e-001 -7.331118e+000 -4.806912e-001 -8.685589e+000 -2.881468e+000 -4.184924e+000 -4.051162e+000 -1.413965e+000 -2.233202e+000 4.072678e+001 -3.590016e-004 3.186409e-002 -1.519628e-002 -9.863323e-003 -5.871981e-002 -4.477600e-002 -3.215173e-002 -2.671507e-002 -2.478387e-002 -3.573222e-002 -2.899026e-002 -3.863795e-002 -2.494030e-002 -2.185254e-004 -1.622500e-004 3.425443e-005 -7.503422e-004 1.357508e-003 -9.585583e-004 -4.180817e-004 7.011475e-004 -1.191675e-003 9.774680e-004 9.959090e-004 -3.021735e-004 2.498777e-004
<VARIANCE> 39
 7.914983e+001 5.629525e+001 6.504016e+001 6.690341e+001 6.673487e+001 8.030654e+001 4.972198e+001 4.154061e+001 4.091316e+001 4.123420e+001 4.358953e+001 3.052994e+001 1.836966e+002 1.616252e+000 1.680612e+000 1.592145e+000 2.221946e+000 1.945003e+000 1.951501e+000 2.082671e+000 1.891161e+000 1.704558e+000 1.847978e+000 1.737418e+000 1.253533e+000 2.115463e+000 2.147346e-001 2.380595e-001 2.371068e-001 3.417991e-001 3.368902e-001 3.400898e-001 3.500464e-001 3.550174e-001 3.242797e-001 3.389731e-001 3.182189e-001 2.439308e-001 2.344984e-001
<GCONST> 1.162047e+002
<TRANSP> 12
 0.000000e+000 1.000000e+000 0.000000e+000 0.000000e+000 0.000000e+000 0.000000e+000 0.000000e+000 0.000000e+000 0.000000e+000 0.000000e+000 0.000000e+000 0.000000e+000
 0.000000e+000 6.000000e-001 4.000000e-001 0.000000e+000 0.000000e+000 0.000000e+000 0.000000e+000 0.000000e+000 0.000000e+000 0.000000e+000 0.000000e+000 0.000000e+000
 0.000000e+000 0.000000e+000 6.000000e-001 4.000000e-001 0.000000e+000 0.000000e+000 0.000000e+000 0.000000e+000 0.000000e+000 0.000000e+000 0.000000e+000 0.000000e+000
 0.000000e+000 0.000000e+000 0.000000e+000 6.000000e-001 4.000000e-001 0.000000e+000 0.000000e+000 0.000000e+000 0.000000e+000 0.000000e+000 0.000000e+000 0.000000e+000
 0.000000e+000 0.000000e+000 0.000000e+000 0.000000e+000 6.000000e-001 4.000000e-001 0.000000e+000 0.000000e+000 0.000000e+000 0.000000e+000 0.000000e+000 0.000000e+000
 0.000000e+000 0.000000e+000 0.000000e+000 0.000000e+000 0.000000e+000 6.000000e-001 4.000000e-001 0.000000e+000 0.000000e+000 0.000000e+000 0.000000e+000 0.000000e+000
 0.000000e+000 0.000000e+000 0.000000e+000 0.000000e+000 0.000000e+000 0.000000e+000 6.000000e-001 4.000000e-001 0.000000e+000 0.000000e+000 0.000000e+000 0.000000e+000
 0.000000e+000 0.000000e+000 0.000000e+000 0.000000e+000 0.000000e+000 0.000000e+000 0.000000e+000 6.000000e-001 4.000000e-001 0.000000e+000 0.000000e+000 0.000000e+000
 0.000000e+000 0.000000e+000 0.000000e+000 0.000000e+000 0.000000e+000 0.000000e+000 0.000000e+000 0.000000e+000 6.000000e-001 4.000000e-001 0.000000e+000 0.000000e+000
 0.000000e+000 0.000000e+000 0.000000e+000 0.000000e+000 0.000000e+000 0.000000e+000 0.000000e+000 0.000000e+000 0.000000e+000 6.000000e-001 4.000000e-001 0.000000e+000
 0.000000e+000 0.000000e+000 0.000000e+000 0.000000e+000 0.000000e+000 0.000000e+000 0.000000e+000 0.000000e+000 0.000000e+000 0.000000e+000 6.000000e-001 4.000000e-001
 0.000000e+000 0.000000e+000 0.000000e+000 0.000000e+000 0.000000e+000 0.000000e+000 0.000000e+000 0.000000e+000 0.000000e+000 0.000000e+000 0.000000e+000 0.000000e+000
<ENDHMM>
~h "ARBA3A"
<BEGINHMM>
<NUMSTATES> 12
<STATE> 2
<MEAN> 39
 -1.320366e+001 -1.876988e+000 -8.912127e+000 4.821533e-001 -7.331118e+000 -4.806912e-001 -8.685589e+000 -2.881468e+000 -4.184924e+000 -4.051162e+000 -1.413965e+000 -2.233202e+000 4.072678e+001 -3.590016e-004 3.186409e-002 -1.519628e-002 -9.863323e-003 -5.871981e-002 -4.477600e-002 -3.215173e-002 -2.671507e-002 -2.478387e-002 -3.573222e-002 -2.899026e-002 -3.863795e-002 -2.494030e-002 -2.185254e-004 -1.622500e-004 3.425443e-005 -7.503422e-004 1.357508e-003 -9.585583e-004 -4.180817e-004 7.011475e-004 -1.191675e-003 9.774680e-004 9.959090e-004 -3.021735e-004 2.498777e-004
<VARIANCE> 39
 7.914983e+001 5.629525e+001 6.504016e+001 6.690341e+001 6.673487e+001 8.030654e+001 4.972198e+001 4.154061e+001 4.091316e+001 4.123420e+001 4.358953e+001 3.052994e+001 1.836966e+002 1.616252e+000 1.680612e+000 1.592145e+000 2.221946e+000 1.945003e+000 1.951501e+000 2.082671e+000 1.891161e+000 1.704558e+000 1.847978e+000 1.737418e+000 1.253533e+000 2.115463e+000 2.147346e-001 2.380595e-001 2.371068e-001 3.417991e-001 3.368902e-001 3.400898e-001 3.500464e-001 3.550174e-001 3.242797e-001 3.389731e-001 3.182189e-001 2.439308e-001 2.344984e-001
<GCONST> 1.162047e+002
<STATE> 3
<MEAN> 39
 -1.320366e+001 -1.876988e+000 -8.912127e+000 4.821533e-001 -7.331118e+000 -4.806912e-001 -8.685589e+000 -2.881468e+000 -4.184924e+000 -4.051162e+000 -1.413965e+000 -2.233202e+000 4.072678e+001 -3.590016e-004 3.186409e-002 -1.519628e-002 -9.863323e-003 -5.871981e-002 -4.477600e-002 -3.215173e-002 -2.671507e-002 -2.478387e-002 -3.573222e-002 -2.899026e-002 -3.863795e-002 -2.494030e-002 -2.185254e-004 -1.622500e-004 3.425443e-005 -7.503422e-004 1.357508e-003 -9.585583e-004 -4.180817e-004 7.011475e-004 -1.191675e-003 9.774680e-004 9.959090e-004 -3.021735e-004 2.498777e-004
<VARIANCE> 39
 7.914983e+001 5.629525e+001 6.504016e+001 6.690341e+001 6.673487e+001 8.030654e+001 4.972198e+001 4.154061e+001 4.091316e+001 4.123420e+001 4.358953e+001 3.052994e+001 1.836966e+002 1.616252e+000 1.680612e+000 1.592145e+000 2.221946e+000 1.945003e+000 1.951501e+000 2.082671e+000 1.891161e+000 1.704558e+000 1.847978e+000 1.737418e+000 1.253533e+000 2.115463e+000 2.147346e-001 2.380595e-001 2.371068e-001 3.417991e-001 3.368902e-001 3.400898e-001 3.500464e-001 3.550174e-001 3.242797e-001 3.389731e-001 3.182189e-001 2.439308e-001 2.344984e-001
<GCONST> 1.162047e+002
<STATE> 4
<MEAN> 39
 -1.320366e+001 -1.876988e+000 -8.912127e+000 4.821533e-001 -7.331118e+000 -4.806912e-001 -8.685589e+000 -2.881468e+000 -4.184924e+000 -4.051162e+000 -1.413965e+000 -2.233202e+000 4.072678e+001 -3.590016e-004 3.186409e-002 -1.519628e-002 -9.863323e-003 -5.871981e-002 -4.477600e-002 -3.215173e-002 -2.671507e-002 -2.478387e-002 -3.573222e-002 -2.899026e-002 -3.863795e-002 -2.494030e-002 -2.185254e-004 -1.622500e-004 3.425443e-005 -7.503422e-004 1.357508e-003 -9.585583e-004 -4.180817e-004 7.011475e-004 -1.191675e-003 9.774680e-004 9.959090e-004 -3.021735e-004 2.498777e-004
<VARIANCE> 39
 7.914983e+001 5.629525e+001 6.504016e+001 6.690341e+001 6.673487e+001 8.030654e+001 4.972198e+001 4.154061e+001 4.091316e+001 4.123420e+001 4.358953e+001 3.052994e+001 1.836966e+002 1.616252e+000 1.680612e+000 1.592145e+000 2.221946e+000 1.945003e+000 1.951501e+000 2.082671e+000 1.891161e+000 1.704558e+000 1.847978e+000 1.737418e+000 1.253533e+000 2.115463e+000 2.147346e-001 2.380595e-001 2.371068e-001 3.417991e-001 3.368902e-001 3.400898e-001 3.500464e-001 3.550174e-001 3.242797e-001 3.389731e-001 3.182189e-001 2.439308e-001 2.344984e-001
<GCONST> 1.162047e+002
<STATE> 5
<MEAN> 39
 -1.320366e+001 -1.876988e+000 -8.912127e+000 4.821533e-001 -7.331118e+000 -4.806912e-001 -8.685589e+000 -2.881468e+000 -4.184924e+000 -4.051162e+000 -1.413965e+000 -2.233202e+000 4.072678e+001 -3.590016e-004 3.186409e-002 -1.519628e-002 -9.863323e-003 -5.871981e-002 -4.477600e-002 -3.215173e-002 -2.671507e-002 -2.478387e-002 -3.573222e-002 -2.899026e-002 -3.863795e-002 -2.494030e-002 -2.185254e-004 -1.622500e-004 3.425443e-005 -7.503422e-004 1.357508e-003 -9.585583e-004 -4.180817e-004 7.011475e-004 -1.191675e-003 9.774680e-004 9.959090e-004 -3.021735e-004 2.498777e-004
<VARIANCE> 39
 7.914983e+001 5.629525e+001 6.504016e+001 6.690341e+001 6.673487e+001 8.030654e+001 4.972198e+001 4.154061e+001 4.091316e+001 4.123420e+001 4.358953e+001 3.052994e+001 1.836966e+002 1.616252e+000 1.680612e+000 1.592145e+000 2.221946e+000 1.945003e+000 1.951501e+000 2.082671e+000 1.891161e+000 1.704558e+000 1.847978e+000 1.737418e+000 1.253533e+000 2.115463e+000 2.147346e-001 2.380595e-001 2.371068e-001 3.417991e-001 3.368902e-001 3.400898e-001 3.500464e-001 3.550174e-001 3.242797e-001 3.389731e-001 3.182189e-001 2.439308e-001 2.344984e-001
<GCONST> 1.162047e+002
<STATE> 6
<MEAN> 39
 -1.320366e+001 -1.876988e+000 -8.912127e+000 4.821533e-001 -7.331118e+000 -4.806912e-001 -8.685589e+000 -2.881468e+000 -4.184924e+000 -4.051162e+000 -1.413965e+000 -2.233202e+000 4.072678e+001 -3.590016e-004 3.186409e-002 -1.519628e-002 -9.863323e-003 -5.871981e-002 -4.477600e-002 -3.215173e-002 -2.671507e-002 -2.478387e-002 -3.573222e-002 -2.899026e-002 -3.863795e-002 -2.494030e-002 -2.185254e-004 -1.622500e-004 3.425443e-005 -7.503422e-004 1.357508e-003 -9.585583e-004 -4.180817e-004 7.011475e-004 -1.191675e-003 9.774680e-004 9.959090e-004 -3.021735e-004 2.498777e-004
<VARIANCE> 39
 7.914983e+001 5.629525e+001 6.504016e+001 6.690341e+001 6.673487e+001 8.030654e+001 4.972198e+001 4.154061e+001 4.091316e+001 4.123420e+001 4.358953e+001 3.052994e+001 1.836966e+002 1.616252e+000 1.680612e+000 1.592145e+000 2.221946e+000 1.945003e+000 1.951501e+000 2.082671e+000 1.891161e+000 1.704558e+000 1.847978e+000 1.737418e+000 1.253533e+000 2.115463e+000 2.147346e-001 2.380595e-001 2.371068e-001 3.417991e-001 3.368902e-001 3.400898e-001 3.500464e-001 3.550174e-001 3.242797e-001 3.389731e-001 3.182189e-001 2.439308e-001 2.344984e-001
<GCONST> 1.162047e+002
<STATE> 7
<MEAN> 39
 -1.320366e+001 -1.876988e+000 -8.912127e+000 4.821533e-001 -7.331118e+000 -4.806912e-001 -8.685589e+000 -2.881468e+000 -4.184924e+000 -4.051162e+000 -1.413965e+000 -2.233202e+000 4.072678e+001 -3.590016e-004 3.186409e-002 -1.519628e-002 -9.863323e-003 -5.871981e-002 -4.477600e-002 -3.215173e-002 -2.671507e-002 -2.478387e-002 -3.573222e-002 -2.899026e-002 -3.863795e-002 -2.494030e-002 -2.185254e-004 -1.622500e-004 3.425443e-005 -7.503422e-004 1.357508e-003 -9.585583e-004 -4.180817e-004 7.011475e-004 -1.191675e-003 9.774680e-004 9.959090e-004 -3.021735e-004 2.498777e-004
<VARIANCE> 39
 7.914983e+001 5.629525e+001 6.504016e+001 6.690341e+001 6.673487e+001 8.030654e+001 4.972198e+001 4.154061e+001 4.091316e+001 4.123420e+001 4.358953e+001 3.052994e+001 1.836966e+002 1.616252e+000 1.680612e+000 1.592145e+000 2.221946e+000 1.945003e+000 1.951501e+000 2.082671e+000 1.891161e+000 1.704558e+000 1.847978e+000 1.737418e+000 1.253533e+000 2.115463e+000 2.147346e-001 2.380595e-001 2.371068e-001 3.417991e-001 3.368902e-001 3.400898e-001 3.500464e-001 3.550174e-001 3.242797e-001 3.389731e-001 3.182189e-001 2.439308e-001 2.344984e-001
<GCONST> 1.162047e+002
<STATE> 8
<MEAN> 39
 -1.320366e+001 -1.876988e+000 -8.912127e+000 4.821533e-001 -7.331118e+000 -4.806912e-001 -8.685589e+000 -2.881468e+000 -4.184924e+000 -4.051162e+000 -1.413965e+000 -2.233202e+000 4.072678e+001 -3.590016e-004 3.186409e-002 -1.519628e-002 -9.863323e-003 -5.871981e-002 -4.477600e-002 -3.215173e-002 -2.671507e-002 -2.478387e-002 -3.573222e-002 -2.899026e-002 -3.863795e-002 -2.494030e-002 -2.185254e-004 -1.622500e-004 3.425443e-005 -7.503422e-004 1.357508e-003 -9.585583e-004 -4.180817e-004 7.011475e-004 -1.191675e-003 9.774680e-004 9.959090e-004 -3.021735e-004 2.498777e-004
<VARIANCE> 39
 7.914983e+001 5.629525e+001 6.504016e+001 6.690341e+001 6.673487e+001 8.030654e+001 4.972198e+001 4.154061e+001 4.091316e+001 4.123420e+001 4.358953e+001 3.052994e+001 1.836966e+002 1.616252e+000 1.680612e+000 1.592145e+000 2.221946e+000 1.945003e+000 1.951501e+000 2.082671e+000 1.891161e+000 1.704558e+000 1.847978e+000 1.737418e+000 1.253533e+000 2.115463e+000 2.147346e-001 2.380595e-001 2.371068e-001 3.417991e-001 3.368902e-001 3.400898e-001 3.500464e-001 3.550174e-001 3.242797e-001 3.389731e-001 3.182189e-001 2.439308e-001 2.344984e-001
<GCONST> 1.162047e+002
<STATE> 9
<MEAN> 39
 -1.320366e+001 -1.876988e+000 -8.912127e+000 4.821533e-001 -7.331118e+000 -4.806912e-001 -8.685589e+000 -2.881468e+000 -4.184924e+000 -4.051162e+000 -1.413965e+000 -2.233202e+000 4.072678e+001 -3.590016e-004 3.186409e-002 -1.519628e-002 -9.863323e-003 -5.871981e-002 -4.477600e-002 -3.215173e-002 -2.671507e-002 -2.478387e-002 -3.573222e-002 -2.899026e-002 -3.863795e-002 -2.494030e-002 -2.185254e-004 -1.622500e-004 3.425443e-005 -7.503422e-004 1.357508e-003 -9.585583e-004 -4.180817e-004 7.011475e-004 -1.191675e-003 9.774680e-004 9.959090e-004 -3.021735e-004 2.498777e-004
<VARIANCE> 39
 7.914983e+001 5.629525e+001 6.504016e+001 6.690341e+001 6.673487e+001 8.030654e+001 4.972198e+001 4.154061e+001 4.091316e+001 4.123420e+001 4.358953e+001 3.052994e+001 1.836966e+002 1.616252e+000 1.680612e+000 1.592145e+000 2.221946e+000 1.945003e+000 1.951501e+000 2.082671e+000 1.891161e+000 1.704558e+000 1.847978e+000 1.737418e+000 1.253533e+000 2.115463e+000 2.147346e-001 2.380595e-001 2.371068e-001 3.417991e-001 3.368902e-001 3.400898e-001 3.500464e-001 3.550174e-001 3.242797e-001 3.389731e-001 3.182189e-001 2.439308e-001 2.344984e-001
<GCONST> 1.162047e+002
<STATE> 10
<MEAN> 39
 -1.320366e+001 -1.876988e+000 -8.912127e+000 4.821533e-001 -7.331118e+000 -4.806912e-001 -8.685589e+000 -2.881468e+000 -4.184924e+000 -4.051162e+000 -1.413965e+000 -2.233202e+000 4.072678e+001 -3.590016e-004 3.186409e-002 -1.519628e-002 -9.863323e-003 -5.871981e-002 -4.477600e-002 -3.215173e-002 -2.671507e-002 -2.478387e-002 -3.573222e-002 -2.899026e-002 -3.863795e-002 -2.494030e-002 -2.185254e-004 -1.622500e-004 3.425443e-005 -7.503422e-004 1.357508e-003 -9.585583e-004 -4.180817e-004 7.011475e-004 -1.191675e-003 9.774680e-004 9.959090e-004 -3.021735e-004 2.498777e-004
<VARIANCE> 39
 7.914983e+001 5.629525e+001 6.504016e+001 6.690341e+001 6.673487e+001 8.030654e+001 4.972198e+001 4.154061e+001 4.091316e+001 4.123420e+001 4.358953e+001 3.052994e+001 1.836966e+002 1.616252e+000 1.680612e+000 1.592145e+000 2.221946e+000 1.945003e+000 1.951501e+000 2.082671e+000 1.891161e+000 1.704558e+000 1.847978e+000 1.737418e+000 1.253533e+000 2.115463e+000 2.147346e-001 2.380595e-001 2.371068e-001 3.417991e-001 3.368902e-001 3.400898e-001 3.500464e-001 3.550174e-001 3.242797e-001 3.389731e-001 3.182189e-001 2.439308e-001 2.344984e-001
<GCONST> 1.162047e+002
<STATE> 11
<MEAN> 39
 -1.320366e+001 -1.876988e+000 -8.912127e+000 4.821533e-001 -7.331118e+000 -4.806912e-001 -8.685589e+000 -2.881468e+000 -4.184924e+000 -4.051162e+000 -1.413965e+000 -2.233202e+000 4.072678e+001 -3.590016e-004 3.186409e-002 -1.519628e-002 -9.863323e-003 -5.871981e-002 -4.477600e-002 -3.215173e-002 -2.671507e-002 -2.478387e-002 -3.573222e-002 -2.899026e-002 -3.863795e-002 -2.494030e-002 -2.185254e-004 -1.622500e-004 3.425443e-005 -7.503422e-004 1.357508e-003 -9.585583e-004 -4.180817e-004 7.011475e-004 -1.191675e-003 9.774680e-004 9.959090e-004 -3.021735e-004 2.498777e-004
<VARIANCE> 39
 7.914983e+001 5.629525e+001 6.504016e+001 6.690341e+001 6.673487e+001 8.030654e+001 4.972198e+001 4.154061e+001 4.091316e+001 4.123420e+001 4.358953e+001 3.052994e+001 1.836966e+002 1.616252e+000 1.680612e+000 1.592145e+000 2.221946e+000 1.945003e+000 1.951501e+000 2.082671e+000 1.891161e+000 1.704558e+000 1.847978e+000 1.737418e+000 1.253533e+000 2.115463e+000 2.147346e-001 2.380595e-001 2.371068e-001 3.417991e-001 3.368902e-001 3.400898e-001 3.500464e-001 3.550174e-001 3.242797e-001 3.389731e-001 3.182189e-001 2.439308e-001 2.344984e-001
<GCONST> 1.162047e+002
<TRANSP> 12
 0.000000e+000 1.000000e+000 0.000000e+000 0.000000e+000 0.000000e+000 0.000000e+000 0.000000e+000 0.000000e+000 0.000000e+000 0.000000e+000 0.000000e+000 0.000000e+000
 0.000000e+000 6.000000e-001 4.000000e-001 0.000000e+000 0.000000e+000 0.000000e+000 0.000000e+000 0.000000e+000 0.000000e+000 0.000000e+000 0.000000e+000 0.000000e+000
 0.000000e+000 0.000000e+000 6.000000e-001 4.000000e-001 0.000000e+000 0.000000e+000 0.000000e+000 0.000000e+000 0.000000e+000 0.000000e+000 0.000000e+000 0.000000e+000
 0.000000e+000 0.000000e+000 0.000000e+000 6.000000e-001 4.000000e-001 0.000000e+000 0.000000e+000 0.000000e+000 0.000000e+000 0.000000e+000 0.000000e+000 0.000000e+000
 0.000000e+000 0.000000e+000 0.000000e+000 0.000000e+000 6.000000e-001 4.000000e-001 0.000000e+000 0.000000e+000 0.000000e+000 0.000000e+000 0.000000e+000 0.000000e+000
 0.000000e+000 0.000000e+000 0.000000e+000 0.000000e+000 0.000000e+000 6.000000e-001 4.000000e-001 0.000000e+000 0.000000e+000 0.000000e+000 0.000000e+000 0.000000e+000
 0.000000e+000 0.000000e+000 0.000000e+000 0.000000e+000 0.000000e+000 0.000000e+000 6.000000e-001 4.000000e-001 0.000000e+000 0.000000e+000 0.000000e+000 0.000000e+000
 0.000000e+000 0.000000e+000 0.000000e+000 0.000000e+000 0.000000e+000 0.000000e+000 0.000000e+000 6.000000e-001 4.000000e-001 0.000000e+000 0.000000e+000 0.000000e+000
 0.000000e+000 0.000000e+000 0.000000e+000 0.000000e+000 0.000000e+000 0.000000e+000 0.000000e+000 0.000000e+000 6.000000e-001 4.000000e-001 0.000000e+000 0.000000e+000
 0.000000e+000 0.000000e+000 0.000000e+000 0.000000e+000 0.000000e+000 0.000000e+000 0.000000e+000 0.000000e+000 0.000000e+000 6.000000e-001 4.000000e-001 0.000000e+000
 0.000000e+000 0.000000e+000 0.000000e+000 0.000000e+000 0.000000e+000 0.000000e+000 0.000000e+000 0.000000e+000 0.000000e+000 0.000000e+000 6.000000e-001 4.000000e-001
 0.000000e+000 0.000000e+000 0.000000e+000 0.000000e+000 0.000000e+000 0.000000e+000 0.000000e+000 0.000000e+000 0.000000e+000 0.000000e+000 0.000000e+000 0.000000e+000
<ENDHMM>
~h "5AMSA"
<BEGINHMM>
<NUMSTATES> 12
<STATE> 2
<MEAN> 39
 -1.320366e+001 -1.876988e+000 -8.912127e+000 4.821533e-001 -7.331118e+000 -4.806912e-001 -8.685589e+000 -2.881468e+000 -4.184924e+000 -4.051162e+000 -1.413965e+000 -2.233202e+000 4.072678e+001 -3.590016e-004 3.186409e-002 -1.519628e-002 -9.863323e-003 -5.871981e-002 -4.477600e-002 -3.215173e-002 -2.671507e-002 -2.478387e-002 -3.573222e-002 -2.899026e-002 -3.863795e-002 -2.494030e-002 -2.185254e-004 -1.622500e-004 3.425443e-005 -7.503422e-004 1.357508e-003 -9.585583e-004 -4.180817e-004 7.011475e-004 -1.191675e-003 9.774680e-004 9.959090e-004 -3.021735e-004 2.498777e-004
<VARIANCE> 39
 7.914983e+001 5.629525e+001 6.504016e+001 6.690341e+001 6.673487e+001 8.030654e+001 4.972198e+001 4.154061e+001 4.091316e+001 4.123420e+001 4.358953e+001 3.052994e+001 1.836966e+002 1.616252e+000 1.680612e+000 1.592145e+000 2.221946e+000 1.945003e+000 1.951501e+000 2.082671e+000 1.891161e+000 1.704558e+000 1.847978e+000 1.737418e+000 1.253533e+000 2.115463e+000 2.147346e-001 2.380595e-001 2.371068e-001 3.417991e-001 3.368902e-001 3.400898e-001 3.500464e-001 3.550174e-001 3.242797e-001 3.389731e-001 3.182189e-001 2.439308e-001 2.344984e-001
<GCONST> 1.162047e+002
<STATE> 3
<MEAN> 39
 -1.320366e+001 -1.876988e+000 -8.912127e+000 4.821533e-001 -7.331118e+000 -4.806912e-001 -8.685589e+000 -2.881468e+000 -4.184924e+000 -4.051162e+000 -1.413965e+000 -2.233202e+000 4.072678e+001 -3.590016e-004 3.186409e-002 -1.519628e-002 -9.863323e-003 -5.871981e-002 -4.477600e-002 -3.215173e-002 -2.671507e-002 -2.478387e-002 -3.573222e-002 -2.899026e-002 -3.863795e-002 -2.494030e-002 -2.185254e-004 -1.622500e-004 3.425443e-005 -7.503422e-004 1.357508e-003 -9.585583e-004 -4.180817e-004 7.011475e-004 -1.191675e-003 9.774680e-004 9.959090e-004 -3.021735e-004 2.498777e-004
<VARIANCE> 39
 7.914983e+001 5.629525e+001 6.504016e+001 6.690341e+001 6.673487e+001 8.030654e+001 4.972198e+001 4.154061e+001 4.091316e+001 4.123420e+001 4.358953e+001 3.052994e+001 1.836966e+002 1.616252e+000 1.680612e+000 1.592145e+000 2.221946e+000 1.945003e+000 1.951501e+000 2.082671e+000 1.891161e+000 1.704558e+000 1.847978e+000 1.737418e+000 1.253533e+000 2.115463e+000 2.147346e-001 2.380595e-001 2.371068e-001 3.417991e-001 3.368902e-001 3.400898e-001 3.500464e-001 3.550174e-001 3.242797e-001 3.389731e-001 3.182189e-001 2.439308e-001 2.344984e-001
<GCONST> 1.162047e+002
<STATE> 4
<MEAN> 39
 -1.320366e+001 -1.876988e+000 -8.912127e+000 4.821533e-001 -7.331118e+000 -4.806912e-001 -8.685589e+000 -2.881468e+000 -4.184924e+000 -4.051162e+000 -1.413965e+000 -2.233202e+000 4.072678e+001 -3.590016e-004 3.186409e-002 -1.519628e-002 -9.863323e-003 -5.871981e-002 -4.477600e-002 -3.215173e-002 -2.671507e-002 -2.478387e-002 -3.573222e-002 -2.899026e-002 -3.863795e-002 -2.494030e-002 -2.185254e-004 -1.622500e-004 3.425443e-005 -7.503422e-004 1.357508e-003 -9.585583e-004 -4.180817e-004 7.011475e-004 -1.191675e-003 9.774680e-004 9.959090e-004 -3.021735e-004 2.498777e-004
<VARIANCE> 39
 7.914983e+001 5.629525e+001 6.504016e+001 6.690341e+001 6.673487e+001 8.030654e+001 4.972198e+001 4.154061e+001 4.091316e+001 4.123420e+001 4.358953e+001 3.052994e+001 1.836966e+002 1.616252e+000 1.680612e+000 1.592145e+000 2.221946e+000 1.945003e+000 1.951501e+000 2.082671e+000 1.891161e+000 1.704558e+000 1.847978e+000 1.737418e+000 1.253533e+000 2.115463e+000 2.147346e-001 2.380595e-001 2.371068e-001 3.417991e-001 3.368902e-001 3.400898e-001 3.500464e-001 3.550174e-001 3.242797e-001 3.389731e-001 3.182189e-001 2.439308e-001 2.344984e-001
<GCONST> 1.162047e+002
<STATE> 5
<MEAN> 39
 -1.320366e+001 -1.876988e+000 -8.912127e+000 4.821533e-001 -7.331118e+000 -4.806912e-001 -8.685589e+000 -2.881468e+000 -4.184924e+000 -4.051162e+000 -1.413965e+000 -2.233202e+000 4.072678e+001 -3.590016e-004 3.186409e-002 -1.519628e-002 -9.863323e-003 -5.871981e-002 -4.477600e-002 -3.215173e-002 -2.671507e-002 -2.478387e-002 -3.573222e-002 -2.899026e-002 -3.863795e-002 -2.494030e-002 -2.185254e-004 -1.622500e-004 3.425443e-005 -7.503422e-004 1.357508e-003 -9.585583e-004 -4.180817e-004 7.011475e-004 -1.191675e-003 9.774680e-004 9.959090e-004 -3.021735e-004 2.498777e-004
<VARIANCE> 39
 7.914983e+001 5.629525e+001 6.504016e+001 6.690341e+001 6.673487e+001 8.030654e+001 4.972198e+001 4.154061e+001 4.091316e+001 4.123420e+001 4.358953e+001 3.052994e+001 1.836966e+002 1.616252e+000 1.680612e+000 1.592145e+000 2.221946e+000 1.945003e+000 1.951501e+000 2.082671e+000 1.891161e+000 1.704558e+000 1.847978e+000 1.737418e+000 1.253533e+000 2.115463e+000 2.147346e-001 2.380595e-001 2.371068e-001 3.417991e-001 3.368902e-001 3.400898e-001 3.500464e-001 3.550174e-001 3.242797e-001 3.389731e-001 3.182189e-001 2.439308e-001 2.344984e-001
<GCONST> 1.162047e+002
<STATE> 6
<MEAN> 39
 -1.320366e+001 -1.876988e+000 -8.912127e+000 4.821533e-001 -7.331118e+000 -4.806912e-001 -8.685589e+000 -2.881468e+000 -4.184924e+000 -4.051162e+000 -1.413965e+000 -2.233202e+000 4.072678e+001 -3.590016e-004 3.186409e-002 -1.519628e-002 -9.863323e-003 -5.871981e-002 -4.477600e-002 -3.215173e-002 -2.671507e-002 -2.478387e-002 -3.573222e-002 -2.899026e-002 -3.863795e-002 -2.494030e-002 -2.185254e-004 -1.622500e-004 3.425443e-005 -7.503422e-004 1.357508e-003 -9.585583e-004 -4.180817e-004 7.011475e-004 -1.191675e-003 9.774680e-004 9.959090e-004 -3.021735e-004 2.498777e-004
<VARIANCE> 39
 7.914983e+001 5.629525e+001 6.504016e+001 6.690341e+001 6.673487e+001 8.030654e+001 4.972198e+001 4.154061e+001 4.091316e+001 4.123420e+001 4.358953e+001 3.052994e+001 1.836966e+002 1.616252e+000 1.680612e+000 1.592145e+000 2.221946e+000 1.945003e+000 1.951501e+000 2.082671e+000 1.891161e+000 1.704558e+000 1.847978e+000 1.737418e+000 1.253533e+000 2.115463e+000 2.147346e-001 2.380595e-001 2.371068e-001 3.417991e-001 3.368902e-001 3.400898e-001 3.500464e-001 3.550174e-001 3.242797e-001 3.389731e-001 3.182189e-001 2.439308e-001 2.344984e-001
<GCONST> 1.162047e+002
<STATE> 7
<MEAN> 39
 -1.320366e+001 -1.876988e+000 -8.912127e+000 4.821533e-001 -7.331118e+000 -4.806912e-001 -8.685589e+000 -2.881468e+000 -4.184924e+000 -4.051162e+000 -1.413965e+000 -2.233202e+000 4.072678e+001 -3.590016e-004 3.186409e-002 -1.519628e-002 -9.863323e-003 -5.871981e-002 -4.477600e-002 -3.215173e-002 -2.671507e-002 -2.478387e-002 -3.573222e-002 -2.899026e-002 -3.863795e-002 -2.494030e-002 -2.185254e-004 -1.622500e-004 3.425443e-005 -7.503422e-004 1.357508e-003 -9.585583e-004 -4.180817e-004 7.011475e-004 -1.191675e-003 9.774680e-004 9.959090e-004 -3.021735e-004 2.498777e-004
<VARIANCE> 39
 7.914983e+001 5.629525e+001 6.504016e+001 6.690341e+001 6.673487e+001 8.030654e+001 4.972198e+001 4.154061e+001 4.091316e+001 4.123420e+001 4.358953e+001 3.052994e+001 1.836966e+002 1.616252e+000 1.680612e+000 1.592145e+000 2.221946e+000 1.945003e+000 1.951501e+000 2.082671e+000 1.891161e+000 1.704558e+000 1.847978e+000 1.737418e+000 1.253533e+000 2.115463e+000 2.147346e-001 2.380595e-001 2.371068e-001 3.417991e-001 3.368902e-001 3.400898e-001 3.500464e-001 3.550174e-001 3.242797e-001 3.389731e-001 3.182189e-001 2.439308e-001 2.344984e-001
<GCONST> 1.162047e+002
<STATE> 8
<MEAN> 39
 -1.320366e+001 -1.876988e+000 -8.912127e+000 4.821533e-001 -7.331118e+000 -4.806912e-001 -8.685589e+000 -2.881468e+000 -4.184924e+000 -4.051162e+000 -1.413965e+000 -2.233202e+000 4.072678e+001 -3.590016e-004 3.186409e-002 -1.519628e-002 -9.863323e-003 -5.871981e-002 -4.477600e-002 -3.215173e-002 -2.671507e-002 -2.478387e-002 -3.573222e-002 -2.899026e-002 -3.863795e-002 -2.494030e-002 -2.185254e-004 -1.622500e-004 3.425443e-005 -7.503422e-004 1.357508e-003 -9.585583e-004 -4.180817e-004 7.011475e-004 -1.191675e-003 9.774680e-004 9.959090e-004 -3.021735e-004 2.498777e-004
<VARIANCE> 39
 7.914983e+001 5.629525e+001 6.504016e+001 6.690341e+001 6.673487e+001 8.030654e+001 4.972198e+001 4.154061e+001 4.091316e+001 4.123420e+001 4.358953e+001 3.052994e+001 1.836966e+002 1.616252e+000 1.680612e+000 1.592145e+000 2.221946e+000 1.945003e+000 1.951501e+000 2.082671e+000 1.891161e+000 1.704558e+000 1.847978e+000 1.737418e+000 1.253533e+000 2.115463e+000 2.147346e-001 2.380595e-001 2.371068e-001 3.417991e-001 3.368902e-001 3.400898e-001 3.500464e-001 3.550174e-001 3.242797e-001 3.389731e-001 3.182189e-001 2.439308e-001 2.344984e-001
<GCONST> 1.162047e+002
<STATE> 9
<MEAN> 39
 -1.320366e+001 -1.876988e+000 -8.912127e+000 4.821533e-001 -7.331118e+000 -4.806912e-001 -8.685589e+000 -2.881468e+000 -4.184924e+000 -4.051162e+000 -1.413965e+000 -2.233202e+000 4.072678e+001 -3.590016e-004 3.186409e-002 -1.519628e-002 -9.863323e-003 -5.871981e-002 -4.477600e-002 -3.215173e-002 -2.671507e-002 -2.478387e-002 -3.573222e-002 -2.899026e-002 -3.863795e-002 -2.494030e-002 -2.185254e-004 -1.622500e-004 3.425443e-005 -7.503422e-004 1.357508e-003 -9.585583e-004 -4.180817e-004 7.011475e-004 -1.191675e-003 9.774680e-004 9.959090e-004 -3.021735e-004 2.498777e-004
<VARIANCE> 39
 7.914983e+001 5.629525e+001 6.504016e+001 6.690341e+001 6.673487e+001 8.030654e+001 4.972198e+001 4.154061e+001 4.091316e+001 4.123420e+001 4.358953e+001 3.052994e+001 1.836966e+002 1.616252e+000 1.680612e+000 1.592145e+000 2.221946e+000 1.945003e+000 1.951501e+000 2.082671e+000 1.891161e+000 1.704558e+000 1.847978e+000 1.737418e+000 1.253533e+000 2.115463e+000 2.147346e-001 2.380595e-001 2.371068e-001 3.417991e-001 3.368902e-001 3.400898e-001 3.500464e-001 3.550174e-001 3.242797e-001 3.389731e-001 3.182189e-001 2.439308e-001 2.344984e-001
<GCONST> 1.162047e+002
<STATE> 10
<MEAN> 39
 -1.320366e+001 -1.876988e+000 -8.912127e+000 4.821533e-001 -7.331118e+000 -4.806912e-001 -8.685589e+000 -2.881468e+000 -4.184924e+000 -4.051162e+000 -1.413965e+000 -2.233202e+000 4.072678e+001 -3.590016e-004 3.186409e-002 -1.519628e-002 -9.863323e-003 -5.871981e-002 -4.477600e-002 -3.215173e-002 -2.671507e-002 -2.478387e-002 -3.573222e-002 -2.899026e-002 -3.863795e-002 -2.494030e-002 -2.185254e-004 -1.622500e-004 3.425443e-005 -7.503422e-004 1.357508e-003 -9.585583e-004 -4.180817e-004 7.011475e-004 -1.191675e-003 9.774680e-004 9.959090e-004 -3.021735e-004 2.498777e-004
<VARIANCE> 39
 7.914983e+001 5.629525e+001 6.504016e+001 6.690341e+001 6.673487e+001 8.030654e+001 4.972198e+001 4.154061e+001 4.091316e+001 4.123420e+001 4.358953e+001 3.052994e+001 1.836966e+002 1.616252e+000 1.680612e+000 1.592145e+000 2.221946e+000 1.945003e+000 1.951501e+000 2.082671e+000 1.891161e+000 1.704558e+000 1.847978e+000 1.737418e+000 1.253533e+000 2.115463e+000 2.147346e-001 2.380595e-001 2.371068e-001 3.417991e-001 3.368902e-001 3.400898e-001 3.500464e-001 3.550174e-001 3.242797e-001 3.389731e-001 3.182189e-001 2.439308e-001 2.344984e-001
<GCONST> 1.162047e+002
<STATE> 11
<MEAN> 39
 -1.320366e+001 -1.876988e+000 -8.912127e+000 4.821533e-001 -7.331118e+000 -4.806912e-001 -8.685589e+000 -2.881468e+000 -4.184924e+000 -4.051162e+000 -1.413965e+000 -2.233202e+000 4.072678e+001 -3.590016e-004 3.186409e-002 -1.519628e-002 -9.863323e-003 -5.871981e-002 -4.477600e-002 -3.215173e-002 -2.671507e-002 -2.478387e-002 -3.573222e-002 -2.899026e-002 -3.863795e-002 -2.494030e-002 -2.185254e-004 -1.622500e-004 3.425443e-005 -7.503422e-004 1.357508e-003 -9.585583e-004 -4.180817e-004 7.011475e-004 -1.191675e-003 9.774680e-004 9.959090e-004 -3.021735e-004 2.498777e-004
<VARIANCE> 39
 7.914983e+001 5.629525e+001 6.504016e+001 6.690341e+001 6.673487e+001 8.030654e+001 4.972198e+001 4.154061e+001 4.091316e+001 4.123420e+001 4.358953e+001 3.052994e+001 1.836966e+002 1.616252e+000 1.680612e+000 1.592145e+000 2.221946e+000 1.945003e+000 1.951501e+000 2.082671e+000 1.891161e+000 1.704558e+000 1.847978e+000 1.737418e+000 1.253533e+000 2.115463e+000 2.147346e-001 2.380595e-001 2.371068e-001 3.417991e-001 3.368902e-001 3.400898e-001 3.500464e-001 3.550174e-001 3.242797e-001 3.389731e-001 3.182189e-001 2.439308e-001 2.344984e-001
<GCONST> 1.162047e+002
<TRANSP> 12
 0.000000e+000 1.000000e+000 0.000000e+000 0.000000e+000 0.000000e+000 0.000000e+000 0.000000e+000 0.000000e+000 0.000000e+000 0.000000e+000 0.000000e+000 0.000000e+000
 0.000000e+000 6.000000e-001 4.000000e-001 0.000000e+000 0.000000e+000 0.000000e+000 0.000000e+000 0.000000e+000 0.000000e+000 0.000000e+000 0.000000e+000 0.000000e+000
 0.000000e+000 0.000000e+000 6.000000e-001 4.000000e-001 0.000000e+000 0.000000e+000 0.000000e+000 0.000000e+000 0.000000e+000 0.000000e+000 0.000000e+000 0.000000e+000
 0.000000e+000 0.000000e+000 0.000000e+000 6.000000e-001 4.000000e-001 0.000000e+000 0.000000e+000 0.000000e+000 0.000000e+000 0.000000e+000 0.000000e+000 0.000000e+000
 0.000000e+000 0.000000e+000 0.000000e+000 0.000000e+000 6.000000e-001 4.000000e-001 0.000000e+000 0.000000e+000 0.000000e+000 0.000000e+000 0.000000e+000 0.000000e+000
 0.000000e+000 0.000000e+000 0.000000e+000 0.000000e+000 0.000000e+000 6.000000e-001 4.000000e-001 0.000000e+000 0.000000e+000 0.000000e+000 0.000000e+000 0.000000e+000
 0.000000e+000 0.000000e+000 0.000000e+000 0.000000e+000 0.000000e+000 0.000000e+000 6.000000e-001 4.000000e-001 0.000000e+000 0.000000e+000 0.000000e+000 0.000000e+000
 0.000000e+000 0.000000e+000 0.000000e+000 0.000000e+000 0.000000e+000 0.000000e+000 0.000000e+000 6.000000e-001 4.000000e-001 0.000000e+000 0.000000e+000 0.000000e+000
 0.000000e+000 0.000000e+000 0.000000e+000 0.000000e+000 0.000000e+000 0.000000e+000 0.000000e+000 0.000000e+000 6.000000e-001 4.000000e-001 0.000000e+000 0.000000e+000
 0.000000e+000 0.000000e+000 0.000000e+000 0.000000e+000 0.000000e+000 0.000000e+000 0.000000e+000 0.000000e+000 0.000000e+000 6.000000e-001 4.000000e-001 0.000000e+000
 0.000000e+000 0.000000e+000 0.000000e+000 0.000000e+000 0.000000e+000 0.000000e+000 0.000000e+000 0.000000e+000 0.000000e+000 0.000000e+000 6.000000e-001 4.000000e-001
 0.000000e+000 0.000000e+000 0.000000e+000 0.000000e+000 0.000000e+000 0.000000e+000 0.000000e+000 0.000000e+000 0.000000e+000 0.000000e+000 0.000000e+000 0.000000e+000
<ENDHMM>
~h "SETTA"
<BEGINHMM>
<NUMSTATES> 12
<STATE> 2
<MEAN> 39
 -1.320366e+001 -1.876988e+000 -8.912127e+000 4.821533e-001 -7.331118e+000 -4.806912e-001 -8.685589e+000 -2.881468e+000 -4.184924e+000 -4.051162e+000 -1.413965e+000 -2.233202e+000 4.072678e+001 -3.590016e-004 3.186409e-002 -1.519628e-002 -9.863323e-003 -5.871981e-002 -4.477600e-002 -3.215173e-002 -2.671507e-002 -2.478387e-002 -3.573222e-002 -2.899026e-002 -3.863795e-002 -2.494030e-002 -2.185254e-004 -1.622500e-004 3.425443e-005 -7.503422e-004 1.357508e-003 -9.585583e-004 -4.180817e-004 7.011475e-004 -1.191675e-003 9.774680e-004 9.959090e-004 -3.021735e-004 2.498777e-004
<VARIANCE> 39
 7.914983e+001 5.629525e+001 6.504016e+001 6.690341e+001 6.673487e+001 8.030654e+001 4.972198e+001 4.154061e+001 4.091316e+001 4.123420e+001 4.358953e+001 3.052994e+001 1.836966e+002 1.616252e+000 1.680612e+000 1.592145e+000 2.221946e+000 1.945003e+000 1.951501e+000 2.082671e+000 1.891161e+000 1.704558e+000 1.847978e+000 1.737418e+000 1.253533e+000 2.115463e+000 2.147346e-001 2.380595e-001 2.371068e-001 3.417991e-001 3.368902e-001 3.400898e-001 3.500464e-001 3.550174e-001 3.242797e-001 3.389731e-001 3.182189e-001 2.439308e-001 2.344984e-001
<GCONST> 1.162047e+002
<STATE> 3
<MEAN> 39
 -1.320366e+001 -1.876988e+000 -8.912127e+000 4.821533e-001 -7.331118e+000 -4.806912e-001 -8.685589e+000 -2.881468e+000 -4.184924e+000 -4.051162e+000 -1.413965e+000 -2.233202e+000 4.072678e+001 -3.590016e-004 3.186409e-002 -1.519628e-002 -9.863323e-003 -5.871981e-002 -4.477600e-002 -3.215173e-002 -2.671507e-002 -2.478387e-002 -3.573222e-002 -2.899026e-002 -3.863795e-002 -2.494030e-002 -2.185254e-004 -1.622500e-004 3.425443e-005 -7.503422e-004 1.357508e-003 -9.585583e-004 -4.180817e-004 7.011475e-004 -1.191675e-003 9.774680e-004 9.959090e-004 -3.021735e-004 2.498777e-004
<VARIANCE> 39
 7.914983e+001 5.629525e+001 6.504016e+001 6.690341e+001 6.673487e+001 8.030654e+001 4.972198e+001 4.154061e+001 4.091316e+001 4.123420e+001 4.358953e+001 3.052994e+001 1.836966e+002 1.616252e+000 1.680612e+000 1.592145e+000 2.221946e+000 1.945003e+000 1.951501e+000 2.082671e+000 1.891161e+000 1.704558e+000 1.847978e+000 1.737418e+000 1.253533e+000 2.115463e+000 2.147346e-001 2.380595e-001 2.371068e-001 3.417991e-001 3.368902e-001 3.400898e-001 3.500464e-001 3.550174e-001 3.242797e-001 3.389731e-001 3.182189e-001 2.439308e-001 2.344984e-001
<GCONST> 1.162047e+002
<STATE> 4
<MEAN> 39
 -1.320366e+001 -1.876988e+000 -8.912127e+000 4.821533e-001 -7.331118e+000 -4.806912e-001 -8.685589e+000 -2.881468e+000 -4.184924e+000 -4.051162e+000 -1.413965e+000 -2.233202e+000 4.072678e+001 -3.590016e-004 3.186409e-002 -1.519628e-002 -9.863323e-003 -5.871981e-002 -4.477600e-002 -3.215173e-002 -2.671507e-002 -2.478387e-002 -3.573222e-002 -2.899026e-002 -3.863795e-002 -2.494030e-002 -2.185254e-004 -1.622500e-004 3.425443e-005 -7.503422e-004 1.357508e-003 -9.585583e-004 -4.180817e-004 7.011475e-004 -1.191675e-003 9.774680e-004 9.959090e-004 -3.021735e-004 2.498777e-004
<VARIANCE> 39
 7.914983e+001 5.629525e+001 6.504016e+001 6.690341e+001 6.673487e+001 8.030654e+001 4.972198e+001 4.154061e+001 4.091316e+001 4.123420e+001 4.358953e+001 3.052994e+001 1.836966e+002 1.616252e+000 1.680612e+000 1.592145e+000 2.221946e+000 1.945003e+000 1.951501e+000 2.082671e+000 1.891161e+000 1.704558e+000 1.847978e+000 1.737418e+000 1.253533e+000 2.115463e+000 2.147346e-001 2.380595e-001 2.371068e-001 3.417991e-001 3.368902e-001 3.400898e-001 3.500464e-001 3.550174e-001 3.242797e-001 3.389731e-001 3.182189e-001 2.439308e-001 2.344984e-001
<GCONST> 1.162047e+002
<STATE> 5
<MEAN> 39
 -1.320366e+001 -1.876988e+000 -8.912127e+000 4.821533e-001 -7.331118e+000 -4.806912e-001 -8.685589e+000 -2.881468e+000 -4.184924e+000 -4.051162e+000 -1.413965e+000 -2.233202e+000 4.072678e+001 -3.590016e-004 3.186409e-002 -1.519628e-002 -9.863323e-003 -5.871981e-002 -4.477600e-002 -3.215173e-002 -2.671507e-002 -2.478387e-002 -3.573222e-002 -2.899026e-002 -3.863795e-002 -2.494030e-002 -2.185254e-004 -1.622500e-004 3.425443e-005 -7.503422e-004 1.357508e-003 -9.585583e-004 -4.180817e-004 7.011475e-004 -1.191675e-003 9.774680e-004 9.959090e-004 -3.021735e-004 2.498777e-004
<VARIANCE> 39
 7.914983e+001 5.629525e+001 6.504016e+001 6.690341e+001 6.673487e+001 8.030654e+001 4.972198e+001 4.154061e+001 4.091316e+001 4.123420e+001 4.358953e+001 3.052994e+001 1.836966e+002 1.616252e+000 1.680612e+000 1.592145e+000 2.221946e+000 1.945003e+000 1.951501e+000 2.082671e+000 1.891161e+000 1.704558e+000 1.847978e+000 1.737418e+000 1.253533e+000 2.115463e+000 2.147346e-001 2.380595e-001 2.371068e-001 3.417991e-001 3.368902e-001 3.400898e-001 3.500464e-001 3.550174e-001 3.242797e-001 3.389731e-001 3.182189e-001 2.439308e-001 2.344984e-001
<GCONST> 1.162047e+002
<STATE> 6
<MEAN> 39
 -1.320366e+001 -1.876988e+000 -8.912127e+000 4.821533e-001 -7.331118e+000 -4.806912e-001 -8.685589e+000 -2.881468e+000 -4.184924e+000 -4.051162e+000 -1.413965e+000 -2.233202e+000 4.072678e+001 -3.590016e-004 3.186409e-002 -1.519628e-002 -9.863323e-003 -5.871981e-002 -4.477600e-002 -3.215173e-002 -2.671507e-002 -2.478387e-002 -3.573222e-002 -2.899026e-002 -3.863795e-002 -2.494030e-002 -2.185254e-004 -1.622500e-004 3.425443e-005 -7.503422e-004 1.357508e-003 -9.585583e-004 -4.180817e-004 7.011475e-004 -1.191675e-003 9.774680e-004 9.959090e-004 -3.021735e-004 2.498777e-004
<VARIANCE> 39
 7.914983e+001 5.629525e+001 6.504016e+001 6.690341e+001 6.673487e+001 8.030654e+001 4.972198e+001 4.154061e+001 4.091316e+001 4.123420e+001 4.358953e+001 3.052994e+001 1.836966e+002 1.616252e+000 1.680612e+000 1.592145e+000 2.221946e+000 1.945003e+000 1.951501e+000 2.082671e+000 1.891161e+000 1.704558e+000 1.847978e+000 1.737418e+000 1.253533e+000 2.115463e+000 2.147346e-001 2.380595e-001 2.371068e-001 3.417991e-001 3.368902e-001 3.400898e-001 3.500464e-001 3.550174e-001 3.242797e-001 3.389731e-001 3.182189e-001 2.439308e-001 2.344984e-001
<GCONST> 1.162047e+002
<STATE> 7
<MEAN> 39
 -1.320366e+001 -1.876988e+000 -8.912127e+000 4.821533e-001 -7.331118e+000 -4.806912e-001 -8.685589e+000 -2.881468e+000 -4.184924e+000 -4.051162e+000 -1.413965e+000 -2.233202e+000 4.072678e+001 -3.590016e-004 3.186409e-002 -1.519628e-002 -9.863323e-003 -5.871981e-002 -4.477600e-002 -3.215173e-002 -2.671507e-002 -2.478387e-002 -3.573222e-002 -2.899026e-002 -3.863795e-002 -2.494030e-002 -2.185254e-004 -1.622500e-004 3.425443e-005 -7.503422e-004 1.357508e-003 -9.585583e-004 -4.180817e-004 7.011475e-004 -1.191675e-003 9.774680e-004 9.959090e-004 -3.021735e-004 2.498777e-004
<VARIANCE> 39
 7.914983e+001 5.629525e+001 6.504016e+001 6.690341e+001 6.673487e+001 8.030654e+001 4.972198e+001 4.154061e+001 4.091316e+001 4.123420e+001 4.358953e+001 3.052994e+001 1.836966e+002 1.616252e+000 1.680612e+000 1.592145e+000 2.221946e+000 1.945003e+000 1.951501e+000 2.082671e+000 1.891161e+000 1.704558e+000 1.847978e+000 1.737418e+000 1.253533e+000 2.115463e+000 2.147346e-001 2.380595e-001 2.371068e-001 3.417991e-001 3.368902e-001 3.400898e-001 3.500464e-001 3.550174e-001 3.242797e-001 3.389731e-001 3.182189e-001 2.439308e-001 2.344984e-001
<GCONST> 1.162047e+002
<STATE> 8
<MEAN> 39
 -1.320366e+001 -1.876988e+000 -8.912127e+000 4.821533e-001 -7.331118e+000 -4.806912e-001 -8.685589e+000 -2.881468e+000 -4.184924e+000 -4.051162e+000 -1.413965e+000 -2.233202e+000 4.072678e+001 -3.590016e-004 3.186409e-002 -1.519628e-002 -9.863323e-003 -5.871981e-002 -4.477600e-002 -3.215173e-002 -2.671507e-002 -2.478387e-002 -3.573222e-002 -2.899026e-002 -3.863795e-002 -2.494030e-002 -2.185254e-004 -1.622500e-004 3.425443e-005 -7.503422e-004 1.357508e-003 -9.585583e-004 -4.180817e-004 7.011475e-004 -1.191675e-003 9.774680e-004 9.959090e-004 -3.021735e-004 2.498777e-004
<VARIANCE> 39
 7.914983e+001 5.629525e+001 6.504016e+001 6.690341e+001 6.673487e+001 8.030654e+001 4.972198e+001 4.154061e+001 4.091316e+001 4.123420e+001 4.358953e+001 3.052994e+001 1.836966e+002 1.616252e+000 1.680612e+000 1.592145e+000 2.221946e+000 1.945003e+000 1.951501e+000 2.082671e+000 1.891161e+000 1.704558e+000 1.847978e+000 1.737418e+000 1.253533e+000 2.115463e+000 2.147346e-001 2.380595e-001 2.371068e-001 3.417991e-001 3.368902e-001 3.400898e-001 3.500464e-001 3.550174e-001 3.242797e-001 3.389731e-001 3.182189e-001 2.439308e-001 2.344984e-001
<GCONST> 1.162047e+002
<STATE> 9
<MEAN> 39
 -1.320366e+001 -1.876988e+000 -8.912127e+000 4.821533e-001 -7.331118e+000 -4.806912e-001 -8.685589e+000 -2.881468e+000 -4.184924e+000 -4.051162e+000 -1.413965e+000 -2.233202e+000 4.072678e+001 -3.590016e-004 3.186409e-002 -1.519628e-002 -9.863323e-003 -5.871981e-002 -4.477600e-002 -3.215173e-002 -2.671507e-002 -2.478387e-002 -3.573222e-002 -2.899026e-002 -3.863795e-002 -2.494030e-002 -2.185254e-004 -1.622500e-004 3.425443e-005 -7.503422e-004 1.357508e-003 -9.585583e-004 -4.180817e-004 7.011475e-004 -1.191675e-003 9.774680e-004 9.959090e-004 -3.021735e-004 2.498777e-004
<VARIANCE> 39
 7.914983e+001 5.629525e+001 6.504016e+001 6.690341e+001 6.673487e+001 8.030654e+001 4.972198e+001 4.154061e+001 4.091316e+001 4.123420e+001 4.358953e+001 3.052994e+001 1.836966e+002 1.616252e+000 1.680612e+000 1.592145e+000 2.221946e+000 1.945003e+000 1.951501e+000 2.082671e+000 1.891161e+000 1.704558e+000 1.847978e+000 1.737418e+000 1.253533e+000 2.115463e+000 2.147346e-001 2.380595e-001 2.371068e-001 3.417991e-001 3.368902e-001 3.400898e-001 3.500464e-001 3.550174e-001 3.242797e-001 3.389731e-001 3.182189e-001 2.439308e-001 2.344984e-001
<GCONST> 1.162047e+002
<STATE> 10
<MEAN> 39
 -1.320366e+001 -1.876988e+000 -8.912127e+000 4.821533e-001 -7.331118e+000 -4.806912e-001 -8.685589e+000 -2.881468e+000 -4.184924e+000 -4.051162e+000 -1.413965e+000 -2.233202e+000 4.072678e+001 -3.590016e-004 3.186409e-002 -1.519628e-002 -9.863323e-003 -5.871981e-002 -4.477600e-002 -3.215173e-002 -2.671507e-002 -2.478387e-002 -3.573222e-002 -2.899026e-002 -3.863795e-002 -2.494030e-002 -2.185254e-004 -1.622500e-004 3.425443e-005 -7.503422e-004 1.357508e-003 -9.585583e-004 -4.180817e-004 7.011475e-004 -1.191675e-003 9.774680e-004 9.959090e-004 -3.021735e-004 2.498777e-004
<VARIANCE> 39
 7.914983e+001 5.629525e+001 6.504016e+001 6.690341e+001 6.673487e+001 8.030654e+001 4.972198e+001 4.154061e+001 4.091316e+001 4.123420e+001 4.358953e+001 3.052994e+001 1.836966e+002 1.616252e+000 1.680612e+000 1.592145e+000 2.221946e+000 1.945003e+000 1.951501e+000 2.082671e+000 1.891161e+000 1.704558e+000 1.847978e+000 1.737418e+000 1.253533e+000 2.115463e+000 2.147346e-001 2.380595e-001 2.371068e-001 3.417991e-001 3.368902e-001 3.400898e-001 3.500464e-001 3.550174e-001 3.242797e-001 3.389731e-001 3.182189e-001 2.439308e-001 2.344984e-001
<GCONST> 1.162047e+002
<STATE> 11
<MEAN> 39
 -1.320366e+001 -1.876988e+000 -8.912127e+000 4.821533e-001 -7.331118e+000 -4.806912e-001 -8.685589e+000 -2.881468e+000 -4.184924e+000 -4.051162e+000 -1.413965e+000 -2.233202e+000 4.072678e+001 -3.590016e-004 3.186409e-002 -1.519628e-002 -9.863323e-003 -5.871981e-002 -4.477600e-002 -3.215173e-002 -2.671507e-002 -2.478387e-002 -3.573222e-002 -2.899026e-002 -3.863795e-002 -2.494030e-002 -2.185254e-004 -1.622500e-004 3.425443e-005 -7.503422e-004 1.357508e-003 -9.585583e-004 -4.180817e-004 7.011475e-004 -1.191675e-003 9.774680e-004 9.959090e-004 -3.021735e-004 2.498777e-004
<VARIANCE> 39
 7.914983e+001 5.629525e+001 6.504016e+001 6.690341e+001 6.673487e+001 8.030654e+001 4.972198e+001 4.154061e+001 4.091316e+001 4.123420e+001 4.358953e+001 3.052994e+001 1.836966e+002 1.616252e+000 1.680612e+000 1.592145e+000 2.221946e+000 1.945003e+000 1.951501e+000 2.082671e+000 1.891161e+000 1.704558e+000 1.847978e+000 1.737418e+000 1.253533e+000 2.115463e+000 2.147346e-001 2.380595e-001 2.371068e-001 3.417991e-001 3.368902e-001 3.400898e-001 3.500464e-001 3.550174e-001 3.242797e-001 3.389731e-001 3.182189e-001 2.439308e-001 2.344984e-001
<GCONST> 1.162047e+002
<TRANSP> 12
 0.000000e+000 1.000000e+000 0.000000e+000 0.000000e+000 0.000000e+000 0.000000e+000 0.000000e+000 0.000000e+000 0.000000e+000 0.000000e+000 0.000000e+000 0.000000e+000
 0.000000e+000 6.000000e-001 4.000000e-001 0.000000e+000 0.000000e+000 0.000000e+000 0.000000e+000 0.000000e+000 0.000000e+000 0.000000e+000 0.000000e+000 0.000000e+000
 0.000000e+000 0.000000e+000 6.000000e-001 4.000000e-001 0.000000e+000 0.000000e+000 0.000000e+000 0.000000e+000 0.000000e+000 0.000000e+000 0.000000e+000 0.000000e+000
 0.000000e+000 0.000000e+000 0.000000e+000 6.000000e-001 4.000000e-001 0.000000e+000 0.000000e+000 0.000000e+000 0.000000e+000 0.000000e+000 0.000000e+000 0.000000e+000
 0.000000e+000 0.000000e+000 0.000000e+000 0.000000e+000 6.000000e-001 4.000000e-001 0.000000e+000 0.000000e+000 0.000000e+000 0.000000e+000 0.000000e+000 0.000000e+000
 0.000000e+000 0.000000e+000 0.000000e+000 0.000000e+000 0.000000e+000 6.000000e-001 4.000000e-001 0.000000e+000 0.000000e+000 0.000000e+000 0.000000e+000 0.000000e+000
 0.000000e+000 0.000000e+000 0.000000e+000 0.000000e+000 0.000000e+000 0.000000e+000 6.000000e-001 4.000000e-001 0.000000e+000 0.000000e+000 0.000000e+000 0.000000e+000
 0.000000e+000 0.000000e+000 0.000000e+000 0.000000e+000 0.000000e+000 0.000000e+000 0.000000e+000 6.000000e-001 4.000000e-001 0.000000e+000 0.000000e+000 0.000000e+000
 0.000000e+000 0.000000e+000 0.000000e+000 0.000000e+000 0.000000e+000 0.000000e+000 0.000000e+000 0.000000e+000 6.000000e-001 4.000000e-001 0.000000e+000 0.000000e+000
 0.000000e+000 0.000000e+000 0.000000e+000 0.000000e+000 0.000000e+000 0.000000e+000 0.000000e+000 0.000000e+000 0.000000e+000 6.000000e-001 4.000000e-001 0.000000e+000
 0.000000e+000 0.000000e+000 0.000000e+000 0.000000e+000 0.000000e+000 0.000000e+000 0.000000e+000 0.000000e+000 0.000000e+000 0.000000e+000 6.000000e-001 4.000000e-001
 0.000000e+000 0.000000e+000 0.000000e+000 0.000000e+000 0.000000e+000 0.000000e+000 0.000000e+000 0.000000e+000 0.000000e+000 0.000000e+000 0.000000e+000 0.000000e+000
<ENDHMM>
~h "SAB3A"
<BEGINHMM>
<NUMSTATES> 12
<STATE> 2
<MEAN> 39
 -1.320366e+001 -1.876988e+000 -8.912127e+000 4.821533e-001 -7.331118e+000 -4.806912e-001 -8.685589e+000 -2.881468e+000 -4.184924e+000 -4.051162e+000 -1.413965e+000 -2.233202e+000 4.072678e+001 -3.590016e-004 3.186409e-002 -1.519628e-002 -9.863323e-003 -5.871981e-002 -4.477600e-002 -3.215173e-002 -2.671507e-002 -2.478387e-002 -3.573222e-002 -2.899026e-002 -3.863795e-002 -2.494030e-002 -2.185254e-004 -1.622500e-004 3.425443e-005 -7.503422e-004 1.357508e-003 -9.585583e-004 -4.180817e-004 7.011475e-004 -1.191675e-003 9.774680e-004 9.959090e-004 -3.021735e-004 2.498777e-004
<VARIANCE> 39
 7.914983e+001 5.629525e+001 6.504016e+001 6.690341e+001 6.673487e+001 8.030654e+001 4.972198e+001 4.154061e+001 4.091316e+001 4.123420e+001 4.358953e+001 3.052994e+001 1.836966e+002 1.616252e+000 1.680612e+000 1.592145e+000 2.221946e+000 1.945003e+000 1.951501e+000 2.082671e+000 1.891161e+000 1.704558e+000 1.847978e+000 1.737418e+000 1.253533e+000 2.115463e+000 2.147346e-001 2.380595e-001 2.371068e-001 3.417991e-001 3.368902e-001 3.400898e-001 3.500464e-001 3.550174e-001 3.242797e-001 3.389731e-001 3.182189e-001 2.439308e-001 2.344984e-001
<GCONST> 1.162047e+002
<STATE> 3
<MEAN> 39
